booster[0]:
0:[f5<99.3145294] yes=1,no=2,missing=2
	1:[f13<0.664550781] yes=3,no=4,missing=4
		3:[f12<0.740722656] yes=7,no=8,missing=8
			7:[f6<206.620117] yes=13,no=14,missing=14
				13:[f4<155.423203] yes=23,no=24,missing=24
					23:[f14<0.467773438] yes=41,no=42,missing=42
						41:[f14<0.225341797] yes=71,no=72,missing=72
							71:[f18<0.0215148926] yes=121,no=122,missing=122
								121:[f17<0.351074219] yes=195,no=196,missing=196
									195:[f18<0.0181121826] yes=293,no=294,missing=294
										293:leaf=-1.03999996
										294:leaf=-0
									196:[f6<157.422394] yes=295,no=296,missing=296
										295:leaf=-0
										296:leaf=0.779999971
								122:[f10<241] yes=197,no=198,missing=198
									197:[f4<33.5571899] yes=297,no=298,missing=298
										297:leaf=-0
										298:[f17<0.999511719] yes=409,no=410,missing=410
											409:[f18<0.999511719] yes=545,no=546,missing=546
												545:[f19<0.998535156] yes=675,no=676,missing=676
													675:[f0<0.517684042] yes=817,no=818,missing=818
														817:leaf=-0
														818:[f1<5.92579985] yes=955,no=956,missing=956
															955:[f17<0.998046875] yes=1069,no=1070,missing=1070
																1069:[f7<6.94651175] yes=1149,no=1150,missing=1150
																	1149:leaf=-0
																	1150:[f8<30.171875] yes=1225,no=1226,missing=1226
																		1225:leaf=-0
																		1226:leaf=-1.27367091
																1070:[f16<0.392578125] yes=1151,no=1152,missing=1152
																	1151:leaf=-0.866666675
																	1152:leaf=0.312000006
															956:leaf=-0
													676:leaf=-0
												546:leaf=-0
											410:leaf=-0
									198:leaf=-0
							72:[f18<0.370117188] yes=123,no=124,missing=124
								123:[f13<0.228027344] yes=199,no=200,missing=200
									199:[f18<0.071472168] yes=299,no=300,missing=300
										299:[f0<1.80335796] yes=411,no=412,missing=412
											411:[f3<1.04995894] yes=547,no=548,missing=548
												547:leaf=-0
												548:leaf=0.668571413
											412:leaf=-0.866666675
										300:[f0<0.557459712] yes=413,no=414,missing=414
											413:leaf=-0
											414:leaf=1.19294119
									200:[f18<0.0169830322] yes=301,no=302,missing=302
										301:[f1<2.04976821] yes=415,no=416,missing=416
											415:leaf=0.866666675
											416:leaf=-0
										302:[f13<0.641601562] yes=417,no=418,missing=418
											417:[f17<0.136108398] yes=549,no=550,missing=550
												549:[f11<54.625] yes=677,no=678,missing=678
													677:leaf=0.312000006
													678:[f6<140.482925] yes=819,no=820,missing=820
														819:leaf=-0
														820:leaf=-0.519999981
												550:[f1<0.524210572] yes=679,no=680,missing=680
													679:leaf=-0
													680:leaf=-1.24800003
											418:[f0<1.48164582] yes=551,no=552,missing=552
												551:leaf=-0
												552:leaf=0.312000006
								124:[f2<4.45400095] yes=201,no=202,missing=202
									201:[f8<56.4375] yes=303,no=304,missing=304
										303:[f8<30.65625] yes=419,no=420,missing=420
											419:leaf=-0
											420:[f0<5.23355293] yes=553,no=554,missing=554
												553:leaf=-1.32452822
												554:leaf=-0
										304:[f6<170.145737] yes=421,no=422,missing=422
											421:leaf=-0.668571413
											422:[f3<2.42821264] yes=555,no=556,missing=556
												555:leaf=0.779999971
												556:leaf=-0
									202:[f7<80.6121292] yes=305,no=306,missing=306
										305:leaf=-0.312000006
										306:leaf=0.668571413
						42:[f7<151.975479] yes=73,no=74,missing=74
							73:[f6<133.9702] yes=125,no=126,missing=126
								125:[f5<75.6231766] yes=203,no=204,missing=204
									203:[f6<118.628586] yes=307,no=308,missing=308
										307:[f16<0.170288086] yes=423,no=424,missing=424
											423:[f19<0.120300293] yes=557,no=558,missing=558
												557:[f1<2.17309141] yes=681,no=682,missing=682
													681:leaf=0.519999981
													682:leaf=-0
												558:[f3<0.746685386] yes=683,no=684,missing=684
													683:leaf=-0
													684:[f15<0.998535156] yes=821,no=822,missing=822
														821:leaf=-1.08000004
														822:leaf=-0
											424:[f12<0.71484375] yes=559,no=560,missing=560
												559:[f11<37.9375] yes=685,no=686,missing=686
													685:[f0<3.11018944] yes=823,no=824,missing=824
														823:[f11<34.125] yes=957,no=958,missing=958
															957:leaf=-0.668571413
															958:leaf=-0
														824:leaf=-0
													686:[f9<33.75] yes=825,no=826,missing=826
														825:[f2<0.79102844] yes=959,no=960,missing=960
															959:leaf=-0.312000006
															960:leaf=-0
														826:[f0<0.755122423] yes=961,no=962,missing=962
															961:leaf=-0
															962:leaf=-1.39285707
												560:leaf=-0
										308:[f11<84.8125] yes=425,no=426,missing=426
											425:[f15<0.883300781] yes=561,no=562,missing=562
												561:[f0<1.51531708] yes=687,no=688,missing=688
													687:[f4<71.490715] yes=827,no=828,missing=828
														827:leaf=-0.312000006
														828:leaf=0.668571413
													688:[f13<0.0916137695] yes=829,no=830,missing=830
														829:leaf=-0
														830:[f7<25.1379299] yes=963,no=964,missing=964
															963:leaf=-0
															964:[f11<35.71875] yes=1071,no=1072,missing=1072
																1071:[f4<94.1416016] yes=1153,no=1154,missing=1154
																	1153:leaf=-0.312000006
																	1154:leaf=-0
																1072:leaf=-1.33714283
												562:[f4<118.251976] yes=689,no=690,missing=690
													689:[f15<0.941894531] yes=831,no=832,missing=832
														831:leaf=1.19294119
														832:[f0<2.73286104] yes=965,no=966,missing=966
															965:[f2<2.08385873] yes=1073,no=1074,missing=1074
																1073:[f1<2.79294252] yes=1155,no=1156,missing=1156
																	1155:[f3<1.6091789] yes=1227,no=1228,missing=1228
																		1227:leaf=-0
																		1228:leaf=-1.11428571
																	1156:leaf=-0
																1074:[f14<0.954101562] yes=1157,no=1158,missing=1158
																	1157:leaf=0.668571413
																	1158:[f6<125.968369] yes=1229,no=1230,missing=1230
																		1229:[f0<0.696465909] yes=1283,no=1284,missing=1284
																			1283:leaf=-0
																			1284:leaf=0.312000006
																		1230:leaf=-0.668571413
															966:[f8<44.1875] yes=1075,no=1076,missing=1076
																1075:leaf=1.08000004
																1076:leaf=-0
													690:[f5<61.2028008] yes=833,no=834,missing=834
														833:leaf=0.312000006
														834:[f18<0.942871094] yes=967,no=968,missing=968
															967:[f1<3.33323336] yes=1077,no=1078,missing=1078
																1077:leaf=-1.19294119
																1078:leaf=-0
															968:leaf=-0
											426:[f15<0.249389648] yes=563,no=564,missing=564
												563:leaf=-0
												564:[f1<0.640148342] yes=691,no=692,missing=692
													691:leaf=-0
													692:[f1<5.30035877] yes=835,no=836,missing=836
														835:leaf=1.31999993
														836:leaf=-0
									204:[f10<30.53125] yes=309,no=310,missing=310
										309:[f0<0.994494975] yes=427,no=428,missing=428
											427:leaf=-0
											428:leaf=0.312000006
										310:[f7<39.7164879] yes=429,no=430,missing=430
											429:[f16<0.681152344] yes=565,no=566,missing=566
												565:leaf=-0.779999971
												566:[f0<3.11018944] yes=693,no=694,missing=694
													693:leaf=0.519999981
													694:leaf=-0
											430:[f3<5.59047461] yes=567,no=568,missing=568
												567:[f12<0.724121094] yes=695,no=696,missing=696
													695:[f1<1.25714767] yes=837,no=838,missing=838
														837:leaf=-0
														838:leaf=-1.41142857
													696:leaf=-0
												568:leaf=-0
								126:[f15<0.508300781] yes=205,no=206,missing=206
									205:[f17<0.924316406] yes=311,no=312,missing=312
										311:[f2<5.39538145] yes=431,no=432,missing=432
											431:[f13<0.653808594] yes=569,no=570,missing=570
												569:[f9<92.125] yes=697,no=698,missing=698
													697:[f12<0.732910156] yes=839,no=840,missing=840
														839:[f0<4.86745596] yes=969,no=970,missing=970
															969:[f10<33.4375] yes=1079,no=1080,missing=1080
																1079:leaf=-0
																1080:[f1<4.6037035] yes=1159,no=1160,missing=1160
																	1159:[f10<96.875] yes=1231,no=1232,missing=1232
																		1231:[f17<0.814941406] yes=1285,no=1286,missing=1286
																			1285:[f1<4.0572176] yes=1345,no=1346,missing=1346
																				1345:leaf=-1.45363629
																				1346:leaf=-0
																			1286:[f17<0.8671875] yes=1347,no=1348,missing=1348
																				1347:[f5<74.0193939] yes=1411,no=1412,missing=1412
																					1411:leaf=0.519999981
																					1412:leaf=-0
																				1348:leaf=-1.08000004
																		1232:[f6<175.106583] yes=1287,no=1288,missing=1288
																			1287:leaf=0.312000006
																			1288:leaf=-0.779999971
																	1160:[f8<41.625] yes=1233,no=1234,missing=1234
																		1233:[f10<39.625] yes=1289,no=1290,missing=1290
																			1289:leaf=-0
																			1290:leaf=-0.93599999
																		1234:[f0<1.40949547] yes=1291,no=1292,missing=1292
																			1291:leaf=-0
																			1292:leaf=0.312000006
															970:[f3<1.87675607] yes=1081,no=1082,missing=1082
																1081:leaf=-0.519999981
																1082:[f4<60.5069733] yes=1161,no=1162,missing=1162
																	1161:leaf=-0
																	1162:leaf=0.312000006
														840:leaf=-0
													698:[f2<1.85979068] yes=841,no=842,missing=842
														841:leaf=-0.312000006
														842:[f1<1.01842511] yes=971,no=972,missing=972
															971:leaf=-0
															972:leaf=0.312000006
												570:[f16<0.159790039] yes=699,no=700,missing=700
													699:leaf=-0.312000006
													700:leaf=0.312000006
											432:leaf=-0
										312:[f11<51.09375] yes=433,no=434,missing=434
											433:[f19<0.0485229492] yes=571,no=572,missing=572
												571:leaf=0.312000006
												572:[f15<0.304199219] yes=701,no=702,missing=702
													701:leaf=-1.26285708
													702:leaf=-0
											434:[f5<88.3528214] yes=573,no=574,missing=574
												573:[f8<31.546875] yes=703,no=704,missing=704
													703:leaf=-0
													704:leaf=1.11428571
												574:leaf=-0
									206:[f6<193.767578] yes=313,no=314,missing=314
										313:[f6<145.898453] yes=435,no=436,missing=436
											435:[f5<76.4965286] yes=575,no=576,missing=576
												575:[f4<57.8377991] yes=705,no=706,missing=706
													705:[f1<1.26858914] yes=843,no=844,missing=844
														843:[f5<60.3046799] yes=973,no=974,missing=974
															973:[f3<4.41481733] yes=1083,no=1084,missing=1084
																1083:leaf=-0.312000006
																1084:leaf=-0
															974:leaf=0.312000006
														844:[f6<143.328796] yes=975,no=976,missing=976
															975:leaf=-0.99272722
															976:leaf=-0
													706:[f4<131.030304] yes=845,no=846,missing=846
														845:[f18<0.990722656] yes=977,no=978,missing=978
															977:[f1<5.10618544] yes=1085,no=1086,missing=1086
																1085:[f18<0.0116577148] yes=1163,no=1164,missing=1164
																	1163:[f15<0.938964844] yes=1235,no=1236,missing=1236
																		1235:leaf=0.668571413
																		1236:[f1<0.768874168] yes=1293,no=1294,missing=1294
																			1293:leaf=-0
																			1294:leaf=-0.668571413
																	1164:[f7<9.53456688] yes=1237,no=1238,missing=1238
																		1237:leaf=-0
																		1238:[f17<0.014541626] yes=1295,no=1296,missing=1296
																			1295:leaf=-0
																			1296:[f12<0.71484375] yes=1349,no=1350,missing=1350
																				1349:[f8<30.90625] yes=1413,no=1414,missing=1414
																					1413:[f8<30.53125] yes=1487,no=1488,missing=1488
																						1487:leaf=0.519999981
																						1488:[f0<1.22438765] yes=1551,no=1552,missing=1552
																							1551:leaf=-0
																							1552:leaf=-0.312000006
																					1414:[f5<30.8377495] yes=1489,no=1490,missing=1490
																						1489:leaf=-0
																						1490:[f14<0.538085938] yes=1553,no=1554,missing=1554
																							1553:leaf=-0
																							1554:[f5<61.9839478] yes=1611,no=1612,missing=1612
																								1611:[f11<62.28125] yes=1667,no=1668,missing=1668
																									1667:[f11<43.90625] yes=1709,no=1710,missing=1710
																										1709:[f1<1.45859504] yes=1747,no=1748,missing=1748
																											1747:leaf=0.866666675
																											1748:leaf=-0
																										1710:[f4<120.207771] yes=1749,no=1750,missing=1750
																											1749:[f2<1.12990236] yes=1769,no=1770,missing=1770
																												1769:leaf=-0
																												1770:leaf=-0.93599999
																											1750:leaf=-0
																									1668:leaf=1.26285708
																								1612:[f9<77.25] yes=1669,no=1670,missing=1670
																									1669:[f19<0.991699219] yes=1711,no=1712,missing=1712
																										1711:leaf=1.42816901
																										1712:leaf=-0
																									1670:leaf=-0
																				1350:leaf=-0
																1086:[f3<2.28262329] yes=1165,no=1166,missing=1166
																	1165:leaf=-0.312000006
																	1166:leaf=-0
															978:[f3<2.69139528] yes=1087,no=1088,missing=1088
																1087:leaf=-0.519999981
																1088:leaf=-0
														846:[f0<2.18567562] yes=979,no=980,missing=980
															979:leaf=0.93599999
															980:[f1<1.67181408] yes=1089,no=1090,missing=1090
																1089:[f16<0.439453125] yes=1167,no=1168,missing=1168
																	1167:[f2<1.15506184] yes=1239,no=1240,missing=1240
																		1239:leaf=-0
																		1240:leaf=-0.519999981
																	1168:leaf=0.519999981
																1090:leaf=-0.99272722
												576:[f5<84.422287] yes=707,no=708,missing=708
													707:[f3<1.75512791] yes=847,no=848,missing=848
														847:[f12<0.112670898] yes=981,no=982,missing=982
															981:[f0<4.57655621] yes=1091,no=1092,missing=1092
																1091:leaf=0.779999971
																1092:leaf=-0
															982:[f18<0.8671875] yes=1093,no=1094,missing=1094
																1093:[f2<4.85802412] yes=1169,no=1170,missing=1170
																	1169:[f7<139.057404] yes=1241,no=1242,missing=1242
																		1241:[f6<144.289368] yes=1297,no=1298,missing=1298
																			1297:[f18<0.00688934326] yes=1351,no=1352,missing=1352
																				1351:leaf=-0
																				1352:leaf=-1.28869557
																			1298:[f1<2.07806659] yes=1353,no=1354,missing=1354
																				1353:leaf=-0
																				1354:leaf=-0.312000006
																		1242:leaf=-0
																	1170:leaf=-0
																1094:[f16<0.452148438] yes=1171,no=1172,missing=1172
																	1171:leaf=0.519999981
																	1172:leaf=-0.312000006
														848:[f16<0.952636719] yes=983,no=984,missing=984
															983:[f0<1.51531708] yes=1095,no=1096,missing=1096
																1095:[f2<2.85680294] yes=1173,no=1174,missing=1174
																	1173:leaf=-0.519999981
																	1174:leaf=-0
																1096:[f3<4.5499239] yes=1175,no=1176,missing=1176
																	1175:[f5<76.8991089] yes=1243,no=1244,missing=1244
																		1243:leaf=-0
																		1244:[f14<0.996582031] yes=1299,no=1300,missing=1300
																			1299:[f9<38.21875] yes=1355,no=1356,missing=1356
																				1355:leaf=-0
																				1356:leaf=1.29999995
																			1300:leaf=-0
																	1176:leaf=-0
															984:[f15<0.979980469] yes=1097,no=1098,missing=1098
																1097:[f0<4.91975927] yes=1177,no=1178,missing=1178
																	1177:leaf=-0.866666675
																	1178:leaf=-0
																1098:[f1<5.2258029] yes=1179,no=1180,missing=1180
																	1179:leaf=0.519999981
																	1180:leaf=-0
													708:[f3<4.71889305] yes=849,no=850,missing=850
														849:[f10<76.125] yes=985,no=986,missing=986
															985:[f18<0.935546875] yes=1099,no=1100,missing=1100
																1099:[f6<145.136765] yes=1181,no=1182,missing=1182
																	1181:[f9<85.8125] yes=1245,no=1246,missing=1246
																		1245:[f11<99.125] yes=1301,no=1302,missing=1302
																			1301:leaf=-1.27636361
																			1302:leaf=-0
																		1246:leaf=-0
																	1182:leaf=-0
																1100:leaf=-0
															986:leaf=-0
														850:leaf=-0
											436:[f5<58.2460785] yes=577,no=578,missing=578
												577:[f6<173.789139] yes=709,no=710,missing=710
													709:[f0<2.66086769] yes=851,no=852,missing=852
														851:[f9<46.78125] yes=987,no=988,missing=988
															987:[f18<0.0927124023] yes=1101,no=1102,missing=1102
																1101:[f0<2.2450645] yes=1183,no=1184,missing=1184
																	1183:leaf=0.519999981
																	1184:leaf=-0
																1102:leaf=-0.519999981
															988:[f14<0.997558594] yes=1103,no=1104,missing=1104
																1103:[f11<167.375] yes=1185,no=1186,missing=1186
																	1185:leaf=1.29999995
																	1186:leaf=-0
																1104:[f3<1.7196697] yes=1187,no=1188,missing=1188
																	1187:leaf=-0
																	1188:leaf=-0.312000006
														852:[f3<2.18976474] yes=989,no=990,missing=990
															989:[f18<0.0969848633] yes=1105,no=1106,missing=1106
																1105:leaf=-0.312000006
																1106:leaf=0.779999971
															990:[f7<75.2677612] yes=1107,no=1108,missing=1108
																1107:leaf=-1.03999996
																1108:leaf=-0
													710:[f17<0.963378906] yes=853,no=854,missing=854
														853:[f12<0.061920166] yes=991,no=992,missing=992
															991:leaf=-0
															992:[f1<0.524210572] yes=1109,no=1110,missing=1110
																1109:leaf=-0
																1110:leaf=-1.23157895
														854:[f14<0.538085938] yes=993,no=994,missing=994
															993:leaf=-0
															994:leaf=0.668571413
												578:[f4<153.590164] yes=711,no=712,missing=712
													711:[f7<136.367371] yes=855,no=856,missing=856
														855:[f13<0.263671875] yes=995,no=996,missing=996
															995:[f9<65.375] yes=1111,no=1112,missing=1112
																1111:[f10<79.875] yes=1189,no=1190,missing=1190
																	1189:[f4<121.152657] yes=1247,no=1248,missing=1248
																		1247:[f4<65.5653687] yes=1303,no=1304,missing=1304
																			1303:[f11<70.0625] yes=1357,no=1358,missing=1358
																				1357:[f18<0.0320739746] yes=1415,no=1416,missing=1416
																					1415:[f2<2.40605521] yes=1491,no=1492,missing=1492
																						1491:leaf=-0
																						1492:leaf=0.779999971
																					1416:[f14<0.841796875] yes=1493,no=1494,missing=1494
																						1493:[f4<47.0725822] yes=1555,no=1556,missing=1556
																							1555:[f3<3.61112142] yes=1613,no=1614,missing=1614
																								1613:leaf=-0.519999981
																								1614:leaf=-0
																							1556:leaf=0.779999971
																						1494:[f16<0.962402344] yes=1557,no=1558,missing=1558
																							1557:[f19<0.982421875] yes=1615,no=1616,missing=1616
																								1615:leaf=-1.29999995
																								1616:leaf=-0
																							1558:[f1<1.43221831] yes=1617,no=1618,missing=1618
																								1617:leaf=-0
																								1618:leaf=0.312000006
																				1358:[f2<4.35867882] yes=1417,no=1418,missing=1418
																					1417:leaf=1.24800003
																					1418:[f13<0.11126709] yes=1495,no=1496,missing=1496
																						1495:leaf=-0.668571413
																						1496:leaf=-0
																			1304:[f3<1.7049073] yes=1359,no=1360,missing=1360
																				1359:[f3<1.33745909] yes=1419,no=1420,missing=1420
																					1419:[f9<62.125] yes=1497,no=1498,missing=1498
																						1497:[f0<1.01483464] yes=1559,no=1560,missing=1560
																							1559:leaf=-0
																							1560:leaf=1.16999996
																						1498:leaf=-0.668571413
																					1420:[f9<44.96875] yes=1499,no=1500,missing=1500
																						1499:leaf=-0.99272722
																						1500:[f16<0.155151367] yes=1561,no=1562,missing=1562
																							1561:[f4<100.522667] yes=1619,no=1620,missing=1620
																								1619:leaf=-0.779999971
																								1620:leaf=-0
																							1562:[f10<51.09375] yes=1621,no=1622,missing=1622
																								1621:[f0<3.21355939] yes=1671,no=1672,missing=1672
																									1671:leaf=-0.312000006
																									1672:leaf=-0
																								1622:[f9<52.75] yes=1673,no=1674,missing=1674
																									1673:[f19<0.14440918] yes=1713,no=1714,missing=1714
																										1713:leaf=0.519999981
																										1714:[f12<0.268798828] yes=1751,no=1752,missing=1752
																											1751:leaf=-0.668571413
																											1752:leaf=-0
																									1674:leaf=0.93599999
																				1360:[f18<0.994140625] yes=1421,no=1422,missing=1422
																					1421:[f6<165.125763] yes=1501,no=1502,missing=1502
																						1501:[f2<1.28075767] yes=1563,no=1564,missing=1564
																							1563:[f16<0.785644531] yes=1623,no=1624,missing=1624
																								1623:[f10<72.0625] yes=1675,no=1676,missing=1676
																									1675:[f2<1.25919831] yes=1715,no=1716,missing=1716
																										1715:leaf=1.03999996
																										1716:leaf=-0
																									1676:leaf=-0
																								1624:[f0<1.36034441] yes=1677,no=1678,missing=1678
																									1677:leaf=-0
																									1678:leaf=-0.779999971
																							1564:[f10<76.125] yes=1625,no=1626,missing=1626
																								1625:[f7<6.94651175] yes=1679,no=1680,missing=1680
																									1679:leaf=-0
																									1680:[f1<1.044945] yes=1717,no=1718,missing=1718
																										1717:leaf=-0
																										1718:[f17<0.00816345215] yes=1753,no=1754,missing=1754
																											1753:leaf=-0
																											1754:[f3<1.77221715] yes=1771,no=1772,missing=1772
																												1771:leaf=-0
																												1772:[f16<0.00233078003] yes=1783,no=1784,missing=1784
																													1783:leaf=-0
																													1784:[f19<0.979492188] yes=1793,no=1794,missing=1794
																														1793:[f4<120.662216] yes=1801,no=1802,missing=1802
																															1801:leaf=1.38666666
																															1802:leaf=-0
																														1794:[f1<2.18706942] yes=1803,no=1804,missing=1804
																															1803:leaf=0.519999981
																															1804:leaf=-0
																								1626:[f18<0.615722656] yes=1681,no=1682,missing=1682
																									1681:leaf=-0.519999981
																									1682:leaf=0.312000006
																						1502:[f10<43.625] yes=1565,no=1566,missing=1566
																							1565:[f17<0.837402344] yes=1627,no=1628,missing=1628
																								1627:[f3<3.67953205] yes=1683,no=1684,missing=1684
																									1683:[f6<187.024643] yes=1719,no=1720,missing=1720
																										1719:leaf=1.11428571
																										1720:leaf=-0
																									1684:[f19<0.567382812] yes=1721,no=1722,missing=1722
																										1721:leaf=-0.519999981
																										1722:leaf=-0
																								1628:[f0<1.86738384] yes=1685,no=1686,missing=1686
																									1685:leaf=-0
																									1686:[f1<1.3468312] yes=1723,no=1724,missing=1724
																										1723:leaf=-0
																										1724:leaf=-1.08000004
																							1566:[f5<70.5300522] yes=1629,no=1630,missing=1630
																								1629:[f19<0.123291016] yes=1687,no=1688,missing=1688
																									1687:leaf=0.519999981
																									1688:[f9<39.03125] yes=1725,no=1726,missing=1726
																										1725:leaf=-0
																										1726:leaf=-0.866666675
																								1630:[f17<0.0432434082] yes=1689,no=1690,missing=1690
																									1689:[f18<0.0509033203] yes=1727,no=1728,missing=1728
																										1727:[f0<4.04409742] yes=1755,no=1756,missing=1756
																											1755:leaf=0.668571413
																											1756:leaf=-0
																										1728:leaf=-0.668571413
																									1690:[f17<0.997558594] yes=1729,no=1730,missing=1730
																										1729:[f1<4.64108419] yes=1757,no=1758,missing=1758
																											1757:[f2<5.20193243] yes=1773,no=1774,missing=1774
																												1773:[f0<1.07631433] yes=1785,no=1786,missing=1786
																													1785:leaf=-0
																													1786:[f2<0.751239419] yes=1795,no=1796,missing=1796
																														1795:leaf=-0
																														1796:[f1<1.25714767] yes=1805,no=1806,missing=1806
																															1805:leaf=-0
																															1806:[f13<0.242675781] yes=1809,no=1810,missing=1810
																																1809:[f18<0.986328125] yes=1813,no=1814,missing=1814
																																	1813:[f19<0.0528259277] yes=1817,no=1818,missing=1818
																																		1817:[f4<105.147758] yes=1823,no=1824,missing=1824
																																			1823:[f13<0.0690307617] yes=1827,no=1828,missing=1828
																																				1827:leaf=-0
																																				1828:[f3<4.41481733] yes=1831,no=1832,missing=1832
																																					1831:leaf=1.21333337
																																					1832:leaf=-0
																																			1824:[f7<35.8934402] yes=1829,no=1830,missing=1830
																																				1829:leaf=0.312000006
																																				1830:leaf=-0.668571413
																																		1818:[f12<0.604492188] yes=1825,no=1826,missing=1826
																																			1825:leaf=1.25708735
																																			1826:leaf=-0
																																	1814:leaf=-0
																																1810:leaf=-0
																												1774:leaf=-0
																											1758:[f11<51.09375] yes=1775,no=1776,missing=1776
																												1775:leaf=-0.519999981
																												1776:[f3<2.07086802] yes=1787,no=1788,missing=1788
																													1787:leaf=-0
																													1788:leaf=0.668571413
																										1730:[f0<1.13245654] yes=1759,no=1760,missing=1760
																											1759:leaf=-0
																											1760:leaf=-0.312000006
																					1422:[f9<45.9375] yes=1503,no=1504,missing=1504
																						1503:leaf=-0
																						1504:leaf=-0.668571413
																		1248:[f19<0.748046875] yes=1305,no=1306,missing=1306
																			1305:[f19<0.0181121826] yes=1361,no=1362,missing=1362
																				1361:[f5<87.3223648] yes=1423,no=1424,missing=1424
																					1423:[f6<151.95343] yes=1505,no=1506,missing=1506
																						1505:leaf=-0.312000006
																						1506:[f3<3.32441068] yes=1567,no=1568,missing=1568
																							1567:leaf=0.779999971
																							1568:leaf=-0
																					1424:leaf=-0.866666675
																				1362:[f6<183.439484] yes=1425,no=1426,missing=1426
																					1425:[f15<0.998046875] yes=1507,no=1508,missing=1508
																						1507:[f3<0.918054938] yes=1569,no=1570,missing=1570
																							1569:[f0<3.90635204] yes=1631,no=1632,missing=1632
																								1631:leaf=-0.519999981
																								1632:leaf=-0
																							1570:[f11<120.625] yes=1633,no=1634,missing=1634
																								1633:[f17<0.9921875] yes=1691,no=1692,missing=1692
																									1691:[f5<95.7096863] yes=1731,no=1732,missing=1732
																										1731:[f18<0.995605469] yes=1761,no=1762,missing=1762
																											1761:[f11<85.3125] yes=1777,no=1778,missing=1778
																												1777:leaf=1.39578938
																												1778:[f3<2.58599281] yes=1789,no=1790,missing=1790
																													1789:[f6<165.125763] yes=1797,no=1798,missing=1798
																														1797:leaf=-0.519999981
																														1798:leaf=-0
																													1790:leaf=0.866666675
																											1762:leaf=-0
																										1732:leaf=-0
																									1692:[f10<49.09375] yes=1733,no=1734,missing=1734
																										1733:leaf=-0.519999981
																										1734:leaf=0.668571413
																								1634:leaf=-0
																						1508:[f17<0.578125] yes=1571,no=1572,missing=1572
																							1571:[f4<123.025909] yes=1635,no=1636,missing=1636
																								1635:leaf=-0
																								1636:leaf=-0.866666675
																							1572:leaf=0.312000006
																					1426:[f18<0.0467529297] yes=1509,no=1510,missing=1510
																						1509:leaf=0.312000006
																						1510:leaf=-0.866666675
																			1306:[f7<57.5946121] yes=1363,no=1364,missing=1364
																				1363:[f17<0.98828125] yes=1427,no=1428,missing=1428
																					1427:[f0<2.46410871] yes=1511,no=1512,missing=1512
																						1511:leaf=-0
																						1512:leaf=-1.24800003
																					1428:leaf=-0
																				1364:[f16<0.655761719] yes=1429,no=1430,missing=1430
																					1429:[f11<114.4375] yes=1513,no=1514,missing=1514
																						1513:[f10<67] yes=1573,no=1574,missing=1574
																							1573:leaf=1.08000004
																							1574:leaf=-0
																						1514:leaf=-0
																					1430:[f2<2.17142558] yes=1515,no=1516,missing=1516
																						1515:leaf=-0.866666675
																						1516:[f13<0.103149414] yes=1575,no=1576,missing=1576
																							1575:leaf=0.519999981
																							1576:[f0<4.86745596] yes=1637,no=1638,missing=1638
																								1637:leaf=-0.312000006
																								1638:leaf=-0
																	1190:[f1<1.99973249] yes=1249,no=1250,missing=1250
																		1249:[f6<180.707855] yes=1307,no=1308,missing=1308
																			1307:[f16<0.952636719] yes=1365,no=1366,missing=1366
																				1365:[f7<43.4363022] yes=1431,no=1432,missing=1432
																					1431:leaf=-0
																					1432:[f18<0.00278663635] yes=1517,no=1518,missing=1518
																						1517:leaf=-0
																						1518:[f12<0.323974609] yes=1577,no=1578,missing=1578
																							1577:[f8<30.171875] yes=1639,no=1640,missing=1640
																								1639:leaf=-0
																								1640:leaf=1.29999995
																							1578:[f13<0.106018066] yes=1641,no=1642,missing=1642
																								1641:leaf=-0.312000006
																								1642:leaf=0.668571413
																				1366:[f0<1.16913414] yes=1433,no=1434,missing=1434
																					1433:leaf=-0
																					1434:leaf=-0.312000006
																			1308:[f5<80.0735168] yes=1367,no=1368,missing=1368
																				1367:[f2<0.938091338] yes=1435,no=1436,missing=1436
																					1435:leaf=-0
																					1436:leaf=-0.99272722
																				1368:[f1<1.98449099] yes=1437,no=1438,missing=1438
																					1437:leaf=0.519999981
																					1438:leaf=-0
																		1250:[f18<0.0124816895] yes=1309,no=1310,missing=1310
																			1309:[f1<3.02389169] yes=1369,no=1370,missing=1370
																				1369:[f14<0.739746094] yes=1439,no=1440,missing=1440
																					1439:leaf=0.312000006
																					1440:[f12<0.061920166] yes=1519,no=1520,missing=1520
																						1519:leaf=-0
																						1520:leaf=-0.99272722
																				1370:leaf=0.93599999
																			1310:[f7<129.749725] yes=1371,no=1372,missing=1372
																				1371:[f6<151.95343] yes=1441,no=1442,missing=1442
																					1441:[f18<0.823730469] yes=1521,no=1522,missing=1522
																						1521:leaf=0.668571413
																						1522:[f4<128.235825] yes=1579,no=1580,missing=1580
																							1579:leaf=-0.519999981
																							1580:leaf=-0
																					1442:[f1<4.56515694] yes=1523,no=1524,missing=1524
																						1523:[f19<0.999023438] yes=1581,no=1582,missing=1582
																							1581:[f6<153.296982] yes=1643,no=1644,missing=1644
																								1643:leaf=-0
																								1644:[f17<0.012298584] yes=1693,no=1694,missing=1694
																									1693:leaf=-0
																									1694:[f18<0.020324707] yes=1735,no=1736,missing=1736
																										1735:leaf=-0
																										1736:[f15<0.657714844] yes=1763,no=1764,missing=1764
																											1763:[f16<0.854980469] yes=1779,no=1780,missing=1780
																												1779:leaf=0.779999971
																												1780:leaf=-0
																											1764:leaf=1.51047611
																							1582:leaf=-0
																						1524:[f7<82.6038208] yes=1583,no=1584,missing=1584
																							1583:[f0<3.56103587] yes=1645,no=1646,missing=1646
																								1645:leaf=-0.312000006
																								1646:leaf=-0
																							1584:leaf=0.519999981
																				1372:[f3<1.33745909] yes=1443,no=1444,missing=1444
																					1443:[f6<172.13681] yes=1525,no=1526,missing=1526
																						1525:leaf=-0.668571413
																						1526:leaf=-0
																					1444:leaf=0.668571413
																1112:[f11<59] yes=1191,no=1192,missing=1192
																	1191:[f6<187.645813] yes=1251,no=1252,missing=1252
																		1251:[f18<0.950683594] yes=1311,no=1312,missing=1312
																			1311:[f10<31.015625] yes=1373,no=1374,missing=1374
																				1373:[f1<4.49789572] yes=1445,no=1446,missing=1446
																					1445:leaf=-0.668571413
																					1446:leaf=-0
																				1374:[f11<54.0625] yes=1447,no=1448,missing=1448
																					1447:[f4<54.5406876] yes=1527,no=1528,missing=1528
																						1527:[f13<0.118225098] yes=1585,no=1586,missing=1586
																							1585:leaf=-0.519999981
																							1586:[f1<1.26858914] yes=1647,no=1648,missing=1648
																								1647:leaf=-0
																								1648:leaf=0.312000006
																						1528:[f12<0.0760498047] yes=1587,no=1588,missing=1588
																							1587:[f5<78.3337936] yes=1649,no=1650,missing=1650
																								1649:leaf=0.312000006
																								1650:leaf=-0.519999981
																							1588:[f1<1.11019576] yes=1651,no=1652,missing=1652
																								1651:[f10<47.3125] yes=1695,no=1696,missing=1696
																									1695:[f4<62.3309975] yes=1737,no=1738,missing=1738
																										1737:leaf=-0
																										1738:[f19<0.885253906] yes=1765,no=1766,missing=1766
																											1765:leaf=0.99272722
																											1766:leaf=-0
																									1696:[f2<3.47188568] yes=1739,no=1740,missing=1740
																										1739:leaf=-0.668571413
																										1740:leaf=-0
																								1652:[f6<148.55162] yes=1697,no=1698,missing=1698
																									1697:leaf=-0
																									1698:[f2<0.595475733] yes=1741,no=1742,missing=1742
																										1741:leaf=-0
																										1742:[f5<63.7275124] yes=1767,no=1768,missing=1768
																											1767:leaf=-0
																											1768:[f7<18.9119167] yes=1781,no=1782,missing=1782
																												1781:leaf=-0
																												1782:[f16<0.0107192993] yes=1791,no=1792,missing=1792
																													1791:leaf=-0
																													1792:[f0<1.22438765] yes=1799,no=1800,missing=1800
																														1799:leaf=-0
																														1800:[f19<0.00614929199] yes=1807,no=1808,missing=1808
																															1807:leaf=-0
																															1808:[f5<73.5455856] yes=1811,no=1812,missing=1812
																																1811:[f8<42.75] yes=1815,no=1816,missing=1816
																																	1815:[f12<0.130371094] yes=1819,no=1820,missing=1820
																																		1819:leaf=-0
																																		1820:leaf=1.14399993
																																	1816:[f15<0.902832031] yes=1821,no=1822,missing=1822
																																		1821:leaf=-0
																																		1822:leaf=-0.519999981
																																1812:leaf=1.3458823
																					1448:[f3<2.17357779] yes=1529,no=1530,missing=1530
																						1529:[f9<78.8125] yes=1589,no=1590,missing=1590
																							1589:[f1<1.12384677] yes=1653,no=1654,missing=1654
																								1653:leaf=-0
																								1654:leaf=0.519999981
																							1590:[f4<120.662216] yes=1655,no=1656,missing=1656
																								1655:leaf=-1.03999996
																								1656:leaf=-0
																						1530:[f9<66.6875] yes=1591,no=1592,missing=1592
																							1591:leaf=-0
																							1592:[f0<3.96332908] yes=1657,no=1658,missing=1658
																								1657:leaf=1.14399993
																								1658:leaf=-0
																			1312:[f4<102.865738] yes=1375,no=1376,missing=1376
																				1375:[f2<3.4279902] yes=1449,no=1450,missing=1450
																					1449:leaf=-0.93599999
																					1450:leaf=-0
																				1376:leaf=0.668571413
																		1252:[f16<0.413818359] yes=1313,no=1314,missing=1314
																			1313:[f7<52.2756348] yes=1377,no=1378,missing=1378
																				1377:leaf=-0
																				1378:leaf=0.93599999
																			1314:[f6<191.156799] yes=1379,no=1380,missing=1380
																				1379:leaf=-0.99272722
																				1380:[f11<49.09375] yes=1451,no=1452,missing=1452
																					1451:[f0<2.3346324] yes=1531,no=1532,missing=1532
																						1531:leaf=-0.312000006
																						1532:leaf=-0
																					1452:leaf=0.312000006
																	1192:[f10<90.5625] yes=1253,no=1254,missing=1254
																		1253:[f2<0.654788613] yes=1315,no=1316,missing=1316
																			1315:leaf=-0
																			1316:[f19<0.998046875] yes=1381,no=1382,missing=1382
																				1381:[f5<65.4469604] yes=1453,no=1454,missing=1454
																					1453:[f11<76.9375] yes=1533,no=1534,missing=1534
																						1533:leaf=-0.519999981
																						1534:leaf=0.866666675
																					1454:[f14<0.529296875] yes=1535,no=1536,missing=1536
																						1535:[f5<85.0537033] yes=1593,no=1594,missing=1594
																							1593:leaf=0.312000006
																							1594:leaf=-0
																						1536:[f10<30.28125] yes=1595,no=1596,missing=1596
																							1595:leaf=-0
																							1596:[f7<135.400803] yes=1659,no=1660,missing=1660
																								1659:[f13<0.253662109] yes=1699,no=1700,missing=1700
																									1699:leaf=1.32983601
																									1700:leaf=-0
																								1660:leaf=-0
																				1382:leaf=-0
																		1254:[f1<2.17309141] yes=1317,no=1318,missing=1318
																			1317:leaf=-0.312000006
																			1318:leaf=-0
															996:[f17<0.491455078] yes=1113,no=1114,missing=1114
																1113:[f14<0.869628906] yes=1193,no=1194,missing=1194
																	1193:[f18<0.546386719] yes=1255,no=1256,missing=1256
																		1255:[f9<49.84375] yes=1319,no=1320,missing=1320
																			1319:[f11<59.28125] yes=1383,no=1384,missing=1384
																				1383:[f1<2.30719066] yes=1455,no=1456,missing=1456
																					1455:leaf=-0
																					1456:leaf=0.312000006
																				1384:leaf=-0.866666675
																			1320:[f5<74.4504852] yes=1385,no=1386,missing=1386
																				1385:[f0<1.40949547] yes=1457,no=1458,missing=1458
																					1457:leaf=-0
																					1458:leaf=-0.312000006
																				1386:[f9<110.9375] yes=1459,no=1460,missing=1460
																					1459:leaf=0.99272722
																					1460:leaf=-0
																		1256:[f5<93.0026855] yes=1321,no=1322,missing=1322
																			1321:[f0<3.87661791] yes=1387,no=1388,missing=1388
																				1387:leaf=-1.26285708
																				1388:[f3<3.10916018] yes=1461,no=1462,missing=1462
																					1461:leaf=-0.519999981
																					1462:leaf=0.312000006
																			1322:leaf=-0
																	1194:[f15<0.869628906] yes=1257,no=1258,missing=1258
																		1257:[f12<0.173461914] yes=1323,no=1324,missing=1324
																			1323:[f2<1.69141996] yes=1389,no=1390,missing=1390
																				1389:[f0<3.75103426] yes=1463,no=1464,missing=1464
																					1463:leaf=0.312000006
																					1464:leaf=-0
																				1390:[f7<97.0054398] yes=1465,no=1466,missing=1466
																					1465:leaf=-1.08000004
																					1466:leaf=-0
																			1324:[f19<0.885253906] yes=1391,no=1392,missing=1392
																				1391:leaf=0.779999971
																				1392:[f2<2.91414738] yes=1467,no=1468,missing=1468
																					1467:leaf=-0.312000006
																					1468:leaf=-0
																		1258:[f9<52] yes=1325,no=1326,missing=1326
																			1325:[f9<50.25] yes=1393,no=1394,missing=1394
																				1393:[f4<145.606461] yes=1469,no=1470,missing=1470
																					1469:[f0<1.20095599] yes=1537,no=1538,missing=1538
																						1537:[f2<2.34167528] yes=1597,no=1598,missing=1598
																							1597:leaf=-0.312000006
																							1598:leaf=-0
																						1538:[f2<1.07675719] yes=1599,no=1600,missing=1600
																							1599:leaf=-0
																							1600:leaf=1.14399993
																					1470:leaf=-0.312000006
																				1394:[f6<180.286591] yes=1471,no=1472,missing=1472
																					1471:leaf=-0.93599999
																					1472:leaf=-0
																			1326:[f2<0.890767276] yes=1395,no=1396,missing=1396
																				1395:leaf=-0
																				1396:[f5<96.8811646] yes=1473,no=1474,missing=1474
																					1473:[f13<0.270019531] yes=1539,no=1540,missing=1540
																						1539:leaf=-0
																						1540:[f0<4.91975927] yes=1601,no=1602,missing=1602
																							1601:[f6<187.024643] yes=1661,no=1662,missing=1662
																								1661:[f16<0.962402344] yes=1701,no=1702,missing=1702
																									1701:leaf=1.39578938
																									1702:[f2<2.1859479] yes=1743,no=1744,missing=1744
																										1743:leaf=-0
																										1744:leaf=0.312000006
																								1662:[f7<64.5444717] yes=1703,no=1704,missing=1704
																									1703:leaf=-0
																									1704:leaf=0.519999981
																							1602:leaf=-0
																					1474:leaf=-0
																1114:[f4<63.1451683] yes=1195,no=1196,missing=1196
																	1195:[f0<0.916293263] yes=1259,no=1260,missing=1260
																		1259:[f0<0.65957582] yes=1327,no=1328,missing=1328
																			1327:leaf=-0.312000006
																			1328:leaf=0.668571413
																		1260:leaf=-0.99272722
																	1196:[f6<177.441269] yes=1261,no=1262,missing=1262
																		1261:[f5<93.0026855] yes=1329,no=1330,missing=1330
																			1329:[f13<0.603027344] yes=1397,no=1398,missing=1398
																				1397:[f7<132.530197] yes=1475,no=1476,missing=1476
																					1475:[f7<19.8957062] yes=1541,no=1542,missing=1542
																						1541:[f1<1.84416294] yes=1603,no=1604,missing=1604
																							1603:leaf=-0.312000006
																							1604:leaf=0.519999981
																						1542:[f3<0.870695293] yes=1605,no=1606,missing=1606
																							1605:leaf=-0
																							1606:[f17<0.514648438] yes=1663,no=1664,missing=1664
																								1663:[f14<0.971679688] yes=1705,no=1706,missing=1706
																									1705:leaf=0.312000006
																									1706:leaf=-0
																								1664:[f19<0.0048789978] yes=1707,no=1708,missing=1708
																									1707:leaf=-0
																									1708:[f0<1.36034441] yes=1745,no=1746,missing=1746
																										1745:leaf=-0
																										1746:leaf=1.25999987
																					1476:leaf=-0
																				1398:[f4<89.1552811] yes=1477,no=1478,missing=1478
																					1477:leaf=0.312000006
																					1478:leaf=-0.312000006
																			1330:[f0<2.7722013] yes=1399,no=1400,missing=1400
																				1399:leaf=0.312000006
																				1400:leaf=-0.519999981
																		1262:[f5<82.7126694] yes=1331,no=1332,missing=1332
																			1331:[f4<101.456223] yes=1401,no=1402,missing=1402
																				1401:[f15<0.902832031] yes=1479,no=1480,missing=1480
																					1479:[f0<0.975770712] yes=1543,no=1544,missing=1544
																						1543:leaf=-0
																						1544:leaf=-0.668571413
																					1480:[f3<3.7197125] yes=1545,no=1546,missing=1546
																						1545:leaf=0.866666675
																						1546:leaf=-0
																				1402:leaf=-1.03999996
																			1332:[f4<143.347641] yes=1403,no=1404,missing=1404
																				1403:[f10<36.875] yes=1481,no=1482,missing=1482
																					1481:leaf=-0
																					1482:[f1<4.64108419] yes=1547,no=1548,missing=1548
																						1547:[f8<31.796875] yes=1607,no=1608,missing=1608
																							1607:leaf=-0
																							1608:leaf=1.31039989
																						1548:leaf=-0
																				1404:leaf=-0
														856:[f14<0.763183594] yes=997,no=998,missing=998
															997:[f17<0.568359375] yes=1115,no=1116,missing=1116
																1115:[f9<107.4375] yes=1197,no=1198,missing=1198
																	1197:[f3<0.688116193] yes=1263,no=1264,missing=1264
																		1263:leaf=-0
																		1264:leaf=-0.99272722
																	1198:leaf=-0
																1116:[f12<0.222900391] yes=1199,no=1200,missing=1200
																	1199:leaf=0.93599999
																	1200:leaf=-0
															998:[f1<0.879686832] yes=1117,no=1118,missing=1118
																1117:[f6<178.309616] yes=1201,no=1202,missing=1202
																	1201:leaf=-0.312000006
																	1202:leaf=-0
																1118:[f4<49.8835564] yes=1203,no=1204,missing=1204
																	1203:leaf=-0
																	1204:[f16<0.998046875] yes=1265,no=1266,missing=1266
																		1265:[f17<0.0226287842] yes=1333,no=1334,missing=1334
																			1333:leaf=-0
																			1334:[f6<149.918259] yes=1405,no=1406,missing=1406
																				1405:[f14<0.958984375] yes=1483,no=1484,missing=1484
																					1483:leaf=-0
																					1484:leaf=0.312000006
																				1406:[f3<5.48296022] yes=1485,no=1486,missing=1486
																					1485:[f5<94.5645218] yes=1549,no=1550,missing=1550
																						1549:leaf=1.42349994
																						1550:[f9<73.1875] yes=1609,no=1610,missing=1610
																							1609:leaf=-0.312000006
																							1610:[f4<121.152657] yes=1665,no=1666,missing=1666
																								1665:leaf=1.11428571
																								1666:leaf=-0
																					1486:leaf=-0
																		1266:leaf=-0
													712:[f2<3.69120359] yes=857,no=858,missing=858
														857:[f0<1.63438523] yes=999,no=1000,missing=1000
															999:leaf=-0
															1000:leaf=-1.11428571
														858:leaf=0.312000006
										314:[f5<84.7592773] yes=437,no=438,missing=438
											437:[f11<92.5625] yes=579,no=580,missing=580
												579:[f2<4.2399478] yes=713,no=714,missing=714
													713:[f10<127.9375] yes=859,no=860,missing=860
														859:[f16<0.998535156] yes=1001,no=1002,missing=1002
															1001:[f8<62.40625] yes=1119,no=1120,missing=1120
																1119:leaf=-1.37647057
																1120:leaf=-0
															1002:leaf=-0
														860:leaf=-0
													714:[f5<79.3967514] yes=861,no=862,missing=862
														861:leaf=-0.668571413
														862:[f3<2.94453406] yes=1003,no=1004,missing=1004
															1003:leaf=-0
															1004:leaf=0.519999981
												580:[f9<71.25] yes=715,no=716,missing=716
													715:[f13<0.199951172] yes=863,no=864,missing=864
														863:leaf=-1.03999996
														864:leaf=-0
													716:leaf=0.668571413
											438:[f4<63.1451683] yes=581,no=582,missing=582
												581:[f14<0.983398438] yes=717,no=718,missing=718
													717:leaf=-0.93599999
													718:[f3<3.10916018] yes=865,no=866,missing=866
														865:leaf=0.519999981
														866:leaf=-0
												582:[f4<147.16272] yes=719,no=720,missing=720
													719:[f15<0.763183594] yes=867,no=868,missing=868
														867:[f1<1.92077923] yes=1005,no=1006,missing=1006
															1005:[f2<1.87213516] yes=1121,no=1122,missing=1122
																1121:leaf=-0
																1122:leaf=-0.519999981
															1006:leaf=0.312000006
														868:[f18<0.983398438] yes=1007,no=1008,missing=1008
															1007:[f5<88.7273483] yes=1123,no=1124,missing=1124
																1123:[f11<52.1875] yes=1205,no=1206,missing=1206
																	1205:[f1<1.29163575] yes=1267,no=1268,missing=1268
																		1267:leaf=-0
																		1268:[f4<116.841904] yes=1335,no=1336,missing=1336
																			1335:leaf=1.03999996
																			1336:leaf=-0
																	1206:[f10<53] yes=1269,no=1270,missing=1270
																		1269:leaf=0.519999981
																		1270:leaf=-0.779999971
																1124:[f18<0.0215148926] yes=1207,no=1208,missing=1208
																	1207:leaf=-0
																	1208:[f8<30.796875] yes=1271,no=1272,missing=1272
																		1271:leaf=-0
																		1272:[f16<0.994628906] yes=1337,no=1338,missing=1338
																			1337:leaf=1.40399992
																			1338:leaf=-0
															1008:leaf=-0
													720:[f4<153.590164] yes=869,no=870,missing=870
														869:leaf=-0.779999971
														870:leaf=-0
							74:[f6<127.735847] yes=127,no=128,missing=128
								127:[f11<102.6875] yes=207,no=208,missing=208
									207:[f1<0.861250639] yes=315,no=316,missing=316
										315:[f14<0.997558594] yes=439,no=440,missing=440
											439:[f16<0.263183594] yes=583,no=584,missing=584
												583:leaf=-0
												584:leaf=0.99272722
											440:leaf=-0.312000006
										316:[f1<5.2258029] yes=441,no=442,missing=442
											441:leaf=-1.31039989
											442:leaf=-0
									208:[f0<0.599105] yes=317,no=318,missing=318
										317:leaf=-0
										318:leaf=1.14399993
								128:[f11<61.65625] yes=209,no=210,missing=210
									209:[f10<55.125] yes=319,no=320,missing=320
										319:[f7<185.505753] yes=443,no=444,missing=444
											443:[f10<36.625] yes=585,no=586,missing=586
												585:[f7<169.982361] yes=721,no=722,missing=722
													721:[f18<0.895996094] yes=871,no=872,missing=872
														871:leaf=1.11428571
														872:leaf=-0
													722:[f0<1.15124309] yes=873,no=874,missing=874
														873:leaf=-0.668571413
														874:[f14<0.964355469] yes=1009,no=1010,missing=1010
															1009:leaf=0.779999971
															1010:[f0<1.91648972] yes=1125,no=1126,missing=1126
																1125:leaf=-0
																1126:leaf=-0.519999981
												586:[f13<0.216186523] yes=723,no=724,missing=724
													723:[f0<5.37466097] yes=875,no=876,missing=876
														875:[f17<0.997558594] yes=1011,no=1012,missing=1012
															1011:leaf=-1.24800003
															1012:leaf=-0
														876:leaf=-0
													724:[f13<0.270019531] yes=877,no=878,missing=878
														877:[f3<4.51038599] yes=1013,no=1014,missing=1014
															1013:leaf=0.93599999
															1014:leaf=-0
														878:leaf=-0.519999981
											444:[f0<2.3346324] yes=587,no=588,missing=588
												587:[f2<5.39538145] yes=725,no=726,missing=726
													725:[f3<0.688116193] yes=879,no=880,missing=880
														879:leaf=-0
														880:[f15<0.141235352] yes=1015,no=1016,missing=1016
															1015:leaf=-0
															1016:[f5<97.6781387] yes=1127,no=1128,missing=1128
																1127:leaf=1.38666666
																1128:leaf=-0
													726:leaf=-0
												588:[f0<4.65670586] yes=727,no=728,missing=728
													727:[f3<2.07086802] yes=881,no=882,missing=882
														881:leaf=-0.668571413
														882:leaf=-0
													728:leaf=0.519999981
										320:[f6<151.32338] yes=445,no=446,missing=446
											445:[f5<71.5961838] yes=589,no=590,missing=590
												589:[f4<48.595623] yes=729,no=730,missing=730
													729:leaf=-0
													730:[f5<40.9193535] yes=883,no=884,missing=884
														883:leaf=-0
														884:leaf=1.08000004
												590:[f12<0.0827026367] yes=731,no=732,missing=732
													731:leaf=-0
													732:leaf=-0.93599999
											446:[f13<0.611816406] yes=591,no=592,missing=592
												591:[f4<36.4229698] yes=733,no=734,missing=734
													733:[f9<88.125] yes=885,no=886,missing=886
														885:leaf=-0.312000006
														886:leaf=-0
													734:[f14<0.529296875] yes=887,no=888,missing=888
														887:[f8<44.96875] yes=1017,no=1018,missing=1018
															1017:leaf=-0.312000006
															1018:leaf=0.519999981
														888:[f11<61] yes=1019,no=1020,missing=1020
															1019:[f7<154.643311] yes=1129,no=1130,missing=1130
																1129:[f13<0.106018066] yes=1209,no=1210,missing=1210
																	1209:leaf=-0
																	1210:leaf=0.519999981
																1130:[f7<403.385468] yes=1211,no=1212,missing=1212
																	1211:[f5<98.0003052] yes=1273,no=1274,missing=1274
																		1273:[f18<0.00358581543] yes=1339,no=1340,missing=1340
																			1339:[f16<0.452148438] yes=1407,no=1408,missing=1408
																				1407:leaf=0.668571413
																				1408:leaf=-0
																			1340:leaf=1.42691934
																		1274:[f1<1.25714767] yes=1341,no=1342,missing=1342
																			1341:leaf=0.668571413
																			1342:leaf=-0
																	1212:leaf=-0
															1020:leaf=-0
												592:[f19<0.272705078] yes=735,no=736,missing=736
													735:[f4<106.550934] yes=889,no=890,missing=890
														889:leaf=-0.668571413
														890:leaf=-0
													736:leaf=0.668571413
									210:[f14<0.508300781] yes=321,no=322,missing=322
										321:[f0<0.894363999] yes=447,no=448,missing=448
											447:leaf=-0
											448:leaf=-0.312000006
										322:[f14<0.755859375] yes=449,no=450,missing=450
											449:[f12<0.578125] yes=593,no=594,missing=594
												593:[f15<0.508300781] yes=737,no=738,missing=738
													737:[f1<1.3193779] yes=891,no=892,missing=892
														891:leaf=-0.519999981
														892:leaf=-0
													738:[f12<0.061920166] yes=893,no=894,missing=894
														893:leaf=-0
														894:[f7<157.820862] yes=1021,no=1022,missing=1022
															1021:[f11<101.8125] yes=1131,no=1132,missing=1132
																1131:leaf=-0
																1132:leaf=0.312000006
															1022:[f10<276] yes=1133,no=1134,missing=1134
																1133:[f13<0.566894531] yes=1213,no=1214,missing=1214
																	1213:leaf=1.36672568
																	1214:leaf=-0
																1134:leaf=-0
												594:[f3<1.07311225] yes=739,no=740,missing=740
													739:[f3<0.5794245] yes=895,no=896,missing=896
														895:leaf=-0
														896:[f18<0.0116577148] yes=1023,no=1024,missing=1024
															1023:leaf=-0
															1024:leaf=-0.779999971
													740:leaf=0.668571413
											450:leaf=1.45086408
					24:[f0<1.99176788] yes=43,no=44,missing=44
						43:[f3<1.21648145] yes=75,no=76,missing=76
							75:leaf=0.668571413
							76:[f3<2.80945921] yes=129,no=130,missing=130
								129:[f9<92.125] yes=211,no=212,missing=212
									211:leaf=-0.866666675
									212:leaf=-0
								130:leaf=0.519999981
						44:[f7<214.57988] yes=77,no=78,missing=78
							77:[f4<163.33017] yes=131,no=132,missing=132
								131:[f8<47.34375] yes=213,no=214,missing=214
									213:[f7<137.97261] yes=323,no=324,missing=324
										323:[f10<30.28125] yes=451,no=452,missing=452
											451:leaf=-0
											452:[f19<0.0048789978] yes=595,no=596,missing=596
												595:[f0<3.18700004] yes=741,no=742,missing=742
													741:leaf=-0.312000006
													742:leaf=-0
												596:[f2<1.58668244] yes=743,no=744,missing=744
													743:[f6<154.56015] yes=897,no=898,missing=898
														897:leaf=-0.93599999
														898:leaf=0.312000006
													744:[f3<4.51038599] yes=899,no=900,missing=900
														899:leaf=-1.44444442
														900:[f16<0.36328125] yes=1025,no=1026,missing=1026
															1025:leaf=-0
															1026:leaf=-0.668571413
										324:leaf=-0
									214:[f1<1.49536622] yes=325,no=326,missing=326
										325:[f12<0.24609375] yes=453,no=454,missing=454
											453:leaf=0.866666675
											454:leaf=-0
										326:leaf=-0.668571413
								132:[f15<0.999511719] yes=215,no=216,missing=216
									215:leaf=-1.46995664
									216:leaf=-0
							78:[f3<1.21648145] yes=133,no=134,missing=134
								133:leaf=0.519999981
								134:leaf=-0.312000006
				14:[f3<1.50313389] yes=25,no=26,missing=26
					25:[f7<201.970978] yes=45,no=46,missing=46
						45:[f4<121.152657] yes=79,no=80,missing=80
							79:[f6<218.420868] yes=135,no=136,missing=136
								135:[f9<42.96875] yes=217,no=218,missing=218
									217:leaf=-0
									218:leaf=0.866666675
								136:leaf=-0.519999981
							80:leaf=-0.93599999
						46:[f10<70.375] yes=81,no=82,missing=82
							81:leaf=-0
							82:[f14<0.152832031] yes=137,no=138,missing=138
								137:leaf=-0
								138:leaf=1.21333337
					26:[f6<231.255463] yes=47,no=48,missing=48
						47:[f7<176.077621] yes=83,no=84,missing=84
							83:[f2<0.890767276] yes=139,no=140,missing=140
								139:[f1<1.68497169] yes=219,no=220,missing=220
									219:leaf=-0
									220:leaf=0.312000006
								140:[f5<98.9108734] yes=221,no=222,missing=222
									221:[f8<88.625] yes=327,no=328,missing=328
										327:[f1<0.486234963] yes=455,no=456,missing=456
											455:leaf=-0
											456:[f1<5.92579985] yes=597,no=598,missing=598
												597:[f3<1.56290829] yes=745,no=746,missing=746
													745:leaf=-0
													746:[f10<144.5] yes=901,no=902,missing=902
														901:leaf=-1.39258528
														902:[f3<1.99796391] yes=1027,no=1028,missing=1028
															1027:leaf=-0
															1028:leaf=-0.668571413
												598:leaf=-0
										328:leaf=-0
									222:[f6<213.21727] yes=329,no=330,missing=330
										329:leaf=-0
										330:leaf=0.312000006
							84:[f10<54.3125] yes=141,no=142,missing=142
								141:[f8<82.4375] yes=223,no=224,missing=224
									223:leaf=-0.93599999
									224:[f4<123.618469] yes=331,no=332,missing=332
										331:leaf=0.312000006
										332:[f1<0.704120517] yes=457,no=458,missing=458
											457:leaf=-0.312000006
											458:leaf=-0
								142:[f3<4.96165562] yes=225,no=226,missing=226
									225:leaf=1.08000004
									226:leaf=-0
						48:[f7<403.385468] yes=85,no=86,missing=86
							85:leaf=-1.52967775
							86:leaf=-0
			8:[f12<0.884765625] yes=15,no=16,missing=16
				15:[f4<150.671173] yes=27,no=28,missing=28
					27:[f14<0.739746094] yes=49,no=50,missing=50
						49:[f18<0.0107192993] yes=87,no=88,missing=88
							87:[f11<52.4375] yes=143,no=144,missing=144
								143:[f3<4.8150425] yes=227,no=228,missing=228
									227:leaf=-1.14399993
									228:leaf=-0
								144:[f6<165.125763] yes=229,no=230,missing=230
									229:[f4<126.146614] yes=333,no=334,missing=334
										333:leaf=-0.519999981
										334:leaf=-0
									230:leaf=0.866666675
							88:[f14<0.244873047] yes=145,no=146,missing=146
								145:leaf=-1.44083321
								146:[f5<81.69207] yes=231,no=232,missing=232
									231:[f10<33.84375] yes=335,no=336,missing=336
										335:[f8<35.75] yes=459,no=460,missing=460
											459:leaf=-0.519999981
											460:leaf=0.312000006
										336:[f11<31.28125] yes=461,no=462,missing=462
											461:leaf=-0
											462:leaf=-1.41818178
									232:[f1<1.43221831] yes=337,no=338,missing=338
										337:[f8<56.4375] yes=463,no=464,missing=464
											463:[f0<4.65670586] yes=599,no=600,missing=600
												599:leaf=0.99272722
												600:leaf=-0
											464:[f13<0.182250977] yes=601,no=602,missing=602
												601:[f14<0.60546875] yes=747,no=748,missing=748
													747:leaf=-1.11428571
													748:leaf=-0
												602:[f4<80.6721649] yes=749,no=750,missing=750
													749:leaf=-0
													750:leaf=0.519999981
										338:[f19<0.0158691406] yes=465,no=466,missing=466
											465:[f0<1.80335796] yes=603,no=604,missing=604
												603:[f1<1.49536622] yes=751,no=752,missing=752
													751:leaf=-0
													752:leaf=0.519999981
												604:leaf=-0.312000006
											466:[f12<0.764160156] yes=605,no=606,missing=606
												605:[f1<2.09467649] yes=753,no=754,missing=754
													753:leaf=-0
													754:leaf=-0.312000006
												606:[f0<4.82698011] yes=755,no=756,missing=756
													755:[f3<4.91185284] yes=903,no=904,missing=904
														903:leaf=-1.40399992
														904:leaf=-0
													756:leaf=-0
						50:[f7<139.919724] yes=89,no=90,missing=90
							89:[f6<190.504623] yes=147,no=148,missing=148
								147:[f15<0.957519531] yes=233,no=234,missing=234
									233:[f0<4.25725985] yes=339,no=340,missing=340
										339:[f11<69.625] yes=467,no=468,missing=468
											467:[f7<18.9119167] yes=607,no=608,missing=608
												607:leaf=-0
												608:[f4<140.529434] yes=757,no=758,missing=758
													757:[f10<93.1875] yes=905,no=906,missing=906
														905:[f6<188.076508] yes=1029,no=1030,missing=1030
															1029:leaf=-1.30268037
															1030:leaf=-0
														906:[f2<1.28075767] yes=1031,no=1032,missing=1032
															1031:leaf=-0.668571413
															1032:[f4<95.0725784] yes=1135,no=1136,missing=1136
																1135:leaf=0.519999981
																1136:leaf=-0
													758:leaf=-0
											468:[f15<0.16027832] yes=609,no=610,missing=610
												609:[f14<0.987792969] yes=759,no=760,missing=760
													759:leaf=-1.21333337
													760:leaf=-0
												610:[f4<135.302521] yes=761,no=762,missing=762
													761:[f4<98.1342316] yes=907,no=908,missing=908
														907:[f1<2.27240467] yes=1033,no=1034,missing=1034
															1033:[f1<0.977045834] yes=1137,no=1138,missing=1138
																1137:leaf=-0
																1138:leaf=-0.668571413
															1034:leaf=-0
														908:[f2<1.51319861] yes=1035,no=1036,missing=1036
															1035:leaf=-0
															1036:leaf=1.08000004
													762:[f5<61.2028008] yes=909,no=910,missing=910
														909:leaf=-0
														910:leaf=-0.779999971
										340:[f16<0.201904297] yes=469,no=470,missing=470
											469:leaf=-0.866666675
											470:[f2<1.47724533] yes=611,no=612,missing=612
												611:leaf=-0
												612:leaf=1.08000004
									234:[f6<137.388153] yes=341,no=342,missing=342
										341:[f15<0.983398438] yes=471,no=472,missing=472
											471:[f1<2.20462036] yes=613,no=614,missing=614
												613:leaf=0.519999981
												614:leaf=-0
											472:leaf=-0.866666675
										342:[f18<0.994628906] yes=473,no=474,missing=474
											473:[f2<1.15506184] yes=615,no=616,missing=616
												615:[f7<84.0719376] yes=763,no=764,missing=764
													763:leaf=0.312000006
													764:leaf=-0.312000006
												616:[f8<53.15625] yes=765,no=766,missing=766
													765:[f2<5.20193243] yes=911,no=912,missing=912
														911:[f10<114.4375] yes=1037,no=1038,missing=1038
															1037:[f14<0.997558594] yes=1139,no=1140,missing=1140
																1139:leaf=1.39135134
																1140:[f7<89.9553604] yes=1215,no=1216,missing=1216
																	1215:leaf=0.312000006
																	1216:leaf=-0
															1038:leaf=-0
														912:leaf=-0
													766:leaf=-0
											474:leaf=-0
								148:[f3<1.04995894] yes=235,no=236,missing=236
									235:leaf=-0
									236:leaf=-1.47333324
							90:[f11<59] yes=149,no=150,missing=150
								149:[f7<214.57988] yes=237,no=238,missing=238
									237:[f19<0.455566406] yes=343,no=344,missing=344
										343:[f1<2.07806659] yes=475,no=476,missing=476
											475:[f11<34.40625] yes=617,no=618,missing=618
												617:leaf=-0
												618:leaf=-1.23157895
											476:leaf=-0
										344:[f18<0.370117188] yes=477,no=478,missing=478
											477:leaf=0.93599999
											478:leaf=-0.312000006
									238:leaf=0.93599999
								150:[f14<0.905761719] yes=239,no=240,missing=240
									239:[f3<1.06292045] yes=345,no=346,missing=346
										345:[f8<50.34375] yes=479,no=480,missing=480
											479:leaf=-0.99272722
											480:leaf=-0
										346:[f5<63.7275124] yes=481,no=482,missing=482
											481:leaf=-0
											482:[f5<87.9898529] yes=619,no=620,missing=620
												619:leaf=1.16999996
												620:leaf=-0
									240:[f5<94.8994904] yes=347,no=348,missing=348
										347:[f0<0.454383284] yes=483,no=484,missing=484
											483:leaf=-0
											484:leaf=1.45423722
										348:leaf=-0
					28:[f0<1.51531708] yes=51,no=52,missing=52
						51:leaf=-0
						52:leaf=-1.52636111
				16:[f12<0.964355469] yes=29,no=30,missing=30
					29:[f0<1.63438523] yes=53,no=54,missing=54
						53:[f14<0.833007812] yes=91,no=92,missing=92
							91:[f11<30.28125] yes=151,no=152,missing=152
								151:leaf=-0
								152:[f1<0.486234963] yes=241,no=242,missing=242
									241:leaf=-0
									242:[f16<0.985351562] yes=349,no=350,missing=350
										349:[f6<100.000839] yes=485,no=486,missing=486
											485:leaf=-0
											486:[f8<110.5] yes=621,no=622,missing=622
												621:leaf=-1.46686566
												622:leaf=-0
										350:[f1<1.15013397] yes=487,no=488,missing=488
											487:[f7<254.104477] yes=623,no=624,missing=624
												623:leaf=0.312000006
												624:leaf=-0
											488:leaf=-0.668571413
							92:[f15<0.60546875] yes=153,no=154,missing=154
								153:[f7<232.928009] yes=243,no=244,missing=244
									243:leaf=-1.38339627
									244:leaf=-0
								154:[f3<2.01855278] yes=245,no=246,missing=246
									245:[f5<71.0758896] yes=351,no=352,missing=352
										351:leaf=-0
										352:[f8<92.1875] yes=489,no=490,missing=490
											489:leaf=1.31999993
											490:leaf=-0
									246:[f3<3.96838737] yes=353,no=354,missing=354
										353:[f5<91.0010376] yes=491,no=492,missing=492
											491:leaf=-1.08000004
											492:leaf=-0
										354:[f3<5.48296022] yes=493,no=494,missing=494
											493:leaf=0.866666675
											494:leaf=-0
						54:[f17<0.00143432617] yes=93,no=94,missing=94
							93:leaf=-0
							94:leaf=-1.43507183
					30:leaf=-1.52508497
		4:[f13<0.907714844] yes=9,no=10,missing=10
			9:[f7<144.409683] yes=17,no=18,missing=18
				17:[f15<0.714355469] yes=31,no=32,missing=32
					31:leaf=-1.48398864
					32:[f14<0.775878906] yes=55,no=56,missing=56
						55:[f14<0.412597656] yes=95,no=96,missing=96
							95:[f0<5.70190334] yes=155,no=156,missing=156
								155:[f8<74.3125] yes=247,no=248,missing=248
									247:leaf=-1.45668864
									248:[f5<81.69207] yes=355,no=356,missing=356
										355:leaf=0.312000006
										356:leaf=-0.779999971
								156:[f2<1.47724533] yes=249,no=250,missing=250
									249:leaf=-0
									250:leaf=-0.312000006
							96:[f0<5.16007042] yes=157,no=158,missing=158
								157:[f7<134.513474] yes=251,no=252,missing=252
									251:[f2<5.39538145] yes=357,no=358,missing=358
										357:[f16<0.993164062] yes=495,no=496,missing=496
											495:[f2<0.567025304] yes=625,no=626,missing=626
												625:leaf=-0
												626:[f7<9.53456688] yes=767,no=768,missing=768
													767:leaf=-0
													768:[f19<0.997558594] yes=913,no=914,missing=914
														913:[f19<0.0048789978] yes=1039,no=1040,missing=1040
															1039:leaf=-0
															1040:leaf=-1.28027582
														914:leaf=-0
											496:[f8<38.21875] yes=627,no=628,missing=628
												627:leaf=-0.312000006
												628:[f0<0.65957582] yes=769,no=770,missing=770
													769:leaf=-0
													770:leaf=0.312000006
										358:leaf=-0
									252:[f6<158.76004] yes=359,no=360,missing=360
										359:leaf=-0.668571413
										360:leaf=0.519999981
								158:leaf=-0
						56:[f6<193.767578] yes=97,no=98,missing=98
							97:[f4<157.601746] yes=159,no=160,missing=160
								159:[f6<137.388153] yes=253,no=254,missing=254
									253:[f11<31.78125] yes=361,no=362,missing=362
										361:leaf=-0
										362:[f15<0.730957031] yes=497,no=498,missing=498
											497:leaf=-0
											498:[f0<4.17837572] yes=629,no=630,missing=630
												629:[f19<0.954589844] yes=771,no=772,missing=772
													771:leaf=-1.37090898
													772:leaf=-0
												630:leaf=-0
									254:[f17<0.213500977] yes=363,no=364,missing=364
										363:[f2<2.52810311] yes=499,no=500,missing=500
											499:[f11<42.46875] yes=631,no=632,missing=632
												631:[f2<1.50192404] yes=773,no=774,missing=774
													773:leaf=-0
													774:leaf=-0.668571413
												632:[f1<0.726441503] yes=775,no=776,missing=776
													775:leaf=-0
													776:leaf=0.974999964
											500:[f8<31.796875] yes=633,no=634,missing=634
												633:[f0<1.94841421] yes=777,no=778,missing=778
													777:leaf=-0
													778:leaf=0.312000006
												634:[f0<4.61368847] yes=779,no=780,missing=780
													779:[f7<110.886841] yes=915,no=916,missing=916
														915:leaf=-1.27636361
														916:leaf=-0
													780:leaf=-0
										364:[f14<0.921386719] yes=501,no=502,missing=502
											501:[f4<95.5329208] yes=635,no=636,missing=636
												635:[f13<0.826171875] yes=781,no=782,missing=782
													781:leaf=1.11428571
													782:[f4<70.7157059] yes=917,no=918,missing=918
														917:leaf=-0.519999981
														918:[f2<1.23227] yes=1041,no=1042,missing=1042
															1041:leaf=-0
															1042:leaf=0.519999981
												636:[f14<0.841796875] yes=783,no=784,missing=784
													783:[f1<3.81451488] yes=919,no=920,missing=920
														919:[f3<3.66072607] yes=1043,no=1044,missing=1044
															1043:leaf=0.99272722
															1044:leaf=-0
														920:leaf=-0
													784:[f17<0.936523438] yes=921,no=922,missing=922
														921:[f0<4.20885611] yes=1045,no=1046,missing=1046
															1045:leaf=-1.19294119
															1046:leaf=-0
														922:leaf=-0
											502:[f7<42.8968849] yes=637,no=638,missing=638
												637:[f15<0.926269531] yes=785,no=786,missing=786
													785:[f7<11.5808582] yes=923,no=924,missing=924
														923:leaf=-0
														924:leaf=-0.779999971
													786:[f3<3.40100121] yes=925,no=926,missing=926
														925:leaf=0.668571413
														926:leaf=-0
												638:[f4<67.7596359] yes=787,no=788,missing=788
													787:[f9<65.375] yes=927,no=928,missing=928
														927:[f7<78.9791031] yes=1047,no=1048,missing=1048
															1047:leaf=-0
															1048:leaf=-0.779999971
														928:leaf=0.668571413
													788:[f3<4.58614254] yes=929,no=930,missing=930
														929:[f15<0.998046875] yes=1049,no=1050,missing=1050
															1049:[f2<0.871028662] yes=1141,no=1142,missing=1142
																1141:leaf=-0
																1142:[f17<0.999023438] yes=1217,no=1218,missing=1218
																	1217:[f19<0.0048789978] yes=1275,no=1276,missing=1276
																		1275:leaf=-0
																		1276:[f7<50.5811653] yes=1343,no=1344,missing=1344
																			1343:leaf=-0
																			1344:[f19<0.975585938] yes=1409,no=1410,missing=1410
																				1409:leaf=1.44444442
																				1410:leaf=-0
																	1218:leaf=-0
															1050:[f7<73.1135483] yes=1143,no=1144,missing=1144
																1143:[f12<0.178710938] yes=1219,no=1220,missing=1220
																	1219:leaf=-0.519999981
																	1220:[f0<2.29370832] yes=1277,no=1278,missing=1278
																		1277:leaf=-0
																		1278:leaf=0.312000006
																1144:leaf=0.866666675
														930:[f8<41.75] yes=1051,no=1052,missing=1052
															1051:leaf=-0.312000006
															1052:leaf=0.312000006
								160:leaf=-1.41488373
							98:[f0<4.86745596] yes=161,no=162,missing=162
								161:[f2<5.39538145] yes=255,no=256,missing=256
									255:[f3<1.75512791] yes=365,no=366,missing=366
										365:leaf=-0
										366:leaf=-1.46930218
									256:leaf=-0
								162:leaf=-0
				18:[f14<0.426513672] yes=33,no=34,missing=34
					33:[f8<129.375] yes=57,no=58,missing=58
						57:[f18<0.00278663635] yes=99,no=100,missing=100
							99:[f0<1.22438765] yes=163,no=164,missing=164
								163:leaf=-0
								164:leaf=-0.312000006
							100:leaf=-1.39441335
						58:leaf=-0
					34:[f6<201.31575] yes=59,no=60,missing=60
						59:[f15<0.310546875] yes=101,no=102,missing=102
							101:[f7<223.574829] yes=165,no=166,missing=166
								165:[f4<43.9695854] yes=257,no=258,missing=258
									257:leaf=-0
									258:[f11<146.625] yes=367,no=368,missing=368
										367:[f5<94.8994904] yes=503,no=504,missing=504
											503:leaf=-1.43265295
											504:leaf=-0
										368:leaf=-0
								166:[f10<52.4375] yes=259,no=260,missing=260
									259:[f4<95.5329208] yes=369,no=370,missing=370
										369:leaf=-0
										370:leaf=-0.668571413
									260:[f2<0.701108813] yes=371,no=372,missing=372
										371:leaf=-0
										372:leaf=0.99272722
							102:[f14<0.763183594] yes=167,no=168,missing=168
								167:[f13<0.766601562] yes=261,no=262,missing=262
									261:[f14<0.730957031] yes=373,no=374,missing=374
										373:[f1<3.92966771] yes=505,no=506,missing=506
											505:[f2<0.726435184] yes=639,no=640,missing=640
												639:leaf=-0
												640:leaf=1.11428571
											506:leaf=-0
										374:leaf=-0.312000006
									262:[f4<81.2312317] yes=375,no=376,missing=376
										375:[f14<0.508300781] yes=507,no=508,missing=508
											507:leaf=0.519999981
											508:[f4<51.0943718] yes=641,no=642,missing=642
												641:leaf=-0
												642:leaf=-0.519999981
										376:[f15<0.319824219] yes=509,no=510,missing=510
											509:leaf=-0
											510:[f16<0.992675781] yes=643,no=644,missing=644
												643:leaf=-1.29999995
												644:leaf=-0
								168:[f10<47.0625] yes=263,no=264,missing=264
									263:[f11<49.09375] yes=377,no=378,missing=378
										377:[f17<0.117248535] yes=511,no=512,missing=512
											511:leaf=-0
											512:leaf=-1.11428571
										378:[f4<139.7099] yes=513,no=514,missing=514
											513:[f1<0.683594882] yes=645,no=646,missing=646
												645:leaf=-0
												646:[f16<0.918457031] yes=789,no=790,missing=790
													789:leaf=1.16999996
													790:leaf=-0
											514:leaf=-0.312000006
									264:[f7<157.820862] yes=379,no=380,missing=380
										379:[f1<1.98449099] yes=515,no=516,missing=516
											515:[f5<61.9839478] yes=647,no=648,missing=648
												647:leaf=-0.312000006
												648:[f19<0.00765609741] yes=791,no=792,missing=792
													791:leaf=-0
													792:leaf=1.16999996
											516:leaf=-0.779999971
										380:[f6<141.480835] yes=517,no=518,missing=518
											517:leaf=-0
											518:[f4<45.5957527] yes=649,no=650,missing=650
												649:leaf=-0
												650:[f3<0.519839406] yes=793,no=794,missing=794
													793:leaf=-0
													794:[f4<173.789215] yes=931,no=932,missing=932
														931:[f0<0.454383284] yes=1053,no=1054,missing=1054
															1053:leaf=-0
															1054:[f5<40.9193535] yes=1145,no=1146,missing=1146
																1145:leaf=-0
																1146:[f5<98.0003052] yes=1221,no=1222,missing=1222
																	1221:[f1<5.92579985] yes=1279,no=1280,missing=1280
																		1279:leaf=1.39749992
																		1280:leaf=-0
																	1222:leaf=-0
														932:leaf=-0
						60:[f3<5.71293354] yes=103,no=104,missing=104
							103:[f9<41.9375] yes=169,no=170,missing=170
								169:leaf=-0
								170:[f10<32.96875] yes=265,no=266,missing=266
									265:leaf=-0
									266:leaf=-1.41283011
							104:leaf=-0
			10:[f8<143.375] yes=19,no=20,missing=20
				19:[f13<0.964355469] yes=35,no=36,missing=36
					35:[f7<227.862152] yes=61,no=62,missing=62
						61:leaf=-1.47190952
						62:[f14<0.833007812] yes=105,no=106,missing=106
							105:[f3<0.480211884] yes=171,no=172,missing=172
								171:leaf=-0
								172:[f18<0.00423431396] yes=267,no=268,missing=268
									267:leaf=-0
									268:[f16<0.997558594] yes=381,no=382,missing=382
										381:leaf=-1.47789466
										382:leaf=-0
							106:[f1<0.640148342] yes=173,no=174,missing=174
								173:leaf=-0.668571413
								174:[f4<136.407944] yes=269,no=270,missing=270
									269:[f5<98.0003052] yes=383,no=384,missing=384
										383:leaf=1.23157895
										384:leaf=-0
									270:leaf=-0
					36:leaf=-1.54580259
				20:leaf=-0
	2:[f13<0.517089844] yes=5,no=6,missing=6
		5:[f12<0.493896484] yes=11,no=12,missing=12
			11:[f6<249.912216] yes=21,no=22,missing=22
				21:[f7<136.367371] yes=37,no=38,missing=38
					37:[f4<156.386841] yes=63,no=64,missing=64
						63:[f15<0.889648438] yes=107,no=108,missing=108
							107:[f1<4.68768835] yes=175,no=176,missing=176
								175:[f1<1.58943379] yes=271,no=272,missing=272
									271:[f6<196.731445] yes=385,no=386,missing=386
										385:leaf=0.779999971
										386:[f17<0.514648438] yes=519,no=520,missing=520
											519:leaf=-0.866666675
											520:[f0<1.16913414] yes=651,no=652,missing=652
												651:leaf=-0
												652:leaf=0.312000006
									272:[f19<0.139770508] yes=387,no=388,missing=388
										387:[f5<101.041626] yes=521,no=522,missing=522
											521:leaf=0.519999981
											522:[f9<85.8125] yes=653,no=654,missing=654
												653:[f18<0.00922393799] yes=795,no=796,missing=796
													795:leaf=-0
													796:[f0<1.11239564] yes=933,no=934,missing=934
														933:leaf=-0
														934:[f1<3.77245307] yes=1055,no=1056,missing=1056
															1055:leaf=-1.37090898
															1056:leaf=-0
												654:[f5<114.580399] yes=797,no=798,missing=798
													797:leaf=0.519999981
													798:[f2<2.69470811] yes=935,no=936,missing=936
														935:leaf=-0.779999971
														936:leaf=-0
										388:[f17<0.00143432617] yes=523,no=524,missing=524
											523:leaf=-0
											524:leaf=-1.42235291
								176:[f0<1.93211877] yes=273,no=274,missing=274
									273:leaf=0.866666675
									274:leaf=-0.312000006
							108:[f14<0.818359375] yes=177,no=178,missing=178
								177:[f5<105.257401] yes=275,no=276,missing=276
									275:[f14<0.696289062] yes=389,no=390,missing=390
										389:[f5<104.259338] yes=525,no=526,missing=526
											525:[f7<25.9715672] yes=655,no=656,missing=656
												655:leaf=-0
												656:leaf=-1.08000004
											526:leaf=-0
										390:[f3<4.4764328] yes=527,no=528,missing=528
											527:leaf=0.99272722
											528:leaf=-0
									276:[f4<134.314224] yes=391,no=392,missing=392
										391:[f10<30.28125] yes=529,no=530,missing=530
											529:leaf=-0
											530:[f8<30.28125] yes=657,no=658,missing=658
												657:leaf=-0
												658:[f16<0.979492188] yes=799,no=800,missing=800
													799:[f11<110.875] yes=937,no=938,missing=938
														937:leaf=-1.41142857
														938:leaf=-0
													800:[f10<45.78125] yes=939,no=940,missing=940
														939:leaf=-0.779999971
														940:[f0<0.803119481] yes=1057,no=1058,missing=1058
															1057:leaf=-0
															1058:leaf=0.312000006
										392:leaf=-0
								178:[f6<166.489548] yes=277,no=278,missing=278
									277:[f0<1.96361768] yes=393,no=394,missing=394
										393:[f4<68.4629745] yes=531,no=532,missing=532
											531:[f0<1.15124309] yes=659,no=660,missing=660
												659:leaf=-0.312000006
												660:leaf=-0
											532:leaf=0.519999981
										394:leaf=-1.23157895
									278:[f3<3.38565159] yes=395,no=396,missing=396
										395:[f13<0.210693359] yes=533,no=534,missing=534
											533:[f19<0.963378906] yes=661,no=662,missing=662
												661:[f10<91.3125] yes=801,no=802,missing=802
													801:[f5<135.430283] yes=941,no=942,missing=942
														941:[f11<30.78125] yes=1059,no=1060,missing=1060
															1059:leaf=-0
															1060:[f11<121.8125] yes=1147,no=1148,missing=1148
																1147:[f5<100.235146] yes=1223,no=1224,missing=1224
																	1223:[f0<2.40776324] yes=1281,no=1282,missing=1282
																		1281:leaf=0.312000006
																		1282:leaf=-0
																	1224:leaf=1.31039989
																1148:leaf=-0
														942:[f0<3.69832087] yes=1061,no=1062,missing=1062
															1061:leaf=-0.312000006
															1062:leaf=-0
													802:[f15<0.979980469] yes=943,no=944,missing=944
														943:[f2<3.06183171] yes=1063,no=1064,missing=1064
															1063:leaf=0.519999981
															1064:leaf=-0
														944:leaf=-0.519999981
												662:[f0<1.37673819] yes=803,no=804,missing=804
													803:leaf=-0
													804:leaf=-0.519999981
											534:[f1<3.90693307] yes=663,no=664,missing=664
												663:[f1<2.67000437] yes=805,no=806,missing=806
													805:[f19<0.0551452637] yes=945,no=946,missing=946
														945:[f2<3.6487391] yes=1065,no=1066,missing=1066
															1065:leaf=-0.668571413
															1066:leaf=-0
														946:leaf=0.866666675
													806:[f11<32.5] yes=947,no=948,missing=948
														947:leaf=-0
														948:[f3<2.63679647] yes=1067,no=1068,missing=1068
															1067:leaf=-1.11428571
															1068:leaf=-0
												664:leaf=0.668571413
										396:[f19<0.172363281] yes=535,no=536,missing=536
											535:[f10<91.875] yes=665,no=666,missing=666
												665:[f0<3.3054595] yes=807,no=808,missing=808
													807:[f13<0.05859375] yes=949,no=950,missing=950
														949:leaf=-0
														950:leaf=-1.23157895
													808:leaf=-0
												666:leaf=0.312000006
											536:[f2<1.47724533] yes=667,no=668,missing=668
												667:[f5<111.564125] yes=809,no=810,missing=810
													809:leaf=-0
													810:leaf=-0.668571413
												668:[f11<32.03125] yes=811,no=812,missing=812
													811:leaf=-0
													812:[f3<5.71293354] yes=951,no=952,missing=952
														951:leaf=1.16999996
														952:leaf=-0
						64:[f0<1.96361768] yes=109,no=110,missing=110
							109:leaf=-0
							110:[f3<4.8150425] yes=179,no=180,missing=180
								179:leaf=-1.48511994
								180:leaf=-0
					38:[f14<0.763183594] yes=65,no=66,missing=66
						65:[f18<0.0927124023] yes=111,no=112,missing=112
							111:[f18<0.0320739746] yes=181,no=182,missing=182
								181:[f0<0.803119481] yes=279,no=280,missing=280
									279:leaf=-0
									280:[f1<0.961693764] yes=397,no=398,missing=398
										397:leaf=-0
										398:leaf=-1.03999996
								182:[f12<0.237304688] yes=281,no=282,missing=282
									281:leaf=0.93599999
									282:leaf=-0
							112:[f1<1.02994645] yes=183,no=184,missing=184
								183:[f6<181.921188] yes=283,no=284,missing=284
									283:leaf=-0.779999971
									284:leaf=0.519999981
								184:[f1<5.00239611] yes=285,no=286,missing=286
									285:[f14<0.0599060059] yes=399,no=400,missing=400
										399:leaf=-0
										400:[f5<99.7961044] yes=537,no=538,missing=538
											537:leaf=-0
											538:[f8<30.65625] yes=669,no=670,missing=670
												669:leaf=-0
												670:leaf=-1.35540974
									286:leaf=-0
						66:[f4<154.529785] yes=113,no=114,missing=114
							113:[f6<174.295517] yes=185,no=186,missing=186
								185:[f14<0.923828125] yes=287,no=288,missing=288
									287:[f4<84.5805969] yes=401,no=402,missing=402
										401:leaf=-0
										402:leaf=-0.93599999
									288:[f6<150.609634] yes=403,no=404,missing=404
										403:leaf=-0
										404:leaf=0.99272722
								186:[f11<37.125] yes=289,no=290,missing=290
									289:[f5<103.885132] yes=405,no=406,missing=406
										405:leaf=0.668571413
										406:[f17<0.00345039368] yes=539,no=540,missing=540
											539:leaf=-0
											540:leaf=-0.779999971
									290:[f13<0.290283203] yes=407,no=408,missing=408
										407:[f12<0.422363281] yes=541,no=542,missing=542
											541:[f13<0.05859375] yes=671,no=672,missing=672
												671:leaf=-0
												672:[f18<0.985351562] yes=813,no=814,missing=814
													813:[f8<30.171875] yes=953,no=954,missing=954
														953:leaf=-0
														954:leaf=1.46545446
													814:leaf=-0
											542:leaf=-0
										408:[f1<1.48302436] yes=543,no=544,missing=544
											543:leaf=1.16999996
											544:[f18<0.771972656] yes=673,no=674,missing=674
												673:leaf=-0.93599999
												674:[f2<1.6218437] yes=815,no=816,missing=816
													815:leaf=-0
													816:leaf=0.312000006
							114:[f0<3.80754614] yes=187,no=188,missing=188
								187:leaf=-1.14399993
								188:leaf=-0
				22:[f17<0.999511719] yes=39,no=40,missing=40
					39:[f0<1.48164582] yes=67,no=68,missing=68
						67:[f11<78.4375] yes=115,no=116,missing=116
							115:[f7<223.574829] yes=189,no=190,missing=190
								189:[f0<1.44576633] yes=291,no=292,missing=292
									291:leaf=-1.38666666
									292:leaf=-0
								190:leaf=-0
							116:[f12<0.151855469] yes=191,no=192,missing=192
								191:leaf=0.93599999
								192:leaf=-0
						68:[f0<5.37466097] yes=117,no=118,missing=118
							117:leaf=-1.44578028
							118:[f1<2.90701818] yes=193,no=194,missing=194
								193:leaf=-0.519999981
								194:leaf=-0
					40:[f3<2.98909521] yes=69,no=70,missing=70
						69:leaf=0.519999981
						70:[f2<3.21233487] yes=119,no=120,missing=120
							119:leaf=-0.519999981
							120:leaf=-0
			12:leaf=-1.53567851
		6:leaf=-1.54949057
booster[1]:
0:[f5<103.44413] yes=1,no=2,missing=2
	1:[f13<0.744140625] yes=3,no=4,missing=4
		3:[f12<0.71484375] yes=7,no=8,missing=8
			7:[f6<208.522064] yes=15,no=16,missing=16
				15:[f4<152.636581] yes=29,no=30,missing=30
					29:[f14<0.310546875] yes=53,no=54,missing=54
						53:[f18<0.441894531] yes=91,no=92,missing=92
							91:[f6<170.145737] yes=161,no=162,missing=162
								161:[f11<108.875] yes=261,no=262,missing=262
									261:[f0<4.65670586] yes=387,no=388,missing=388
										387:[f10<189.125] yes=535,no=536,missing=536
											535:[f19<0.997558594] yes=709,no=710,missing=710
												709:[f4<138.389023] yes=889,no=890,missing=890
													889:[f17<0.00143432617] yes=1041,no=1042,missing=1042
														1041:leaf=-0
														1042:[f19<0.00358581543] yes=1189,no=1190,missing=1190
															1189:leaf=-0
															1190:[f12<0.131835938] yes=1309,no=1310,missing=1310
																1309:[f12<0.115600586] yes=1413,no=1414,missing=1414
																	1413:leaf=-0.39184472
																	1414:leaf=0.084208481
																1310:[f15<0.319824219] yes=1415,no=1416,missing=1416
																	1415:leaf=-0
																	1416:leaf=-0.984766662
													890:leaf=-0
												710:leaf=-0
											536:leaf=-0
										388:[f10<47.8125] yes=537,no=538,missing=538
											537:leaf=0.173928842
											538:leaf=-0
									262:[f6<153.296982] yes=389,no=390,missing=390
										389:[f13<0.145751953] yes=539,no=540,missing=540
											539:leaf=-0
											540:leaf=-0.486417651
										390:[f6<163.526367] yes=541,no=542,missing=542
											541:[f0<1.975752] yes=711,no=712,missing=712
												711:leaf=1.47741234
												712:leaf=-0
											542:[f18<0.020324707] yes=713,no=714,missing=714
												713:leaf=-0
												714:leaf=-0.185121566
								162:[f5<79.0340424] yes=263,no=264,missing=264
									263:[f11<37.53125] yes=391,no=392,missing=392
										391:leaf=-0
										392:leaf=-0.793646574
									264:[f17<0.299072266] yes=393,no=394,missing=394
										393:[f18<0.128295898] yes=543,no=544,missing=544
											543:leaf=-0.541947961
											544:[f6<183.957596] yes=715,no=716,missing=716
												715:[f1<1.1615591] yes=891,no=892,missing=892
													891:leaf=-0
													892:leaf=0.688660324
												716:leaf=-0
										394:[f14<0.216430664] yes=545,no=546,missing=546
											545:[f0<1.15124309] yes=717,no=718,missing=718
												717:leaf=-0
												718:[f0<4.37459707] yes=893,no=894,missing=894
													893:[f2<4.09626579] yes=1043,no=1044,missing=1044
														1043:[f18<0.0215148926] yes=1191,no=1192,missing=1192
															1191:leaf=0.034030389
															1192:leaf=2.66055536
														1044:leaf=-0
													894:leaf=-0
											546:[f5<87.6595535] yes=719,no=720,missing=720
												719:leaf=0.218458682
												720:leaf=-0.101373807
							92:[f8<30.796875] yes=163,no=164,missing=164
								163:[f5<71.0758896] yes=265,no=266,missing=266
									265:leaf=-0.603940666
									266:[f3<0.887504041] yes=395,no=396,missing=396
										395:leaf=-0
										396:[f2<3.38320017] yes=547,no=548,missing=548
											547:leaf=1.07898915
											548:leaf=-0
								164:[f8<86.5625] yes=267,no=268,missing=268
									267:[f0<5.88788271] yes=397,no=398,missing=398
										397:[f19<0.998535156] yes=549,no=550,missing=550
											549:[f18<0.999511719] yes=721,no=722,missing=722
												721:[f4<33.5571899] yes=895,no=896,missing=896
													895:leaf=-0
													896:[f0<4.34525537] yes=1045,no=1046,missing=1046
														1045:[f6<189.926895] yes=1193,no=1194,missing=1194
															1193:[f4<47.0725822] yes=1311,no=1312,missing=1312
																1311:[f1<0.840817392] yes=1417,no=1418,missing=1418
																	1417:leaf=-0
																	1418:leaf=-0.277377933
																1312:leaf=-0.923455536
															1194:[f14<0.16809082] yes=1313,no=1314,missing=1314
																1313:leaf=-0.466073483
																1314:[f5<83.6981201] yes=1419,no=1420,missing=1420
																	1419:leaf=-0
																	1420:leaf=0.560699642
														1046:[f9<96.4375] yes=1195,no=1196,missing=1196
															1195:[f4<48.595623] yes=1315,no=1316,missing=1316
																1315:leaf=-0
																1316:leaf=-0.775934339
															1196:[f11<42.21875] yes=1317,no=1318,missing=1318
																1317:leaf=-0
																1318:[f4<102.865738] yes=1421,no=1422,missing=1422
																	1421:leaf=-0
																	1422:leaf=1.40103471
												722:leaf=-0
											550:leaf=-0
										398:leaf=-0
									268:[f4<85.0923233] yes=399,no=400,missing=400
										399:leaf=0.647103369
										400:leaf=-0.362934262
						54:[f7<173.80452] yes=93,no=94,missing=94
							93:[f15<0.467773438] yes=165,no=166,missing=166
								165:[f11<86] yes=269,no=270,missing=270
									269:[f13<0.734375] yes=401,no=402,missing=402
										401:[f14<0.995117188] yes=551,no=552,missing=552
											551:[f19<0.998046875] yes=723,no=724,missing=724
												723:[f17<0.993164062] yes=897,no=898,missing=898
													897:[f2<5.39538145] yes=1047,no=1048,missing=1048
														1047:[f10<114.4375] yes=1197,no=1198,missing=1198
															1197:[f8<30.28125] yes=1319,no=1320,missing=1320
																1319:leaf=-0
																1320:[f9<119.75] yes=1423,no=1424,missing=1424
																	1423:[f8<75] yes=1507,no=1508,missing=1508
																		1507:[f13<0.0708618164] yes=1583,no=1584,missing=1584
																			1583:[f1<1.74171615] yes=1661,no=1662,missing=1662
																				1661:leaf=-0
																				1662:leaf=-0.167249963
																			1584:[f5<102.912277] yes=1663,no=1664,missing=1664
																				1663:leaf=-0.847374856
																				1664:leaf=-0
																		1508:leaf=-0
																	1424:leaf=-0
															1198:leaf=-0
														1048:[f2<5.47002077] yes=1199,no=1200,missing=1200
															1199:leaf=-0
															1200:leaf=-0.0423642769
													898:[f15<0.254882812] yes=1049,no=1050,missing=1050
														1049:[f17<0.995117188] yes=1201,no=1202,missing=1202
															1201:leaf=-0
															1202:leaf=-0.52436763
														1050:leaf=0.403566301
												724:[f3<1.75512791] yes=899,no=900,missing=900
													899:leaf=-0
													900:leaf=0.0580292717
											552:[f19<0.0969848633] yes=725,no=726,missing=726
												725:[f17<0.127319336] yes=901,no=902,missing=902
													901:leaf=-0
													902:[f0<4.31914139] yes=1051,no=1052,missing=1052
														1051:[f15<0.355712891] yes=1203,no=1204,missing=1204
															1203:leaf=0.83715862
															1204:leaf=-0
														1052:leaf=-0
												726:[f3<2.66399717] yes=903,no=904,missing=904
													903:[f10<91.3125] yes=1053,no=1054,missing=1054
														1053:leaf=-0.818128467
														1054:leaf=-0
													904:[f16<0.229614258] yes=1055,no=1056,missing=1056
														1055:leaf=-0.351605505
														1056:[f2<2.76198435] yes=1205,no=1206,missing=1206
															1205:[f0<1.29158425] yes=1321,no=1322,missing=1322
																1321:leaf=-0
																1322:leaf=0.697171807
															1206:leaf=-0
										402:[f2<1.80700016] yes=553,no=554,missing=554
											553:leaf=-0
											554:leaf=0.613569498
									270:[f6<143.328796] yes=403,no=404,missing=404
										403:[f8<53.34375] yes=555,no=556,missing=556
											555:leaf=-0.663945317
											556:leaf=-0
										404:[f2<3.00839543] yes=557,no=558,missing=558
											557:[f13<0.0814208984] yes=727,no=728,missing=728
												727:leaf=-0
												728:[f5<61.2028008] yes=905,no=906,missing=906
													905:leaf=-0
													906:[f14<0.99609375] yes=1057,no=1058,missing=1058
														1057:[f1<4.07940197] yes=1207,no=1208,missing=1208
															1207:leaf=1.41368711
															1208:leaf=-0
														1058:leaf=-0
											558:[f12<0.207519531] yes=729,no=730,missing=730
												729:leaf=-0
												730:leaf=-0.310894907
								166:[f6<127.735847] yes=271,no=272,missing=272
									271:[f5<71.5961838] yes=405,no=406,missing=406
										405:[f6<115.638878] yes=559,no=560,missing=560
											559:[f8<32.21875] yes=731,no=732,missing=732
												731:[f18<0.715332031] yes=907,no=908,missing=908
													907:[f3<2.30002904] yes=1059,no=1060,missing=1060
														1059:[f0<1.26005435] yes=1209,no=1210,missing=1210
															1209:leaf=-0
															1210:leaf=0.692012191
														1060:leaf=-0
													908:leaf=-0.285417438
												732:[f17<0.974121094] yes=909,no=910,missing=910
													909:[f14<0.997558594] yes=1061,no=1062,missing=1062
														1061:leaf=-0.894440651
														1062:leaf=-0
													910:[f0<2.05452585] yes=1063,no=1064,missing=1064
														1063:leaf=-0
														1064:leaf=0.356123805
											560:[f11<54.625] yes=733,no=734,missing=734
												733:[f12<0.147583008] yes=911,no=912,missing=912
													911:[f5<60.3046799] yes=1065,no=1066,missing=1066
														1065:leaf=0.458979189
														1066:leaf=-0
													912:[f10<76.125] yes=1067,no=1068,missing=1068
														1067:[f8<42.3125] yes=1211,no=1212,missing=1212
															1211:leaf=-0.627480328
															1212:leaf=-0
														1068:leaf=-0
												734:[f17<0.948242188] yes=913,no=914,missing=914
													913:[f12<0.165893555] yes=1069,no=1070,missing=1070
														1069:[f9<44.96875] yes=1213,no=1214,missing=1214
															1213:[f5<70.5300522] yes=1323,no=1324,missing=1324
																1323:leaf=-0.181811884
																1324:leaf=-0
															1214:[f2<0.984206498] yes=1325,no=1326,missing=1326
																1325:leaf=-0
																1326:leaf=0.586670697
														1070:leaf=1.04596436
													914:[f2<4.09626579] yes=1071,no=1072,missing=1072
														1071:leaf=-0.100488618
														1072:leaf=-0
										406:[f7<50.0599747] yes=561,no=562,missing=562
											561:[f7<33.6978798] yes=735,no=736,missing=736
												735:[f0<0.826742709] yes=915,no=916,missing=916
													915:leaf=-0
													916:leaf=-0.571572244
												736:[f2<2.54377103] yes=917,no=918,missing=918
													917:[f2<1.45614338] yes=1073,no=1074,missing=1074
														1073:leaf=-0
														1074:leaf=-0.0982206315
													918:leaf=0.595352769
											562:[f10<30.28125] yes=737,no=738,missing=738
												737:leaf=-0
												738:[f11<108.875] yes=919,no=920,missing=920
													919:leaf=-0.933819711
													920:leaf=-0
									272:[f11<91.875] yes=407,no=408,missing=408
										407:[f10<101.8125] yes=563,no=564,missing=564
											563:[f6<182.900375] yes=739,no=740,missing=740
												739:[f3<1.62637496] yes=921,no=922,missing=922
													921:[f5<88.3528214] yes=1075,no=1076,missing=1076
														1075:[f10<81.5] yes=1215,no=1216,missing=1216
															1215:[f13<0.067199707] yes=1327,no=1328,missing=1328
																1327:[f10<39.625] yes=1425,no=1426,missing=1426
																	1425:leaf=-0
																	1426:[f19<0.0116577148] yes=1509,no=1510,missing=1510
																		1509:leaf=-0
