booster[0]:
0:[f5<97.548584] yes=1,no=2,missing=2
	1:[f13<0.62890625] yes=3,no=4,missing=4
		3:[f12<0.670410156] yes=7,no=8,missing=8
			7:[f6<201.295761] yes=15,no=16,missing=16
				15:[f4<153.864395] yes=27,no=28,missing=28
					27:[f6<143.160889] yes=47,no=48,missing=48
						47:[f6<129.348419] yes=83,no=84,missing=84
							83:[f11<99.875] yes=149,no=150,missing=150
								149:[f7<184.950272] yes=243,no=244,missing=244
									243:[f7<38.376049] yes=363,no=364,missing=364
										363:[f11<48.40625] yes=529,no=530,missing=530
											529:[f3<3.99584675] yes=701,no=702,missing=702
												701:leaf=0.99272722
												702:leaf=-0
											530:[f10<42.09375] yes=703,no=704,missing=704
												703:leaf=-1.19294119
												704:leaf=-0
										364:[f1<0.615251839] yes=531,no=532,missing=532
											531:[f15<0.936523438] yes=705,no=706,missing=706
												705:leaf=0.312000006
												706:leaf=-0.312000006
											532:[f18<0.00796508789] yes=707,no=708,missing=708
												707:leaf=-0
												708:[f6<123.408859] yes=851,no=852,missing=852
													851:[f17<0.999511719] yes=1001,no=1002,missing=1002
														1001:[f11<30.953125] yes=1143,no=1144,missing=1144
															1143:leaf=-0
															1144:leaf=-1.35515141
														1002:leaf=-0
													852:[f5<68.284668] yes=1003,no=1004,missing=1004
														1003:[f10<34.28125] yes=1145,no=1146,missing=1146
															1145:leaf=0.668571413
															1146:[f18<0.229125977] yes=1275,no=1276,missing=1276
																1275:leaf=-0.93599999
																1276:[f15<0.871582031] yes=1407,no=1408,missing=1408
																	1407:[f5<66.9189453] yes=1519,no=1520,missing=1520
																		1519:leaf=-0.519999981
																		1520:leaf=-0
																	1408:[f5<41.0072174] yes=1521,no=1522,missing=1522
																		1521:leaf=-0
																		1522:[f7<40.2870636] yes=1601,no=1602,missing=1602
																			1601:leaf=-0
																			1602:leaf=0.93599999
														1004:[f17<0.995605469] yes=1147,no=1148,missing=1148
															1147:[f16<0.990722656] yes=1277,no=1278,missing=1278
																1277:[f10<67.625] yes=1409,no=1410,missing=1410
																	1409:[f11<35.03125] yes=1523,no=1524,missing=1524
																		1523:leaf=-0
																		1524:leaf=-1.37999988
																	1410:leaf=-0
																1278:leaf=-0
															1148:leaf=-0
									244:[f5<60.0411034] yes=365,no=366,missing=366
										365:leaf=0.668571413
										366:leaf=-0
								150:[f7<87.3468704] yes=245,no=246,missing=246
									245:[f3<1.56711733] yes=367,no=368,missing=368
										367:leaf=-0.779999971
										368:leaf=-0
									246:[f13<0.116210938] yes=369,no=370,missing=370
										369:[f0<1.18617415] yes=533,no=534,missing=534
											533:[f1<1.00393903] yes=709,no=710,missing=710
												709:leaf=0.519999981
												710:leaf=-0
											534:leaf=-0.312000006
										370:leaf=1.21333337
							84:[f5<78.3318939] yes=151,no=152,missing=152
								151:[f14<0.423095703] yes=247,no=248,missing=248
									247:[f10<78.4375] yes=371,no=372,missing=372
										371:leaf=-1.19294119
										372:leaf=-0
									248:[f15<0.306640625] yes=373,no=374,missing=374
										373:[f9<62.78125] yes=535,no=536,missing=536
											535:leaf=-1.03999996
											536:leaf=-0
										374:[f7<137.671463] yes=537,no=538,missing=538
											537:[f15<0.918945312] yes=711,no=712,missing=712
												711:[f8<43.25] yes=853,no=854,missing=854
													853:[f10<51.875] yes=1005,no=1006,missing=1006
														1005:[f10<34.03125] yes=1149,no=1150,missing=1150
															1149:[f0<3.76599288] yes=1279,no=1280,missing=1280
																1279:leaf=0.519999981
																1280:leaf=-0
															1150:[f15<0.520996094] yes=1281,no=1282,missing=1282
																1281:[f2<1.84171057] yes=1411,no=1412,missing=1412
																	1411:leaf=-0
																	1412:leaf=0.312000006
																1282:[f17<0.033782959] yes=1413,no=1414,missing=1414
																	1413:leaf=-0
																	1414:[f4<116.61512] yes=1525,no=1526,missing=1526
																		1525:leaf=-1.26285708
																		1526:[f7<39.6164627] yes=1603,no=1604,missing=1604
																			1603:leaf=-0
																			1604:leaf=-0.312000006
														1006:[f10<64.6875] yes=1151,no=1152,missing=1152
															1151:[f2<0.820855498] yes=1283,no=1284,missing=1284
																1283:leaf=-0
																1284:leaf=1.11428571
															1152:[f13<0.106872559] yes=1285,no=1286,missing=1286
																1285:leaf=0.312000006
																1286:[f7<54.0314674] yes=1415,no=1416,missing=1416
																	1415:leaf=-0
																	1416:leaf=-1.03999996
													854:[f7<116.497192] yes=1007,no=1008,missing=1008
														1007:leaf=0.866666675
														1008:leaf=-0
												712:[f4<112.814812] yes=855,no=856,missing=856
													855:[f4<47.3433723] yes=1009,no=1010,missing=1010
														1009:[f0<0.562894106] yes=1153,no=1154,missing=1154
															1153:leaf=-0
															1154:leaf=-0.312000006
														1010:[f17<0.993164062] yes=1155,no=1156,missing=1156
															1155:[f5<75.2134781] yes=1287,no=1288,missing=1288
																1287:[f8<55.375] yes=1417,no=1418,missing=1418
																	1417:[f11<30.484375] yes=1527,no=1528,missing=1528
																		1527:leaf=-0
																		1528:[f18<0.00475311279] yes=1605,no=1606,missing=1606
																			1605:leaf=-0
																			1606:[f14<0.996582031] yes=1651,no=1652,missing=1652
																				1651:leaf=1.37999988
																				1652:[f12<0.192626953] yes=1693,no=1694,missing=1694
																					1693:leaf=0.779999971
																					1694:[f2<3.69693685] yes=1725,no=1726,missing=1726
																						1725:leaf=-0.312000006
																						1726:leaf=-0
																	1418:leaf=-0
																1288:leaf=-0
															1156:leaf=-0
													856:[f5<52.8972702] yes=1011,no=1012,missing=1012
														1011:[f2<3.67438674] yes=1157,no=1158,missing=1158
															1157:leaf=-0.866666675
															1158:leaf=-0
														1012:[f16<0.143432617] yes=1159,no=1160,missing=1160
															1159:[f8<30.96875] yes=1289,no=1290,missing=1290
																1289:leaf=-0
																1290:leaf=-0.779999971
															1160:[f17<0.048828125] yes=1291,no=1292,missing=1292
																1291:leaf=-0
																1292:[f18<0.0395507812] yes=1419,no=1420,missing=1420
																	1419:leaf=-0
																	1420:[f0<3.68070054] yes=1529,no=1530,missing=1530
																		1529:leaf=1.26285708
																		1530:leaf=-0
											538:[f11<44.34375] yes=713,no=714,missing=714
												713:[f16<0.55859375] yes=857,no=858,missing=858
													857:leaf=-0.519999981
													858:leaf=0.312000006
												714:[f14<0.809570312] yes=859,no=860,missing=860
													859:[f2<1.31289041] yes=1013,no=1014,missing=1014
														1013:leaf=0.312000006
														1014:leaf=-0.312000006
													860:[f17<0.999511719] yes=1015,no=1016,missing=1016
														1015:leaf=1.43519998
														1016:leaf=-0
								152:[f0<1.29369617] yes=249,no=250,missing=250
									249:[f4<76.7208786] yes=375,no=376,missing=376
										375:[f5<89.0917282] yes=539,no=540,missing=540
											539:[f0<0.604440689] yes=715,no=716,missing=716
												715:leaf=-0
												716:leaf=-1.11428571
											540:[f14<0.584960938] yes=717,no=718,missing=718
												717:leaf=-0
												718:leaf=0.312000006
										376:[f13<0.419433594] yes=541,no=542,missing=542
											541:leaf=1.03999996
											542:leaf=-0
									250:[f11<32.40625] yes=377,no=378,missing=378
										377:[f0<2.16796684] yes=543,no=544,missing=544
											543:[f1<5.08992481] yes=719,no=720,missing=720
												719:leaf=-0.779999971
												720:leaf=-0
											544:leaf=0.668571413
										378:[f10<87.1875] yes=545,no=546,missing=546
											545:[f18<0.995605469] yes=721,no=722,missing=722
												721:[f19<0.00270080566] yes=861,no=862,missing=862
													861:leaf=-0
													862:[f12<0.10760498] yes=1017,no=1018,missing=1018
														1017:[f7<60.1571312] yes=1161,no=1162,missing=1162
															1161:[f5<88.7389984] yes=1293,no=1294,missing=1294
																1293:leaf=0.519999981
																1294:leaf=-0
															1162:[f6<140.441727] yes=1295,no=1296,missing=1296
																1295:leaf=-0.866666675
																1296:leaf=-0
														1018:[f10<31.203125] yes=1163,no=1164,missing=1164
															1163:[f0<3.92880893] yes=1297,no=1298,missing=1298
																1297:leaf=-0.312000006
																1298:leaf=-0
															1164:leaf=-1.31460667
												722:leaf=-0
											546:[f4<98.0569077] yes=723,no=724,missing=724
												723:leaf=0.312000006
												724:leaf=-0
						48:[f14<0.372070312] yes=85,no=86,missing=86
							85:[f14<0.278076172] yes=153,no=154,missing=154
								153:[f18<0.0152206421] yes=251,no=252,missing=252
									251:[f6<172.92186] yes=379,no=380,missing=380
										379:leaf=-0.93599999
										380:[f1<0.524742186] yes=547,no=548,missing=548
											547:leaf=-0
											548:leaf=0.866666675
									252:[f10<35.4375] yes=381,no=382,missing=382
										381:[f10<34.03125] yes=549,no=550,missing=550
											549:[f4<90.5386658] yes=725,no=726,missing=726
												725:leaf=-0
												726:[f17<0.990234375] yes=863,no=864,missing=864
													863:leaf=-1.03999996
													864:leaf=-0
											550:leaf=0.668571413
										382:[f3<5.32741451] yes=551,no=552,missing=552
											551:[f3<0.481413931] yes=727,no=728,missing=728
												727:leaf=-0
												728:[f19<0.00270080566] yes=865,no=866,missing=866
													865:leaf=-0
													866:[f9<165.125] yes=1019,no=1020,missing=1020
														1019:[f3<4.61092663] yes=1165,no=1166,missing=1166
															1165:leaf=-1.32452822
															1166:[f10<47.59375] yes=1299,no=1300,missing=1300
																1299:leaf=-0
																1300:[f10<97.75] yes=1421,no=1422,missing=1422
																	1421:leaf=-0.866666675
																	1422:leaf=-0
														1020:[f16<0.0804443359] yes=1167,no=1168,missing=1168
															1167:leaf=-0
															1168:leaf=-0.519999981
											552:leaf=-0
								154:[f0<1.97847354] yes=253,no=254,missing=254
									253:[f17<0.0616455078] yes=383,no=384,missing=384
										383:leaf=-0.519999981
										384:[f18<0.856933594] yes=553,no=554,missing=554
											553:leaf=1.19294119
											554:leaf=-0
									254:[f1<0.615251839] yes=385,no=386,missing=386
										385:leaf=-0
										386:[f15<0.993164062] yes=555,no=556,missing=556
											555:leaf=-1.21333337
											556:leaf=-0
							86:[f7<133.33522] yes=155,no=156,missing=156
								155:[f15<0.325195312] yes=255,no=256,missing=256
									255:[f2<3.67438674] yes=387,no=388,missing=388
										387:[f14<0.995605469] yes=557,no=558,missing=558
											557:[f16<0.991699219] yes=729,no=730,missing=730
												729:[f3<1.53753769] yes=867,no=868,missing=868
													867:[f2<3.04681206] yes=1021,no=1022,missing=1022
														1021:leaf=-0.312000006
														1022:leaf=-0
													868:[f3<5.066679] yes=1023,no=1024,missing=1024
														1023:[f6<144.15538] yes=1169,no=1170,missing=1170
															1169:leaf=-0
															1170:[f18<0.00475311279] yes=1301,no=1302,missing=1302
																1301:leaf=-0
																1302:leaf=-1.38666666
														1024:leaf=-0
												730:leaf=-0
											558:[f15<0.151245117] yes=731,no=732,missing=732
												731:[f16<0.333740234] yes=869,no=870,missing=870
													869:leaf=-0
													870:[f8<60.3125] yes=1025,no=1026,missing=1026
														1025:leaf=-1.08000004
														1026:leaf=-0
												732:[f0<4.10846519] yes=871,no=872,missing=872
													871:leaf=0.779999971
													872:leaf=-0
										388:[f9<53.5625] yes=559,no=560,missing=560
											559:leaf=-0.668571413
											560:[f10<79.3125] yes=733,no=734,missing=734
												733:leaf=0.779999971
												734:leaf=-0
									256:[f6<184.680542] yes=389,no=390,missing=390
										389:[f4<141.938965] yes=561,no=562,missing=562
											561:[f11<60.15625] yes=735,no=736,missing=736
												735:[f0<1.34053481] yes=873,no=874,missing=874
													873:[f17<0.638183594] yes=1027,no=1028,missing=1028
														1027:[f7<95.6774292] yes=1171,no=1172,missing=1172
															1171:[f8<45.71875] yes=1303,no=1304,missing=1304
																1303:leaf=-1.28869557
																1304:leaf=-0
															1172:[f3<2.2096014] yes=1305,no=1306,missing=1306
																1305:[f17<0.196655273] yes=1423,no=1424,missing=1424
																	1423:leaf=-0.93599999
																	1424:leaf=-0
																1306:[f0<0.729356408] yes=1425,no=1426,missing=1426
																	1425:leaf=-0
																	1426:leaf=0.779999971
														1028:[f19<0.229125977] yes=1173,no=1174,missing=1174
															1173:[f2<0.88712424] yes=1307,no=1308,missing=1308
																1307:leaf=-0.519999981
																1308:[f5<56.7711983] yes=1427,no=1428,missing=1428
																	1427:leaf=-0
																	1428:leaf=1.26285708
															1174:[f7<121.381989] yes=1309,no=1310,missing=1310
																1309:[f7<71.5570297] yes=1429,no=1430,missing=1430
																	1429:[f5<84.941246] yes=1531,no=1532,missing=1532
																		1531:[f2<2.91303492] yes=1607,no=1608,missing=1608
																			1607:leaf=0.668571413
																			1608:leaf=-0
																		1532:leaf=-0
																	1430:[f5<94.1680145] yes=1533,no=1534,missing=1534
																		1533:leaf=-1.16999996
																		1534:leaf=-0
																1310:leaf=0.519999981
													874:[f5<57.8526573] yes=1029,no=1030,missing=1030
														1029:[f4<83.4423904] yes=1175,no=1176,missing=1176
															1175:[f4<61.5551796] yes=1311,no=1312,missing=1312
																1311:leaf=-0
																1312:[f3<3.88870215] yes=1431,no=1432,missing=1432
																	1431:leaf=-1.14399993
																	1432:leaf=-0
															1176:[f14<0.967773438] yes=1313,no=1314,missing=1314
																1313:[f1<0.960578442] yes=1433,no=1434,missing=1434
																	1433:[f3<1.98581564] yes=1535,no=1536,missing=1536
																		1535:leaf=-0
																		1536:leaf=-0.99272722
																	1434:[f8<31.375] yes=1537,no=1538,missing=1538
																		1537:leaf=-0
																		1538:leaf=0.519999981
																1314:[f11<56] yes=1435,no=1436,missing=1436
																	1435:leaf=1.08000004
																	1436:[f2<3.06814337] yes=1539,no=1540,missing=1540
																		1539:leaf=-0.312000006
																		1540:leaf=-0
														1030:[f0<4.72866344] yes=1177,no=1178,missing=1178
															1177:[f10<85.5625] yes=1315,no=1316,missing=1316
																1315:[f7<113.633209] yes=1437,no=1438,missing=1438
																	1437:[f14<0.555175781] yes=1541,no=1542,missing=1542
																		1541:[f8<38.59375] yes=1609,no=1610,missing=1610
																			1609:[f5<81.7825546] yes=1653,no=1654,missing=1654
																				1653:leaf=0.519999981
																				1654:leaf=-0
																			1610:[f9<75.4375] yes=1655,no=1656,missing=1656
																				1655:leaf=-0.93599999
																				1656:leaf=-0
																		1542:[f13<0.360839844] yes=1611,no=1612,missing=1612
																			1611:[f2<0.658516109] yes=1657,no=1658,missing=1658
																				1657:[f0<1.87216651] yes=1695,no=1696,missing=1696
																					1695:leaf=-0.312000006
																					1696:leaf=-0
																				1658:[f18<0.999023438] yes=1697,no=1698,missing=1698
																					1697:[f0<1.40769303] yes=1727,no=1728,missing=1728
																						1727:[f3<3.15710497] yes=1741,no=1742,missing=1742
																							1741:leaf=-0.312000006
																							1742:leaf=-0
																						1728:[f5<92.6929626] yes=1743,no=1744,missing=1744
																							1743:[f17<0.932617188] yes=1759,no=1760,missing=1760
																								1759:[f11<54.3125] yes=1773,no=1774,missing=1774
																									1773:[f5<70.0635376] yes=1785,no=1786,missing=1786
																										1785:[f18<0.910644531] yes=1801,no=1802,missing=1802
																											1801:[f18<0.0363464355] yes=1823,no=1824,missing=1824
																												1823:[f0<2.88783765] yes=1851,no=1852,missing=1852
																													1851:leaf=-0.668571413
																													1852:leaf=-0
																												1824:[f12<0.124816895] yes=1853,no=1854,missing=1854
																													1853:[f11<40.125] yes=1875,no=1876,missing=1876
																														1875:leaf=0.668571413
																														1876:leaf=-0.519999981
																													1854:[f19<0.0111541748] yes=1877,no=1878,missing=1878
																														1877:leaf=-0
																														1878:[f11<53.5] yes=1893,no=1894,missing=1894
																															1893:leaf=1.31039989
																															1894:leaf=-0
																											1802:[f18<0.982421875] yes=1825,no=1826,missing=1826
																												1825:[f7<88.8994827] yes=1855,no=1856,missing=1856
																													1855:leaf=-0.93599999
																													1856:leaf=-0
																												1826:leaf=0.312000006
																										1786:[f12<0.568847656] yes=1803,no=1804,missing=1804
																											1803:[f2<0.9383654] yes=1827,no=1828,missing=1828
																												1827:leaf=-0
																												1828:[f4<59.7969208] yes=1857,no=1858,missing=1858
																													1857:[f12<0.117126465] yes=1879,no=1880,missing=1880
																														1879:leaf=0.312000006
																														1880:[f3<1.17626143] yes=1895,no=1896,missing=1896
																															1895:leaf=-0
																															1896:leaf=-0.312000006
																													1858:[f3<1.06531107] yes=1881,no=1882,missing=1882
																														1881:leaf=-0
																														1882:[f7<96.2392197] yes=1897,no=1898,missing=1898
																															1897:[f11<31.203125] yes=1901,no=1902,missing=1902
																																1901:[f4<71.5523529] yes=1907,no=1908,missing=1908
																																	1907:leaf=-0
																																	1908:leaf=0.312000006
																																1902:[f18<0.00339317322] yes=1909,no=1910,missing=1910
																																	1909:leaf=-0
																																	1910:[f16<0.0202789307] yes=1915,no=1916,missing=1916
																																		1915:[f4<97.5498199] yes=1921,no=1922,missing=1922
																																			1921:leaf=-0
																																			1922:leaf=0.519999981
																																		1916:[f0<4.47916365] yes=1923,no=1924,missing=1924
																																			1923:[f6<183.115509] yes=1925,no=1926,missing=1926
																																				1925:[f15<0.537109375] yes=1927,no=1928,missing=1928
																																					1927:leaf=-0
																																					1928:leaf=1.25666666
																																				1926:leaf=-0
																																			1924:leaf=-0
																															1898:[f12<0.144287109] yes=1903,no=1904,missing=1904
																																1903:[f8<49.6875] yes=1911,no=1912,missing=1912
																																	1911:[f6<180.679077] yes=1917,no=1918,missing=1918
																																		1917:leaf=-0.779999971
																																		1918:leaf=-0
																																	1912:[f1<5.20004225] yes=1919,no=1920,missing=1920
																																		1919:leaf=0.668571413
																																		1920:leaf=-0
																																1904:[f0<2.833848] yes=1913,no=1914,missing=1914
																																	1913:leaf=1.08000004
																																	1914:leaf=-0
																											1804:[f0<2.51133657] yes=1829,no=1830,missing=1830
																												1829:leaf=0.312000006
																												1830:leaf=-0.312000006
																									1774:[f13<0.100769043] yes=1787,no=1788,missing=1788
																										1787:[f12<0.206420898] yes=1805,no=1806,missing=1806
																											1805:[f18<0.739257812] yes=1831,no=1832,missing=1832
																												1831:leaf=0.668571413
																												1832:leaf=-0.312000006
																											1806:leaf=-0.866666675
																										1788:[f8<36.03125] yes=1807,no=1808,missing=1808
																											1807:[f17<0.215576172] yes=1833,no=1834,missing=1834
																												1833:leaf=-0.519999981
																												1834:[f4<102.809723] yes=1859,no=1860,missing=1860
																													1859:[f0<1.96252811] yes=1883,no=1884,missing=1884
																														1883:leaf=-0
																														1884:leaf=-0.312000006
																													1860:leaf=0.668571413
																											1808:[f18<0.758300781] yes=1835,no=1836,missing=1836
																												1835:leaf=1.16999996
																												1836:[f3<2.55079079] yes=1861,no=1862,missing=1862
																													1861:leaf=0.312000006
																													1862:[f0<1.80587304] yes=1885,no=1886,missing=1886
																														1885:leaf=-0
																														1886:leaf=-0.312000006
																								1760:[f7<19.8595314] yes=1775,no=1776,missing=1776
																									1775:[f4<101.574883] yes=1789,no=1790,missing=1790
																										1789:leaf=-0.312000006
																										1790:leaf=0.312000006
																									1776:[f14<0.56640625] yes=1791,no=1792,missing=1792
																										1791:leaf=-0
																										1792:[f1<4.31867361] yes=1809,no=1810,missing=1810
																											1809:[f3<4.81128979] yes=1837,no=1838,missing=1838
																												1837:[f4<51.9781113] yes=1863,no=1864,missing=1864
																													1863:leaf=-0
																													1864:leaf=1.41977525
																												1838:leaf=-0
																											1810:[f1<4.5775075] yes=1839,no=1840,missing=1840
																												1839:[f10<38.40625] yes=1865,no=1866,missing=1866
																													1865:leaf=0.312000006
																													1866:leaf=-0.519999981
																												1840:[f14<0.998046875] yes=1867,no=1868,missing=1868
																													1867:[f16<0.9765625] yes=1887,no=1888,missing=1888
																														1887:leaf=1.08000004
																														1888:leaf=-0
																													1868:leaf=-0
																							1744:[f0<3.09389639] yes=1761,no=1762,missing=1762
																								1761:[f4<107.278511] yes=1777,no=1778,missing=1778
																									1777:[f7<87.3468704] yes=1793,no=1794,missing=1794
																										1793:[f3<4.91235447] yes=1811,no=1812,missing=1812
																											1811:[f11<58.09375] yes=1841,no=1842,missing=1842
																												1841:leaf=1.03999996
																												1842:leaf=-0
																											1812:leaf=-0
																										1794:[f1<1.54469657] yes=1813,no=1814,missing=1814
																											1813:leaf=-0
																											1814:leaf=-0.519999981
																									1778:[f9<44] yes=1795,no=1796,missing=1796
																										1795:leaf=-0
																										1796:leaf=-0.866666675
																								1762:leaf=0.99272722
																					1698:leaf=-0
																			1612:[f0<3.45048451] yes=1659,no=1660,missing=1660
																				1659:[f16<0.218017578] yes=1699,no=1700,missing=1700
																					1699:[f15<0.926757812] yes=1729,no=1730,missing=1730
																						1729:[f2<3.02902985] yes=1745,no=1746,missing=1746
																							1745:leaf=-0.866666675
																							1746:leaf=-0
																						1730:[f7<34.9858589] yes=1747,no=1748,missing=1748
																							1747:leaf=-0.312000006
																							1748:[f1<1.16938984] yes=1763,no=1764,missing=1764
																								1763:leaf=-0
																								1764:leaf=0.93599999
																					1700:[f7<31.5474949] yes=1731,no=1732,missing=1732
																						1731:[f4<106.777557] yes=1749,no=1750,missing=1750
																							1749:leaf=-0.519999981
																							1750:leaf=-0
																						1732:[f5<68.9248276] yes=1751,no=1752,missing=1752
																							1751:[f5<65.5661469] yes=1765,no=1766,missing=1766
																								1765:leaf=0.312000006
																								1766:[f1<0.895918071] yes=1779,no=1780,missing=1780
																									1779:leaf=-0
																									1780:leaf=-0.312000006
																							1752:[f16<0.997070312] yes=1767,no=1768,missing=1768
																								1767:[f18<0.982421875] yes=1781,no=1782,missing=1782
																									1781:leaf=1.38666666
																									1782:leaf=-0
																								1768:leaf=-0
																				1660:[f13<0.573730469] yes=1701,no=1702,missing=1702
																					1701:leaf=-1.08000004
																					1702:leaf=-0
																	1438:[f12<0.137329102] yes=1543,no=1544,missing=1544
																		1543:[f10<42.78125] yes=1613,no=1614,missing=1614
																			1613:[f15<0.962890625] yes=1661,no=1662,missing=1662
																				1661:leaf=0.779999971
																				1662:[f2<0.632015049] yes=1703,no=1704,missing=1704
																					1703:leaf=-0
																					1704:leaf=-0.668571413
																			1614:[f16<0.0646972656] yes=1663,no=1664,missing=1664
																				1663:leaf=-0
																				1664:leaf=1.19294119
																		1544:[f9<83.625] yes=1615,no=1616,missing=1616
																			1615:[f14<0.964355469] yes=1665,no=1666,missing=1666
																				1665:[f5<77.5892105] yes=1705,no=1706,missing=1706
																					1705:[f6<174.544632] yes=1733,no=1734,missing=1734
																						1733:leaf=0.779999971
																						1734:leaf=-0
																					1706:[f13<0.0869140625] yes=1735,no=1736,missing=1736
																						1735:leaf=-0
																						1736:leaf=-0.779999971
																				1666:[f4<84.5415039] yes=1707,no=1708,missing=1708
																					1707:leaf=-0
																					1708:leaf=-1.16999996
																			1616:[f18<0.696777344] yes=1667,no=1668,missing=1668
																				1667:[f3<1.47655284] yes=1709,no=1710,missing=1710
																					1709:leaf=-0
																					1710:[f14<0.537109375] yes=1737,no=1738,missing=1738
																						1737:leaf=-0
																						1738:[f9<120.8125] yes=1753,no=1754,missing=1754
																							1753:leaf=1.14399993
																							1754:leaf=-0
																				1668:[f0<4.43916082] yes=1711,no=1712,missing=1712
																					1711:leaf=-0.312000006
																					1712:leaf=-0
																1316:[f13<0.543457031] yes=1439,no=1440,missing=1440
																	1439:[f1<1.19338191] yes=1545,no=1546,missing=1546
																		1545:leaf=-0
																		1546:[f2<5.53776932] yes=1617,no=1618,missing=1618
																			1617:[f11<58.09375] yes=1669,no=1670,missing=1670
																				1669:leaf=1.46249998
																				1670:leaf=-0
																			1618:leaf=-0
																	1440:leaf=-0
															1178:[f8<42.5] yes=1317,no=1318,missing=1318
																1317:[f8<34.0625] yes=1441,no=1442,missing=1442
																	1441:[f11<32.1875] yes=1547,no=1548,missing=1548
																		1547:[f1<1.81628644] yes=1619,no=1620,missing=1620
																			1619:leaf=-0
																			1620:leaf=0.312000006
																		1548:leaf=-0.779999971
																	1442:[f18<0.00270080566] yes=1549,no=1550,missing=1550
																		1549:leaf=-0
																		1550:leaf=1.21333337
																1318:[f10<35.03125] yes=1443,no=1444,missing=1444
																	1443:[f2<3.49863315] yes=1551,no=1552,missing=1552
																		1551:leaf=0.519999981
																		1552:leaf=-0
																	1444:[f4<99.3114471] yes=1553,no=1554,missing=1554
																		1553:leaf=-1.11428571
																		1554:leaf=-0
												736:[f9<46.90625] yes=875,no=876,missing=876
													875:[f10<78.4375] yes=1031,no=1032,missing=1032
														1031:[f7<70.4961014] yes=1179,no=1180,missing=1180
															1179:[f18<0.852050781] yes=1319,no=1320,missing=1320
																1319:[f18<0.00660324097] yes=1445,no=1446,missing=1446
																	1445:leaf=-0.312000006
																	1446:[f14<0.996582031] yes=1555,no=1556,missing=1556
																		1555:[f15<0.773925781] yes=1621,no=1622,missing=1622
																			1621:[f2<2.584934] yes=1671,no=1672,missing=1672
																				1671:leaf=-0.312000006
																				1672:[f1<1.14212441] yes=1713,no=1714,missing=1714
																					1713:leaf=-0
																					1714:leaf=0.519999981
																			1622:[f3<4.49898481] yes=1673,no=1674,missing=1674
																				1673:leaf=1.32888889
																				1674:leaf=-0
																		1556:[f3<2.51836014] yes=1623,no=1624,missing=1624
																			1623:leaf=-0.312000006
																			1624:leaf=-0
																1320:[f1<3.38273191] yes=1447,no=1448,missing=1448
																	1447:leaf=-0.779999971
																	1448:[f0<3.1309731] yes=1557,no=1558,missing=1558
																		1557:leaf=0.519999981
																		1558:leaf=-0
															1180:[f19<0.0133590698] yes=1321,no=1322,missing=1322
																1321:[f2<3.06814337] yes=1449,no=1450,missing=1450
																	1449:leaf=0.668571413
																	1450:leaf=-0
																1322:[f17<0.974121094] yes=1451,no=1452,missing=1452
																	1451:[f5<65.5661469] yes=1559,no=1560,missing=1560
																		1559:[f15<0.936523438] yes=1625,no=1626,missing=1626
																			1625:leaf=-0
																			1626:leaf=0.312000006
																		1560:leaf=-1.14399993
																	1452:leaf=-0
														1032:[f4<126.19001] yes=1181,no=1182,missing=1182
															1181:[f2<5.10323954] yes=1323,no=1324,missing=1324
																1323:[f11<152.25] yes=1453,no=1454,missing=1454
																	1453:[f17<0.994140625] yes=1561,no=1562,missing=1562
																		1561:[f0<5.1820631] yes=1627,no=1628,missing=1628
																			1627:[f13<0.0574951172] yes=1675,no=1676,missing=1676
																				1675:leaf=-0
																				1676:[f14<0.584960938] yes=1715,no=1716,missing=1716
																					1715:leaf=-0
																					1716:leaf=1.40780473
																			1628:leaf=-0
																		1562:leaf=-0
																	1454:leaf=-0
																1324:leaf=-0
															1182:[f5<74.3985367] yes=1325,no=1326,missing=1326
																1325:leaf=-0.519999981
																1326:leaf=0.519999981
													876:[f12<0.556640625] yes=1033,no=1034,missing=1034
														1033:[f2<0.720469236] yes=1183,no=1184,missing=1184
															1183:[f1<1.81628644] yes=1327,no=1328,missing=1328
																1327:[f8<42.6875] yes=1455,no=1456,missing=1456
																	1455:leaf=0.668571413
																	1456:leaf=-0
																1328:leaf=-0.668571413
															1184:[f5<94.4945984] yes=1329,no=1330,missing=1330
																1329:[f3<5.50373077] yes=1457,no=1458,missing=1458
																	1457:[f16<0.00304603577] yes=1563,no=1564,missing=1564
																		1563:[f0<1.02012277] yes=1629,no=1630,missing=1630
																			1629:leaf=-0
																			1630:leaf=-0.312000006
																		1564:[f4<38.6705208] yes=1631,no=1632,missing=1632
																			1631:leaf=-0
																			1632:[f14<0.462890625] yes=1677,no=1678,missing=1678
																				1677:leaf=-0
																				1678:[f3<0.885888696] yes=1717,no=1718,missing=1718
																					1717:leaf=-0
																					1718:[f1<0.682531059] yes=1739,no=1740,missing=1740
																						1739:[f0<1.87216651] yes=1755,no=1756,missing=1756
																							1755:leaf=-0
																							1756:leaf=0.312000006
																						1740:[f1<5.62729502] yes=1757,no=1758,missing=1758
																							1757:[f13<0.619140625] yes=1769,no=1770,missing=1770
																								1769:[f15<0.657226562] yes=1783,no=1784,missing=1784
																									1783:[f8<37.0625] yes=1797,no=1798,missing=1798
																										1797:[f7<78.8655396] yes=1815,no=1816,missing=1816
																											1815:leaf=-0.866666675
																											1816:leaf=0.779999971
																										1798:[f4<122.501144] yes=1817,no=1818,missing=1818
																											1817:leaf=1.23157895
																											1818:[f17<0.799316406] yes=1843,no=1844,missing=1844
																												1843:leaf=0.519999981
																												1844:[f1<4.89525747] yes=1869,no=1870,missing=1870
																													1869:leaf=-0.312000006
																													1870:leaf=-0
																									1784:[f7<39.046608] yes=1799,no=1800,missing=1800
																										1799:[f12<0.439941406] yes=1819,no=1820,missing=1820
																											1819:[f8<49.0625] yes=1845,no=1846,missing=1846
																												1845:[f14<0.999023438] yes=1871,no=1872,missing=1872
																													1871:[f1<1.40242922] yes=1889,no=1890,missing=1890
																														1889:leaf=-0
																														1890:[f0<4.37708426] yes=1899,no=1900,missing=1900
																															1899:[f18<0.995605469] yes=1905,no=1906,missing=1906
																																1905:leaf=1.37647057
																																1906:leaf=-0
																															1900:leaf=-0
																													1872:[f10<56.3125] yes=1891,no=1892,missing=1892
																														1891:leaf=-0.312000006
																														1892:leaf=-0
																												1846:leaf=-0
																											1820:leaf=-0.312000006
																										1800:[f8<69.75] yes=1821,no=1822,missing=1822
																											1821:[f8<30.140625] yes=1847,no=1848,missing=1848
																												1847:leaf=-0
																												1848:[f19<0.00270080566] yes=1873,no=1874,missing=1874
																													1873:leaf=-0
																													1874:leaf=1.26909089
																											1822:[f3<2.74152827] yes=1849,no=1850,missing=1850
																												1849:leaf=0.519999981
																												1850:leaf=-0
																								1770:leaf=-0
																							1758:[f2<2.93039656] yes=1771,no=1772,missing=1772
																								1771:leaf=0.312000006
																								1772:leaf=-0
																	1458:[f4<106.343376] yes=1565,no=1566,missing=1566
																		1565:leaf=-0.312000006
																		1566:leaf=-0
																1330:[f15<0.895996094] yes=1459,no=1460,missing=1460
																	1459:leaf=-0.519999981
																	1460:[f14<0.993652344] yes=1567,no=1568,missing=1568
																		1567:leaf=0.93599999
																		1568:leaf=-0
														1034:[f16<0.496826172] yes=1185,no=1186,missing=1186
															1185:leaf=0.866666675
															1186:[f18<0.0409851074] yes=1331,no=1332,missing=1332
																1331:leaf=0.519999981
																1332:[f0<3.34985566] yes=1461,no=1462,missing=1462
																	1461:leaf=-1.03999996
																	1462:leaf=-0
											562:[f1<1.66676974] yes=737,no=738,missing=738
												737:[f0<3.79914665] yes=877,no=878,missing=878
													877:[f18<0.57421875] yes=1035,no=1036,missing=1036
														1035:leaf=1.21333337
														1036:[f18<0.631835938] yes=1187,no=1188,missing=1188
															1187:leaf=-0.312000006
															1188:leaf=0.312000006
													878:[f4<143.478333] yes=1037,no=1038,missing=1038
														1037:leaf=-0.312000006
														1038:[f0<3.9672308] yes=1189,no=1190,missing=1190
															1189:leaf=-0
															1190:leaf=0.312000006
												738:[f14<0.984375] yes=879,no=880,missing=880
													879:[f19<0.140014648] yes=1039,no=1040,missing=1040
														1039:[f11<43.40625] yes=1191,no=1192,missing=1192
															1191:leaf=-0
															1192:[f2<3.28038907] yes=1333,no=1334,missing=1334
																1333:leaf=1.14399993
																1334:leaf=-0
														1040:[f0<3.30619073] yes=1193,no=1194,missing=1194
															1193:[f14<0.913574219] yes=1335,no=1336,missing=1336
																1335:leaf=-1.08000004
																1336:[f5<68.9248276] yes=1463,no=1464,missing=1464
																	1463:leaf=-0
																	1464:leaf=0.519999981
															1194:[f1<1.7091316] yes=1337,no=1338,missing=1338
																1337:leaf=-0
																1338:leaf=0.668571413
													880:[f4<143.478333] yes=1041,no=1042,missing=1042
														1041:[f1<2.21439099] yes=1195,no=1196,missing=1196
															1195:leaf=0.312000006
															1196:leaf=-0.312000006
														1042:[f3<3.93361235] yes=1197,no=1198,missing=1198
															1197:[f19<0.0173187256] yes=1339,no=1340,missing=1340
																1339:leaf=-0
																1340:leaf=-1.35870969
															1198:leaf=-0
										390:[f5<83.33741] yes=563,no=564,missing=564
											563:[f5<76.0401611] yes=739,no=740,missing=740
												739:[f8<50.25] yes=881,no=882,missing=882
													881:[f0<3.27940798] yes=1043,no=1044,missing=1044
														1043:[f6<185.14624] yes=1199,no=1200,missing=1200
															1199:leaf=-0
															1200:[f7<17.4761314] yes=1341,no=1342,missing=1342
																1341:leaf=-0
																1342:leaf=-1.41142857
														1044:[f14<0.814941406] yes=1201,no=1202,missing=1202
															1201:leaf=0.312000006
															1202:[f15<0.735839844] yes=1343,no=1344,missing=1344
																1343:leaf=-0
																1344:[f3<3.75293279] yes=1465,no=1466,missing=1466
																	1465:leaf=-0.99272722
																	1466:leaf=-0
													882:[f1<1.07613921] yes=1045,no=1046,missing=1046
														1045:leaf=0.668571413
														1046:[f2<1.23788798] yes=1203,no=1204,missing=1204
															1203:leaf=-0
															1204:leaf=-0.668571413
												740:[f7<52.961235] yes=883,no=884,missing=884
													883:[f8<30.96875] yes=1047,no=1048,missing=1048
														1047:leaf=-0
														1048:[f12<0.0812988281] yes=1205,no=1206,missing=1206
															1205:leaf=-0
															1206:leaf=-1.18559992
													884:[f18<0.51953125] yes=1049,no=1050,missing=1050
														1049:[f13<0.256835938] yes=1207,no=1208,missing=1208
															1207:[f13<0.0611877441] yes=1345,no=1346,missing=1346
																1345:leaf=-0
																1346:[f1<5.75081253] yes=1467,no=1468,missing=1468
																	1467:[f6<199.772522] yes=1569,no=1570,missing=1570
																		1569:leaf=1.31039989
																		1570:leaf=-0
																	1468:leaf=-0
															1208:[f1<1.84657192] yes=1347,no=1348,missing=1348
																1347:leaf=-0.312000006
																1348:[f0<4.77322912] yes=1469,no=1470,missing=1470
																	1469:leaf=0.312000006
																	1470:leaf=-0
														1050:[f7<68.5748749] yes=1209,no=1210,missing=1210
															1209:leaf=0.312000006
															1210:[f1<0.97501725] yes=1349,no=1350,missing=1350
																1349:leaf=-0
																1350:leaf=-1.08000004
											564:[f4<56.9619026] yes=741,no=742,missing=742
												741:[f10<79.75] yes=885,no=886,missing=886
													885:[f1<5.14250708] yes=1051,no=1052,missing=1052
														1051:leaf=-1.14399993
														1052:leaf=-0
													886:[f1<4.12257957] yes=1053,no=1054,missing=1054
														1053:leaf=0.519999981
														1054:leaf=-0
												742:[f10<44.625] yes=887,no=888,missing=888
													887:[f14<0.838867188] yes=1055,no=1056,missing=1056
														1055:leaf=-0.93599999
														1056:[f6<193.756699] yes=1211,no=1212,missing=1212
															1211:leaf=0.93599999
															1212:[f1<1.4898243] yes=1351,no=1352,missing=1352
																1351:leaf=-0
																1352:leaf=-0.312000006
													888:[f12<0.122680664] yes=1057,no=1058,missing=1058
														1057:[f5<91.9868088] yes=1213,no=1214,missing=1214
															1213:[f15<0.907714844] yes=1353,no=1354,missing=1354
																1353:[f4<84.5415039] yes=1471,no=1472,missing=1472
																	1471:leaf=-0
																	1472:leaf=0.668571413
																1354:[f18<0.971191406] yes=1473,no=1474,missing=1474
																	1473:leaf=-1.08000004
																	1474:leaf=-0
															1214:[f7<20.9785862] yes=1355,no=1356,missing=1356
																1355:leaf=-0
																1356:[f9<54.59375] yes=1475,no=1476,missing=1476
																	1475:leaf=-0
																	1476:leaf=1.19294119
														1058:[f2<5.64468288] yes=1215,no=1216,missing=1216
															1215:[f1<4.5095048] yes=1357,no=1358,missing=1358
																1357:[f4<149.200638] yes=1477,no=1478,missing=1478
																	1477:[f3<1.44962406] yes=1571,no=1572,missing=1572
																		1571:leaf=-0
																		1572:[f18<0.98046875] yes=1633,no=1634,missing=1634
																			1633:[f14<0.576171875] yes=1679,no=1680,missing=1680
																				1679:leaf=-0
																				1680:leaf=1.38068962
																			1634:[f2<1.61254275] yes=1681,no=1682,missing=1682
																				1681:leaf=0.312000006
																				1682:leaf=-0
																	1478:leaf=-0
																1358:[f10<53.75] yes=1479,no=1480,missing=1480
																	1479:leaf=-0.519999981
																	1480:leaf=0.668571413
															1216:leaf=-0
								156:[f11<78.4375] yes=257,no=258,missing=258
									257:[f10<47.28125] yes=391,no=392,missing=392
										391:[f6<191.676376] yes=565,no=566,missing=566
											565:[f6<156.208191] yes=743,no=744,missing=744
												743:[f7<150.641876] yes=889,no=890,missing=890
													889:[f17<0.108154297] yes=1059,no=1060,missing=1060
														1059:[f6<144.935654] yes=1217,no=1218,missing=1218
															1217:leaf=-0
															1218:leaf=0.866666675
														1060:leaf=-0.312000006
													890:[f0<1.45704126] yes=1061,no=1062,missing=1062
														1061:leaf=-0
														1062:leaf=-0.93599999
												744:[f9<72.625] yes=891,no=892,missing=892
													891:leaf=-0.519999981
													892:[f5<55.3843193] yes=1063,no=1064,missing=1064
														1063:leaf=-0.312000006
														1064:[f5<94.1680145] yes=1219,no=1220,missing=1220
															1219:[f13<0.360839844] yes=1359,no=1360,missing=1360
																1359:[f15<0.623535156] yes=1481,no=1482,missing=1482
																	1481:[f14<0.985351562] yes=1573,no=1574,missing=1574
																		1573:leaf=0.519999981
																		1574:leaf=-0.312000006
																	1482:[f1<5.52202988] yes=1575,no=1576,missing=1576
																		1575:[f13<0.0708007812] yes=1635,no=1636,missing=1636
																			1635:[f16<0.673339844] yes=1683,no=1684,missing=1684
																				1683:[f2<0.853659689] yes=1719,no=1720,missing=1720
																					1719:leaf=-0
																					1720:leaf=-0.312000006
																				1684:leaf=0.779999971
																			1636:[f6<189.252884] yes=1685,no=1686,missing=1686
																				1685:[f12<0.516601562] yes=1721,no=1722,missing=1722
																					1721:leaf=1.36500001
																					1722:leaf=-0
																				1686:leaf=-0
																		1576:leaf=-0
																1360:[f16<0.956542969] yes=1483,no=1484,missing=1484
																	1483:[f10<33.78125] yes=1577,no=1578,missing=1578
																		1577:leaf=-0
																		1578:leaf=1.03999996
																	1484:[f4<59.7969208] yes=1579,no=1580,missing=1580
																		1579:leaf=-0
																		1580:leaf=-0.779999971
															1220:leaf=-0
											566:[f8<35.21875] yes=745,no=746,missing=746
												745:leaf=-0
												746:[f0<0.672955871] yes=893,no=894,missing=894
													893:leaf=-0
													894:leaf=-1.11428571
										392:[f14<0.632324219] yes=567,no=568,missing=568
											567:[f15<0.9609375] yes=747,no=748,missing=748
												747:[f13<0.292480469] yes=895,no=896,missing=896
													895:leaf=1.08000004
													896:[f17<0.8359375] yes=1065,no=1066,missing=1066
														1065:[f3<0.644686043] yes=1221,no=1222,missing=1222
															1221:leaf=-0
															1222:leaf=-0.519999981
														1066:leaf=0.312000006
												748:[f2<1.17691922] yes=897,no=898,missing=898
													897:[f6<162.449783] yes=1067,no=1068,missing=1068
														1067:leaf=-0
														1068:leaf=0.779999971
													898:[f0<5.2484746] yes=1069,no=1070,missing=1070
														1069:leaf=-1.08000004
														1070:leaf=-0
											568:[f7<153.301804] yes=749,no=750,missing=750
												749:[f15<0.715332031] yes=899,no=900,missing=900
													899:[f9<76.5625] yes=1071,no=1072,missing=1072
														1071:[f3<1.7979821] yes=1223,no=1224,missing=1224
															1223:[f0<1.75905406] yes=1361,no=1362,missing=1362
																1361:leaf=-0.312000006
																1362:leaf=-0
															1224:[f0<1.07850754] yes=1363,no=1364,missing=1364
																1363:leaf=-0
																1364:leaf=0.93599999
														1072:[f3<1.27151155] yes=1225,no=1226,missing=1226
															1225:leaf=-0
															1226:leaf=-0.866666675
													900:[f0<5.11525822] yes=1073,no=1074,missing=1074
														1073:[f12<0.586425781] yes=1227,no=1228,missing=1228
															1227:[f18<0.0610351562] yes=1365,no=1366,missing=1366
																1365:[f6<174.544632] yes=1485,no=1486,missing=1486
																	1485:[f16<0.930664062] yes=1581,no=1582,missing=1582
																		1581:leaf=-0.779999971
																		1582:[f1<4.85101366] yes=1637,no=1638,missing=1638
																			1637:leaf=0.519999981
																			1638:leaf=-0
																	1486:[f1<0.759167671] yes=1583,no=1584,missing=1584
																		1583:leaf=-0
																		1584:[f8<66.25] yes=1639,no=1640,missing=1640
																			1639:leaf=1.16999996
																			1640:leaf=-0
																1366:[f4<48.7465439] yes=1487,no=1488,missing=1488
																	1487:leaf=-0
																	1488:[f9<115.25] yes=1585,no=1586,missing=1586
																		1585:[f11<75.375] yes=1641,no=1642,missing=1642
																			1641:leaf=1.36500001
																			1642:leaf=-0
																		1586:leaf=-0
															1228:leaf=-0
														1074:leaf=-0.312000006
												750:[f11<78] yes=901,no=902,missing=902
													901:[f6<144.935654] yes=1075,no=1076,missing=1076
														1075:leaf=-0
														1076:[f18<0.997558594] yes=1229,no=1230,missing=1230
															1229:[f4<36.6592064] yes=1367,no=1368,missing=1368
																1367:[f3<1.83312821] yes=1489,no=1490,missing=1490
																	1489:leaf=0.312000006
																	1490:leaf=-0
																1368:[f16<0.984863281] yes=1491,no=1492,missing=1492
																	1491:[f3<5.89353466] yes=1587,no=1588,missing=1588
																		1587:[f12<0.625] yes=1643,no=1644,missing=1644
																			1643:[f19<0.990234375] yes=1687,no=1688,missing=1688
																				1687:leaf=1.45439994
																				1688:leaf=-0
																			1644:leaf=-0
																		1588:leaf=-0
																	1492:[f14<0.750976562] yes=1589,no=1590,missing=1590
																		1589:[f0<1.80587304] yes=1645,no=1646,missing=1646
																			1645:leaf=-0.312000006
																			1646:leaf=-0
																		1590:[f0<1.96252811] yes=1647,no=1648,missing=1648
																			1647:[f8<86.3125] yes=1689,no=1690,missing=1690
																				1689:leaf=1.33714283
																				1690:leaf=-0
																			1648:[f2<1.51461172] yes=1691,no=1692,missing=1692
																				1691:leaf=-0.312000006
																				1692:[f0<4.9783802] yes=1723,no=1724,missing=1724
																					1723:leaf=0.668571413
																					1724:leaf=-0
															1230:leaf=-0
													902:leaf=-0
									258:[f5<45.4604034] yes=393,no=394,missing=394
										393:[f2<1.75739539] yes=569,no=570,missing=570
											569:leaf=-0.519999981
											570:leaf=-0
										394:[f8<30.140625] yes=571,no=572,missing=572
											571:leaf=-0
											572:[f14<0.780761719] yes=751,no=752,missing=752
												751:[f18<0.646972656] yes=903,no=904,missing=904
													903:[f6<149.424988] yes=1077,no=1078,missing=1078
														1077:leaf=-0
														1078:[f17<0.0039100647] yes=1231,no=1232,missing=1232
															1231:leaf=-0
															1232:[f7<138.653473] yes=1369,no=1370,missing=1370
																1369:leaf=-0
																1370:[f15<0.162353516] yes=1493,no=1494,missing=1494
																	1493:leaf=-0
																	1494:[f13<0.583496094] yes=1591,no=1592,missing=1592
																		1591:leaf=1.4258064
																		1592:leaf=-0
													904:[f14<0.498291016] yes=1079,no=1080,missing=1080
														1079:leaf=-0.312000006
														1080:[f12<0.532226562] yes=1233,no=1234,missing=1234
															1233:[f16<0.0626831055] yes=1371,no=1372,missing=1372
																1371:[f1<0.720751941] yes=1495,no=1496,missing=1496
																	1495:leaf=-0
																	1496:leaf=-0.312000006
																1372:[f4<70.896843] yes=1497,no=1498,missing=1498
																	1497:leaf=-0
																	1498:[f0<0.439172775] yes=1593,no=1594,missing=1594
																		1593:leaf=-0
																		1594:[f2<4.550982] yes=1649,no=1650,missing=1650
																			1649:leaf=1.32888889
																			1650:leaf=-0
															1234:[f14<0.6484375] yes=1373,no=1374,missing=1374
																1373:leaf=-0.312000006
																1374:leaf=-0
												752:[f13<0.611328125] yes=905,no=906,missing=906
													905:[f15<0.105773926] yes=1081,no=1082,missing=1082
														1081:leaf=-0
														1082:leaf=1.48279476
													906:leaf=-0
					28:[f0<1.91710424] yes=49,no=50,missing=50
						49:[f3<2.27689838] yes=87,no=88,missing=88
							87:[f13<0.350585938] yes=157,no=158,missing=158
								157:leaf=1.21333337
								158:leaf=-0
							88:[f1<4.98527813] yes=159,no=160,missing=160
								159:leaf=-0.519999981
								160:leaf=-0
						50:[f7<290.225861] yes=89,no=90,missing=90
							89:[f4<179.361694] yes=161,no=162,missing=162
								161:[f8<62.8125] yes=259,no=260,missing=260
									259:[f10<96.9375] yes=395,no=396,missing=396
										395:[f16<0.99609375] yes=573,no=574,missing=574
											573:[f1<4.98527813] yes=753,no=754,missing=754
												753:[f8<30.140625] yes=907,no=908,missing=908
													907:leaf=-0
													908:[f19<0.00178718567] yes=1083,no=1084,missing=1084
														1083:leaf=-0
														1084:[f18<0.0072479248] yes=1235,no=1236,missing=1236
															1235:[f12<0.162475586] yes=1375,no=1376,missing=1376
																1375:leaf=0.312000006
																1376:leaf=-0.779999971
															1236:[f12<0.642578125] yes=1377,no=1378,missing=1378
																1377:leaf=-1.3458823
																1378:leaf=-0
												754:[f5<65.5661469] yes=909,no=910,missing=910
													909:leaf=-0.668571413
													910:leaf=0.312000006
											574:[f1<1.97716355] yes=755,no=756,missing=756
												755:[f1<0.793904841] yes=911,no=912,missing=912
													911:leaf=-0
													912:leaf=0.668571413
												756:leaf=-0.519999981
										396:[f6<188.537094] yes=575,no=576,missing=576
											575:[f5<70.6233902] yes=757,no=758,missing=758
												757:leaf=-0
												758:leaf=0.668571413
											576:leaf=-0.519999981
									260:[f1<0.877686858] yes=397,no=398,missing=398
										397:leaf=-0.519999981
										398:[f2<1.17691922] yes=577,no=578,missing=578
											577:leaf=-0
											578:leaf=0.668571413
								162:[f0<2.25577641] yes=261,no=262,missing=262
									261:[f7<105.644463] yes=399,no=400,missing=400
										399:leaf=-0
										400:leaf=-0.779999971
									262:leaf=-1.53965211
							90:leaf=0.519999981
				16:[f3<1.66453123] yes=29,no=30,missing=30
					29:[f7<196.337677] yes=51,no=52,missing=52
						51:[f6<208.070755] yes=91,no=92,missing=92
							91:[f13<0.100769043] yes=163,no=164,missing=164
								163:[f11<43.1875] yes=263,no=264,missing=264
									263:leaf=-0
									264:leaf=0.93599999
								164:leaf=-0.519999981
							92:leaf=-1.16999996
						52:[f19<0.89453125] yes=93,no=94,missing=94
							93:[f6<202.360672] yes=165,no=166,missing=166
								165:leaf=-0
								166:leaf=1.34482753
							94:leaf=-0
					30:[f6<225.421158] yes=53,no=54,missing=54
						53:[f7<144.2202] yes=95,no=96,missing=96
							95:[f5<84.941246] yes=167,no=168,missing=168
								167:[f0<5.9059186] yes=265,no=266,missing=266
									265:[f19<0.999511719] yes=401,no=402,missing=402
										401:[f17<0.00440216064] yes=579,no=580,missing=580
											579:leaf=-0
											580:leaf=-1.43859911
										402:leaf=-0
									266:leaf=-0
								168:[f4<144.987106] yes=267,no=268,missing=268
									267:[f19<0.419189453] yes=403,no=404,missing=404
										403:[f14<0.978515625] yes=581,no=582,missing=582
											581:[f0<3.06222296] yes=759,no=760,missing=760
												759:[f1<4.72987747] yes=913,no=914,missing=914
													913:[f14<0.546875] yes=1085,no=1086,missing=1086
														1085:leaf=-0
														1086:leaf=-1.16999996
													914:leaf=-0
												760:[f9<64.875] yes=915,no=916,missing=916
													915:leaf=-0.312000006
													916:leaf=0.519999981
											582:[f7<91.2621078] yes=761,no=762,missing=762
												761:[f1<4.54445076] yes=917,no=918,missing=918
													917:leaf=1.11428571
													918:leaf=-0
												762:[f1<4.01219082] yes=919,no=920,missing=920
													919:[f2<3.37489057] yes=1087,no=1088,missing=1088
														1087:leaf=-0.779999971
														1088:leaf=-0
													920:leaf=-0
										404:[f15<0.998046875] yes=583,no=584,missing=584
											583:[f3<4.65184593] yes=763,no=764,missing=764
												763:[f2<0.907172203] yes=921,no=922,missing=922
													921:leaf=-0
													922:[f1<5.52202988] yes=1089,no=1090,missing=1090
														1089:leaf=-1.33714283
														1090:leaf=-0
												764:leaf=-0
											584:[f3<3.13859344] yes=765,no=766,missing=766
												765:leaf=0.312000006
												766:leaf=-0
									268:leaf=-1.40780473
							96:[f4<140.461655] yes=169,no=170,missing=170
								169:[f18<0.290283203] yes=269,no=270,missing=270
									269:[f8<81.3125] yes=405,no=406,missing=406
										405:leaf=1.19294119
										406:[f1<0.682531059] yes=585,no=586,missing=586
											585:leaf=0.312000006
											586:leaf=-0.312000006
									270:[f10<80.125] yes=407,no=408,missing=408
										407:[f5<71.0866699] yes=587,no=588,missing=588
											587:leaf=-0
											588:leaf=-1.14399993
										408:[f5<87.6561279] yes=589,no=590,missing=590
											589:[f1<1.03396273] yes=767,no=768,missing=768
												767:leaf=-0
												768:leaf=-0.312000006
											590:leaf=0.519999981
								170:leaf=-1.23157895
						54:[f7<369.021362] yes=97,no=98,missing=98
							97:[f5<32.133461] yes=171,no=172,missing=172
								171:leaf=-0
								172:[f18<0.00475311279] yes=271,no=272,missing=272
									271:[f0<1.72585654] yes=409,no=410,missing=410
										409:[f15<0.976074219] yes=591,no=592,missing=592
											591:leaf=0.668571413
											592:[f3<4.04641056] yes=769,no=770,missing=770
												769:leaf=-0.866666675
												770:leaf=-0
										410:[f0<4.57563925] yes=593,no=594,missing=594
											593:[f3<2.07431865] yes=771,no=772,missing=772
												771:leaf=-0
												772:leaf=-1.39862061
											594:leaf=-0
									272:[f17<0.00147724152] yes=411,no=412,missing=412
										411:leaf=-0
										412:leaf=-1.53264749
							98:leaf=-0
			8:[f12<0.885253906] yes=17,no=18,missing=18
				17:[f4<138.238937] yes=31,no=32,missing=32
					31:[f14<0.479736328] yes=55,no=56,missing=56
						55:[f10<192.25] yes=99,no=100,missing=100
							99:[f3<0.481413931] yes=173,no=174,missing=174
								173:leaf=-0
								174:[f10<30.296875] yes=273,no=274,missing=274
									273:leaf=-0
									274:[f18<0.00178718567] yes=413,no=414,missing=414
										413:leaf=-0
										414:[f2<5.77625799] yes=595,no=596,missing=596
											595:[f7<13.2735815] yes=773,no=774,missing=774
												773:leaf=-0
												774:[f11<30.296875] yes=923,no=924,missing=924
													923:leaf=-0
													924:leaf=-1.28470588
											596:leaf=-0
							100:[f13<0.174926758] yes=175,no=176,missing=176
								175:[f4<128.407867] yes=275,no=276,missing=276
									275:leaf=0.519999981
									276:leaf=-0
								176:leaf=-0.519999981
						56:[f7<133.33522] yes=101,no=102,missing=102
							101:[f15<0.706054688] yes=177,no=178,missing=178
								177:[f19<0.0133590698] yes=277,no=278,missing=278
									277:[f6<191.057159] yes=415,no=416,missing=416
										415:[f13<0.170532227] yes=597,no=598,missing=598
											597:leaf=0.668571413
											598:leaf=-0
										416:leaf=-0.312000006
									278:[f2<5.28159809] yes=417,no=418,missing=418
										417:[f16<0.993164062] yes=599,no=600,missing=600
											599:[f3<1.14633691] yes=775,no=776,missing=776
												775:[f6<147.224289] yes=925,no=926,missing=926
													925:leaf=-0.93599999
													926:[f16<0.371337891] yes=1091,no=1092,missing=1092
														1091:leaf=-0
														1092:leaf=0.519999981
												776:[f15<0.462890625] yes=927,no=928,missing=928
													927:leaf=-1.43419349
													928:[f10<35.4375] yes=1093,no=1094,missing=1094
														1093:leaf=0.312000006
														1094:[f11<37.5625] yes=1237,no=1238,missing=1238
															1237:leaf=-0
															1238:[f12<0.709960938] yes=1379,no=1380,missing=1380
																1379:leaf=-0
																1380:leaf=-1.31039989
											600:leaf=-0
										418:leaf=-0
								178:[f6<198.261063] yes=279,no=280,missing=280
									279:[f6<147.942871] yes=419,no=420,missing=420
										419:[f7<77.8266678] yes=601,no=602,missing=602
											601:[f15<0.974121094] yes=777,no=778,missing=778
												777:[f19<0.683105469] yes=929,no=930,missing=930
													929:[f10<30.953125] yes=1095,no=1096,missing=1096
														1095:leaf=-0
														1096:leaf=1.16999996
													930:leaf=-0
												778:[f11<44.625] yes=931,no=932,missing=932
													931:leaf=0.519999981
													932:leaf=-0.866666675
											602:[f11<88.4375] yes=779,no=780,missing=780
												779:[f8<31.078125] yes=933,no=934,missing=934
													933:leaf=-0
													934:leaf=-1.31999993
												780:[f0<1.45704126] yes=935,no=936,missing=936
													935:[f1<0.845575809] yes=1097,no=1098,missing=1098
														1097:leaf=-0
														1098:leaf=0.519999981
													936:leaf=-0.519999981
										420:[f14<0.814941406] yes=603,no=604,missing=604
											603:[f9<51.0625] yes=781,no=782,missing=782
												781:[f19<0.10345459] yes=937,no=938,missing=938
													937:leaf=-0
													938:leaf=-0.99272722
												782:[f8<41.6875] yes=939,no=940,missing=940
													939:leaf=0.99272722
													940:[f1<1.46533585] yes=1099,no=1100,missing=1100
														1099:[f2<1.64503872] yes=1239,no=1240,missing=1240
															1239:leaf=-0
															1240:leaf=-0.779999971
														1100:leaf=-0
											604:[f18<0.962402344] yes=783,no=784,missing=784
												783:[f11<35.4375] yes=941,no=942,missing=942
													941:[f0<2.79274845] yes=1101,no=1102,missing=1102
														1101:leaf=-0.312000006
														1102:leaf=-0
													942:[f8<30.40625] yes=1103,no=1104,missing=1104
														1103:[f19<0.15222168] yes=1241,no=1242,missing=1242
															1241:leaf=0.312000006
															1242:leaf=-0.312000006
														1104:[f1<0.960578442] yes=1243,no=1244,missing=1244
															1243:leaf=-0
															1244:[f12<0.865234375] yes=1381,no=1382,missing=1382
																1381:[f2<1.09490359] yes=1499,no=1500,missing=1500
																	1499:leaf=-0
																	1500:[f17<0.00147724152] yes=1595,no=1596,missing=1596
																		1595:leaf=-0
																		1596:leaf=1.36500001
																1382:[f15<0.936523438] yes=1501,no=1502,missing=1502
																	1501:leaf=-0.312000006
																	1502:[f18<0.0094909668] yes=1597,no=1598,missing=1598
																		1597:leaf=-0
																		1598:leaf=0.93599999
												784:[f4<118.140373] yes=943,no=944,missing=944
													943:leaf=-0.668571413
													944:[f12<0.77734375] yes=1105,no=1106,missing=1106
														1105:leaf=-0
														1106:leaf=0.519999981
									280:[f11<103.375] yes=421,no=422,missing=422
										421:[f12<0.683105469] yes=605,no=606,missing=606
											605:leaf=-0
											606:leaf=-1.42628562
										422:leaf=-0
							102:[f6<198.261063] yes=179,no=180,missing=180
								179:[f6<141.367584] yes=281,no=282,missing=282
									281:[f11<74] yes=423,no=424,missing=424
										423:[f8<31.609375] yes=607,no=608,missing=608
											607:leaf=-0
											608:[f1<0.97501725] yes=785,no=786,missing=786
												785:leaf=-0
												786:leaf=-1.19294119
										424:[f5<59.0553818] yes=609,no=610,missing=610
											609:leaf=-0
											610:leaf=1.03999996
									282:[f14<0.743652344] yes=425,no=426,missing=426
										425:[f16<0.151000977] yes=611,no=612,missing=612
											611:[f8<67.0625] yes=787,no=788,missing=788
												787:leaf=-0.99272722
												788:leaf=-0
											612:[f13<0.11315918] yes=789,no=790,missing=790
												789:leaf=1.08000004
												790:[f3<0.948649347] yes=945,no=946,missing=946
													945:leaf=-0.519999981
													946:[f4<75.5118332] yes=1107,no=1108,missing=1108
														1107:leaf=-0
														1108:leaf=0.668571413
										426:[f5<51.5374069] yes=613,no=614,missing=614
											613:[f1<0.562292814] yes=791,no=792,missing=792
												791:leaf=-0
												792:leaf=-0.519999981
											614:[f2<5.77625799] yes=793,no=794,missing=794
												793:[f6<194.552048] yes=947,no=948,missing=948
													947:[f15<0.0698852539] yes=1109,no=1110,missing=1110
														1109:leaf=-0
														1110:[f12<0.683105469] yes=1245,no=1246,missing=1246
															1245:[f4<57.9529457] yes=1383,no=1384,missing=1384
																1383:leaf=-0
																1384:leaf=0.519999981
															1246:[f5<95.4898987] yes=1385,no=1386,missing=1386
																1385:[f6<143.160889] yes=1503,no=1504,missing=1504
																	1503:leaf=-0
																	1504:leaf=1.47789466
																1386:leaf=-0
													948:leaf=-0
												794:leaf=-0
								180:[f2<1.09490359] yes=283,no=284,missing=284
									283:leaf=-0
									284:[f3<0.978154421] yes=427,no=428,missing=428
										427:leaf=-0
										428:leaf=-1.29999995
					32:[f7<306.454224] yes=57,no=58,missing=58
						57:[f2<0.492328316] yes=103,no=104,missing=104
							103:leaf=-0
							104:[f10<30.484375] yes=181,no=182,missing=182
								181:[f4<158.591217] yes=285,no=286,missing=286
									285:leaf=-0
									286:leaf=-0.668571413
								182:leaf=-1.47599995
						58:[f1<0.562292814] yes=105,no=106,missing=106
							105:leaf=-0
							106:leaf=0.519999981
				18:[f12<0.959960938] yes=33,no=34,missing=34
					33:[f7<177.592834] yes=59,no=60,missing=60
						59:[f7<6.975317] yes=107,no=108,missing=108
							107:leaf=-0
							108:[f15<0.449951172] yes=183,no=184,missing=184
								183:leaf=-1.51521516
								184:[f14<0.750976562] yes=287,no=288,missing=288
									287:[f0<5.53226852] yes=429,no=430,missing=430
										429:leaf=-1.47289336
										430:leaf=-0
									288:[f6<194.552048] yes=431,no=432,missing=432
										431:[f6<155.562042] yes=615,no=616,missing=616
											615:[f7<160.915878] yes=795,no=796,missing=796
												795:[f1<3.4192102] yes=949,no=950,missing=950
													949:leaf=-1.40399992
													950:[f18<0.87890625] yes=1111,no=1112,missing=1112
														1111:[f1<3.51417613] yes=1247,no=1248,missing=1248
															1247:leaf=-0
															1248:[f8<47.28125] yes=1387,no=1388,missing=1388
																1387:leaf=-1.03999996
																1388:leaf=-0
														1112:[f0<3.52594161] yes=1249,no=1250,missing=1250
															1249:leaf=0.312000006
															1250:leaf=-0
												796:leaf=-0
											616:[f4<173.102814] yes=797,no=798,missing=798
												797:[f5<90.1843948] yes=951,no=952,missing=952
													951:[f14<0.99609375] yes=1113,no=1114,missing=1114
														1113:[f6<180.679077] yes=1251,no=1252,missing=1252
															1251:[f13<0.09765625] yes=1389,no=1390,missing=1390
																1389:leaf=-0
																1390:[f8<60.03125] yes=1505,no=1506,missing=1506
																	1505:leaf=1.27636361
																	1506:leaf=-0
															1252:[f5<77.2123718] yes=1391,no=1392,missing=1392
																1391:leaf=-0.668571413
																1392:[f7<122.852203] yes=1507,no=1508,missing=1508
																	1507:leaf=0.779999971
																	1508:leaf=-0
														1114:[f6<184.680542] yes=1253,no=1254,missing=1254
															1253:leaf=-0.866666675
															1254:leaf=-0
													952:[f0<4.20423698] yes=1115,no=1116,missing=1116
														1115:leaf=-0.99272722
														1116:leaf=-0
												798:[f9<61.875] yes=953,no=954,missing=954
													953:leaf=-1.16999996
													954:leaf=-0
										432:[f15<0.479736328] yes=617,no=618,missing=618
											617:leaf=-0
											618:leaf=-1.41142857
						60:[f14<0.882324219] yes=109,no=110,missing=110
							109:[f0<5.04759789] yes=185,no=186,missing=186
								185:[f8<30.296875] yes=289,no=290,missing=290
									289:leaf=-0
									290:[f2<5.64468288] yes=433,no=434,missing=434
										433:[f4<38.6705208] yes=619,no=620,missing=620
											619:leaf=-0
											620:[f15<0.07421875] yes=799,no=800,missing=800
												799:leaf=-0
												800:leaf=-1.41818178
										434:leaf=-0
								186:[f0<5.1820631] yes=291,no=292,missing=292
									291:leaf=0.312000006
									292:leaf=-0
							110:[f6<192.292557] yes=187,no=188,missing=188
								187:[f6<134.886093] yes=293,no=294,missing=294
									293:[f8<30.84375] yes=435,no=436,missing=436
										435:leaf=-0
										436:leaf=-0.312000006
									294:[f5<95.8582535] yes=437,no=438,missing=438
										437:leaf=1.32888889
										438:leaf=-0
								188:[f0<0.974713564] yes=295,no=296,missing=296
									295:leaf=-0
									296:leaf=-1.03999996
					34:leaf=-1.53040648
		4:[f13<0.877929688] yes=9,no=10,missing=10
			9:[f7<159.561081] yes=19,no=20,missing=20
				19:[f15<0.384521484] yes=35,no=36,missing=36
					35:[f7<6.975317] yes=61,no=62,missing=62
						61:leaf=-0
						62:[f11<30.484375] yes=111,no=112,missing=112
							111:[f6<152.769623] yes=189,no=190,missing=190
								189:leaf=-0
								190:leaf=-0.668571413
							112:leaf=-1.49260795
					36:[f14<0.85546875] yes=63,no=64,missing=64
						63:[f14<0.245483398] yes=113,no=114,missing=114
							113:[f9<167.875] yes=191,no=192,missing=192
								191:[f10<152.25] yes=297,no=298,missing=298
									297:leaf=-1.47816396
									298:leaf=-0
								192:leaf=-0
							114:[f2<0.907172203] yes=193,no=194,missing=194
								193:[f11<54.625] yes=299,no=300,missing=300
									299:leaf=0.519999981
									300:[f2<0.871958017] yes=439,no=440,missing=440
										439:leaf=-0.668571413
										440:leaf=-0
								194:[f16<0.00304603577] yes=301,no=302,missing=302
									301:leaf=-0
									302:[f17<0.999511719] yes=441,no=442,missing=442
										441:[f7<145.473755] yes=621,no=622,missing=622
											621:[f3<5.89353466] yes=801,no=802,missing=802
												801:[f10<30.296875] yes=955,no=956,missing=956
													955:leaf=-0
													956:leaf=-1.24432933
												802:leaf=-0
											622:[f0<1.6230675] yes=803,no=804,missing=804
												803:[f14<0.333007812] yes=957,no=958,missing=958
													957:leaf=-0.312000006
													958:leaf=0.779999971
												804:[f1<2.40479231] yes=959,no=960,missing=960
													959:leaf=-1.14399993
													960:leaf=-0
										442:leaf=-0
						64:[f6<197.373489] yes=115,no=116,missing=116
							115:[f4<151.157532] yes=195,no=196,missing=196
								195:[f3<1.16190219] yes=303,no=304,missing=304
									303:[f10<86.6875] yes=443,no=444,missing=444
										443:leaf=-1.27636361
										444:[f5<81.4422836] yes=623,no=624,missing=624
											623:leaf=0.312000006
											624:leaf=-0
									304:[f15<0.892578125] yes=445,no=446,missing=446
										445:[f5<59.0553818] yes=625,no=626,missing=626
											625:leaf=-1.11428571
											626:[f12<0.23815918] yes=805,no=806,missing=806
												805:[f17<0.0353088379] yes=961,no=962,missing=962
													961:leaf=-0.99272722
													962:[f13<0.805175781] yes=1117,no=1118,missing=1118
														1117:[f0<4.25935268] yes=1255,no=1256,missing=1256
															1255:[f5<90.4969101] yes=1393,no=1394,missing=1394
																1393:leaf=1.32888889
																1394:leaf=-0
															1256:leaf=-0
														1118:[f1<1.34756005] yes=1257,no=1258,missing=1258
															1257:leaf=0.668571413
															1258:[f5<74.8106995] yes=1395,no=1396,missing=1396
																1395:[f2<5.28159809] yes=1509,no=1510,missing=1510
																	1509:leaf=0.519999981
																	1510:leaf=-0
																1396:leaf=-0.93599999
												806:[f7<125.379822] yes=963,no=964,missing=964
													963:[f16<0.940429688] yes=1119,no=1120,missing=1120
														1119:[f9<42.46875] yes=1259,no=1260,missing=1260
															1259:[f19<0.0953369141] yes=1397,no=1398,missing=1398
																1397:leaf=0.312000006
																1398:[f3<2.12676477] yes=1511,no=1512,missing=1512
																	1511:leaf=-0.519999981
																	1512:leaf=-0
															1260:[f8<65.0625] yes=1399,no=1400,missing=1400
																1399:leaf=-1.27636361
																1400:leaf=-0
														1120:leaf=-0
													964:leaf=0.519999981
										446:[f10<61.78125] yes=627,no=628,missing=628
											627:[f3<1.76062322] yes=807,no=808,missing=808
												807:[f6<145.709763] yes=965,no=966,missing=966
													965:leaf=-0.93599999
													966:[f19<0.0733642578] yes=1121,no=1122,missing=1122
														1121:leaf=-0
														1122:leaf=0.519999981
												808:[f7<97.3388367] yes=967,no=968,missing=968
													967:[f6<152.115509] yes=1123,no=1124,missing=1124
														1123:[f14<0.926757812] yes=1261,no=1262,missing=1262
															1261:leaf=-0
															1262:leaf=1.08000004
														1124:[f17<0.810058594] yes=1263,no=1264,missing=1264
															1263:[f5<76.0401611] yes=1401,no=1402,missing=1402
																1401:[f0<3.68070054] yes=1513,no=1514,missing=1514
																	1513:leaf=0.312000006
																	1514:leaf=-0
																1402:[f10<31.703125] yes=1515,no=1516,missing=1516
																	1515:leaf=-0
																	1516:[f17<0.153320312] yes=1599,no=1600,missing=1600
																		1599:leaf=-0
																		1600:leaf=-1.16999996
															1264:[f15<0.989746094] yes=1403,no=1404,missing=1404
																1403:leaf=0.866666675
																1404:[f0<0.64260453] yes=1517,no=1518,missing=1518
																	1517:leaf=-0
																	1518:leaf=-0.312000006
													968:[f3<4.73243093] yes=1125,no=1126,missing=1126
														1125:leaf=1.29999995
														1126:leaf=-0
											628:[f8<46.375] yes=809,no=810,missing=810
												809:[f7<11.7793512] yes=969,no=970,missing=970
													969:leaf=-0
													970:[f14<0.999023438] yes=1127,no=1128,missing=1128
														1127:[f19<0.974121094] yes=1265,no=1266,missing=1266
															1265:leaf=1.33170736
															1266:leaf=-0
														1128:leaf=-0
												810:[f5<88.3675537] yes=971,no=972,missing=972
													971:leaf=-0.312000006
													972:leaf=0.312000006
								196:[f13<0.825683594] yes=305,no=306,missing=306
									305:[f13<0.637207031] yes=447,no=448,missing=448
										447:leaf=-0
										448:[f19<0.00339317322] yes=629,no=630,missing=630
											629:leaf=-0
											630:leaf=-1.40780473
									306:[f6<160.359268] yes=449,no=450,missing=450
										449:leaf=-0.668571413
										450:[f3<5.18744993] yes=631,no=632,missing=632
											631:leaf=0.519999981
											632:leaf=-0
							116:[f5<97.142128] yes=197,no=198,missing=198
								197:[f2<1.03139162] yes=307,no=308,missing=308
									307:leaf=-0
									308:[f3<1.91950488] yes=451,no=452,missing=452
										451:leaf=-0
										452:leaf=-1.51686633
								198:leaf=-0
				20:[f14<0.874511719] yes=37,no=38,missing=38
					37:[f14<0.449951172] yes=65,no=66,missing=66
						65:[f1<5.75081253] yes=117,no=118,missing=118
							117:[f2<0.492328316] yes=199,no=200,missing=200
								199:leaf=-0
								200:[f0<5.9059186] yes=309,no=310,missing=310
									309:[f0<0.439172775] yes=453,no=454,missing=454
										453:[f3<0.704936147] yes=633,no=634,missing=634
											633:leaf=-0.312000006
											634:leaf=-0
										454:[f9<39.03125] yes=635,no=636,missing=636
											635:leaf=-0
											636:leaf=-1.39904749
									310:leaf=-0
							118:[f10<43.40625] yes=201,no=202,missing=202
								201:leaf=0.312000006
								202:leaf=-0.312000006
						66:[f0<1.44123101] yes=119,no=120,missing=120
							119:[f1<0.943198562] yes=203,no=204,missing=204
								203:[f8<54.09375] yes=311,no=312,missing=312
									311:[f2<0.742236376] yes=455,no=456,missing=456
										455:leaf=-0
										456:leaf=-1.14399993
									312:[f13<0.698730469] yes=457,no=458,missing=458
										457:leaf=0.779999971
										458:[f2<0.970943332] yes=637,no=638,missing=638
											637:leaf=-0
											638:leaf=-0.779999971
								204:[f18<0.783203125] yes=313,no=314,missing=314
									313:[f19<0.0733642578] yes=459,no=460,missing=460
										459:[f0<1.07850754] yes=639,no=640,missing=640
											639:leaf=-0.312000006
											640:leaf=-0
										460:leaf=1.16999996
									314:[f5<83.969696] yes=461,no=462,missing=462
										461:leaf=-0.668571413
										462:leaf=-0
							120:[f3<0.948649347] yes=205,no=206,missing=206
								205:[f0<2.19439387] yes=315,no=316,missing=316
									315:leaf=0.312000006
									316:[f3<0.871480107] yes=463,no=464,missing=464
										463:leaf=-0.519999981
										464:leaf=-0
								206:[f2<5.77625799] yes=317,no=318,missing=318
									317:[f17<0.960449219] yes=465,no=466,missing=466
										465:leaf=-1.36500001
										466:leaf=-0
									318:leaf=-0
					38:[f6<204.075043] yes=67,no=68,missing=68
						67:[f15<0.350341797] yes=121,no=122,missing=122
							121:[f0<1.45704126] yes=207,no=208,missing=208
								207:[f2<1.18805778] yes=319,no=320,missing=320
									319:leaf=0.93599999
									320:leaf=-0
								208:leaf=-1.14399993
							122:[f5<60.0411034] yes=209,no=210,missing=210
								209:[f4<100.642593] yes=321,no=322,missing=322
									321:leaf=-0.519999981
									322:[f0<2.54150009] yes=467,no=468,missing=468
										467:leaf=0.312000006
										468:leaf=-0
								210:[f1<0.524742186] yes=323,no=324,missing=324
									323:leaf=-0
									324:[f4<55.6169662] yes=469,no=470,missing=470
										469:[f11<65.625] yes=641,no=642,missing=642
											641:leaf=-0
											642:leaf=0.312000006
										470:[f6<201.295761] yes=643,no=644,missing=644
											643:[f15<0.997070312] yes=811,no=812,missing=812
												811:leaf=1.4890908
												812:[f4<81.9232635] yes=973,no=974,missing=974
													973:leaf=-0
													974:leaf=0.312000006
											644:leaf=-0
						68:[f2<2.00151205] yes=123,no=124,missing=124
							123:leaf=-0
							124:leaf=-1.39578938
			10:[f13<0.947265625] yes=21,no=22,missing=22
				21:[f14<0.814941406] yes=39,no=40,missing=40
					39:[f2<0.492328316] yes=69,no=70,missing=70
						69:[f18<0.898925781] yes=125,no=126,missing=126
							125:leaf=-0.312000006
							126:leaf=-0
						70:leaf=-1.49958169
					40:[f15<0.905273438] yes=71,no=72,missing=72
						71:[f7<179.888489] yes=127,no=128,missing=128
							127:[f12<0.999023438] yes=211,no=212,missing=212
								211:leaf=-1.45192766
								212:leaf=-0
							128:[f6<193.756699] yes=213,no=214,missing=214
								213:[f10<65.25] yes=325,no=326,missing=326
									325:[f9<112.1875] yes=471,no=472,missing=472
										471:leaf=-0.312000006
										472:[f0<1.32482922] yes=645,no=646,missing=646
											645:leaf=0.312000006
											646:leaf=-0
									326:leaf=1.08000004
								214:leaf=-1.08000004
						72:[f6<206.454315] yes=129,no=130,missing=130
							129:[f4<159.790756] yes=215,no=216,missing=216
								215:[f6<156.853439] yes=327,no=328,missing=328
									327:[f4<89.3821335] yes=473,no=474,missing=474
										473:[f1<4.89525747] yes=647,no=648,missing=648
											647:[f10<66.3125] yes=813,no=814,missing=814
												813:leaf=-1.14399993
												814:leaf=-0
											648:leaf=-0
										474:[f12<0.119995117] yes=649,no=650,missing=650
											649:[f2<0.632015049] yes=815,no=816,missing=816
												815:leaf=-0
												816:leaf=-0.519999981
											650:[f4<142.542236] yes=817,no=818,missing=818
												817:[f2<0.9383654] yes=975,no=976,missing=976
													975:leaf=-0
													976:leaf=0.99272722
												818:leaf=-0
									328:[f5<66.9189453] yes=475,no=476,missing=476
										475:[f0<4.47916365] yes=651,no=652,missing=652
											651:leaf=-0.668571413
											652:leaf=-0
										476:[f7<41.522171] yes=653,no=654,missing=654
											653:[f14<0.994628906] yes=819,no=820,missing=820
												819:[f6<167.534927] yes=977,no=978,missing=978
													977:leaf=-0
													978:leaf=-0.519999981
												820:leaf=0.312000006
											654:[f15<0.999023438] yes=821,no=822,missing=822
												821:[f1<4.98527813] yes=979,no=980,missing=980
													979:[f4<32.0594978] yes=1129,no=1130,missing=1130
														1129:leaf=-0
														1130:[f17<0.019241333] yes=1267,no=1268,missing=1268
															1267:leaf=-0
															1268:[f5<71.5988693] yes=1405,no=1406,missing=1406
																1405:leaf=-0
																1406:leaf=1.37090898
													980:leaf=-0
												822:[f14<0.905273438] yes=981,no=982,missing=982
													981:leaf=0.312000006
													982:leaf=-0.312000006
								216:leaf=-1.11428571
							130:leaf=-1.38171422
				22:leaf=-1.53603268
	2:[f5<105.306938] yes=5,no=6,missing=6
		5:[f13<0.501464844] yes=11,no=12,missing=12
			11:[f12<0.505859375] yes=23,no=24,missing=24
				23:[f6<215.936203] yes=41,no=42,missing=42
					41:[f4<141.938965] yes=73,no=74,missing=74
						73:[f6<168.946365] yes=131,no=132,missing=132
							131:[f1<1.84657192] yes=217,no=218,missing=218
								217:[f5<100.496735] yes=329,no=330,missing=330
									329:leaf=1.14399993
									330:[f5<103.428566] yes=477,no=478,missing=478
										477:[f2<1.91961181] yes=655,no=656,missing=656
											655:leaf=-0.93599999
											656:leaf=-0
										478:leaf=-0
								218:[f19<0.616210938] yes=331,no=332,missing=332
									331:[f16<0.956542969] yes=479,no=480,missing=480
										479:leaf=-1.33714283
										480:[f17<0.288085938] yes=657,no=658,missing=658
											657:leaf=0.312000006
											658:leaf=-0.312000006
									332:[f5<99.7141342] yes=481,no=482,missing=482
										481:leaf=-0.519999981
										482:[f3<2.68908477] yes=659,no=660,missing=660
											659:leaf=0.779999971
											660:leaf=-0
							132:[f7<66.0604477] yes=219,no=220,missing=220
								219:[f10<59.53125] yes=333,no=334,missing=334
									333:[f1<3.08255315] yes=483,no=484,missing=484
										483:leaf=1.11428571
										484:[f4<98.0569077] yes=661,no=662,missing=662
											661:leaf=-0.312000006
											662:[f0<4.06601095] yes=823,no=824,missing=824
												823:leaf=0.312000006
												824:leaf=-0
									334:[f17<0.983398438] yes=485,no=486,missing=486
										485:[f4<135.603561] yes=663,no=664,missing=664
											663:[f2<1.16174555] yes=825,no=826,missing=826
												825:leaf=-0
												826:leaf=-1.08000004
											664:leaf=-0
										486:leaf=-0
								220:[f9<44.40625] yes=335,no=336,missing=336
									335:leaf=-0
									336:[f13<0.465087891] yes=487,no=488,missing=488
										487:[f6<214.908188] yes=665,no=666,missing=666
											665:[f5<104.704124] yes=827,no=828,missing=828
												827:[f6<170.638504] yes=983,no=984,missing=984
													983:leaf=-0
													984:leaf=1.34232557
												828:leaf=-0
											666:leaf=-0
										488:leaf=-0
						74:[f0<2.09999156] yes=133,no=134,missing=134
							133:[f6<163.293198] yes=221,no=222,missing=222
								221:leaf=-0
								222:leaf=0.668571413
							134:[f10<107.9375] yes=223,no=224,missing=224
								223:leaf=-1.352
								224:leaf=-0
					42:[f3<1.86866081] yes=75,no=76,missing=76
						75:leaf=0.519999981
						76:[f10<33.3125] yes=135,no=136,missing=136
							135:leaf=-0
							136:leaf=-1.49266183
				24:[f12<0.796386719] yes=43,no=44,missing=44
					43:[f7<278.379303] yes=77,no=78,missing=78
						77:[f19<0.00475311279] yes=137,no=138,missing=138
							137:leaf=-0
							138:[f7<122.852203] yes=225,no=226,missing=226
								225:leaf=-1.44695652
								226:[f10<33.53125] yes=337,no=338,missing=338
									337:[f0<0.824924767] yes=489,no=490,missing=490
										489:leaf=-0
										490:leaf=0.312000006
									338:[f18<0.0395507812] yes=491,no=492,missing=492
										491:[f2<2.12493706] yes=667,no=668,missing=668
											667:[f5<100.036011] yes=829,no=830,missing=830
												829:leaf=-0.779999971
												830:leaf=-0
											668:[f2<2.78947043] yes=831,no=832,missing=832
												831:leaf=0.519999981
												832:leaf=-0
										492:[f11<155.375] yes=669,no=670,missing=670
											669:[f3<0.552229404] yes=833,no=834,missing=834
												833:leaf=-0
												834:[f9<41.5] yes=985,no=986,missing=986
													985:leaf=-0
													986:[f2<1.16174555] yes=1131,no=1132,missing=1132
														1131:[f1<1.53282881] yes=1269,no=1270,missing=1270
															1269:leaf=-0
															1270:leaf=-0.312000006
														1132:leaf=-1.42723405
											670:leaf=-0
						78:[f14<0.462890625] yes=139,no=140,missing=140
							139:leaf=-0.779999971
							140:[f0<0.604440689] yes=227,no=228,missing=228
								227:leaf=-0
								228:leaf=0.779999971
					44:leaf=-1.52601302
			12:leaf=-1.49796176
		6:[f13<0.501464844] yes=13,no=14,missing=14
			13:[f12<0.490478516] yes=25,no=26,missing=26
				25:[f0<2.11749077] yes=45,no=46,missing=46
					45:[f11<63.6875] yes=79,no=80,missing=80
						79:[f5<114.666977] yes=141,no=142,missing=142
							141:[f3<1.47655284] yes=229,no=230,missing=230
								229:[f6<164.276871] yes=339,no=340,missing=340
									339:[f0<1.70820248] yes=493,no=494,missing=494
										493:leaf=-0.519999981
										494:leaf=-0
									340:[f0<0.873172104] yes=495,no=496,missing=496
										495:leaf=-0
										496:leaf=1.16999996
								230:[f15<0.956542969] yes=341,no=342,missing=342
									341:[f4<96.9847565] yes=497,no=498,missing=498
										497:leaf=-1.24800003
										498:leaf=-0
									342:[f7<108.771309] yes=499,no=500,missing=500
										499:leaf=0.668571413
										500:[f1<3.61121583] yes=671,no=672,missing=672
											671:leaf=-0.519999981
											672:leaf=-0
							142:[f14<0.999023438] yes=231,no=232,missing=232
								231:[f17<0.999023438] yes=343,no=344,missing=344
									343:[f0<2.09999156] yes=501,no=502,missing=502
										501:[f9<193] yes=673,no=674,missing=674
											673:[f10<32.1875] yes=835,no=836,missing=836
												835:leaf=-0
												836:[f19<0.032043457] yes=987,no=988,missing=988
													987:[f10<124] yes=1133,no=1134,missing=1134
														1133:[f9<64.3125] yes=1271,no=1272,missing=1272
															1271:leaf=-0
															1272:leaf=-0.99272722
														1134:leaf=-0
													988:leaf=-1.44857132
											674:leaf=-0
										502:leaf=-0
									344:leaf=-0
								232:[f8<46.0625] yes=345,no=346,missing=346
									345:leaf=-0.312000006
									346:[f1<1.31184065] yes=503,no=504,missing=504
										503:leaf=-0
										504:leaf=0.312000006
						80:[f14<0.962890625] yes=143,no=144,missing=144
							143:[f14<0.641601562] yes=233,no=234,missing=234
								233:[f19<0.165405273] yes=347,no=348,missing=348
									347:[f0<1.52116394] yes=505,no=506,missing=506
										505:[f5<113.582153] yes=675,no=676,missing=676
											675:leaf=-0
											676:leaf=-0.779999971
										506:[f3<1.58230639] yes=677,no=678,missing=678
											677:leaf=-0
											678:leaf=0.519999981
									348:[f3<5.50373077] yes=507,no=508,missing=508
										507:leaf=-1.33714283
										508:leaf=-0
								234:[f17<0.0971679688] yes=349,no=350,missing=350
									349:[f4<92.633606] yes=509,no=510,missing=510
										509:[f4<64.9980316] yes=679,no=680,missing=680
											679:leaf=-0
											680:leaf=-0.779999971
										510:[f3<4.86333895] yes=681,no=682,missing=682
											681:leaf=1.21333337
											682:leaf=-0
									350:[f16<0.970214844] yes=511,no=512,missing=512
										511:[f3<0.552229404] yes=683,no=684,missing=684
											683:leaf=0.312000006
											684:[f0<0.848487854] yes=837,no=838,missing=838
												837:[f2<1.08486652] yes=989,no=990,missing=990
													989:[f0<0.64260453] yes=1135,no=1136,missing=1136
														1135:leaf=-0.519999981
														1136:leaf=-0
													990:leaf=0.312000006
												838:[f18<0.032043457] yes=991,no=992,missing=992
													991:[f0<1.74218452] yes=1137,no=1138,missing=1138
														1137:[f3<3.5075779] yes=1273,no=1274,missing=1274
															1273:leaf=0.312000006
															1274:leaf=-0
														1138:leaf=-0.312000006
													992:[f8<36.65625] yes=1139,no=1140,missing=1140
														1139:leaf=-0
														1140:leaf=-1.28869557
										512:[f15<0.921386719] yes=685,no=686,missing=686
											685:[f18<0.419189453] yes=839,no=840,missing=840
												839:[f1<2.34075642] yes=993,no=994,missing=994
													993:leaf=0.312000006
													994:leaf=-0
												840:leaf=-0.312000006
											686:leaf=0.779999971
							144:[f6<317.24942] yes=235,no=236,missing=236
								235:[f9<46.125] yes=351,no=352,missing=352
									351:leaf=-0
									352:[f19<0.00270080566] yes=513,no=514,missing=514
										513:leaf=-0
										514:[f0<0.439172775] yes=687,no=688,missing=688
											687:leaf=-0
											688:[f7<20.9785862] yes=841,no=842,missing=842
												841:leaf=-0
												842:[f15<0.13269043] yes=995,no=996,missing=996
													995:leaf=-0
													996:[f8<30.84375] yes=1141,no=1142,missing=1142
														1141:leaf=-0
														1142:leaf=1.38339627
								236:[f0<0.702510417] yes=353,no=354,missing=354
									353:leaf=-0
									354:leaf=-0.779999971
					46:[f4<145.791534] yes=81,no=82,missing=82
						81:[f14<0.995605469] yes=145,no=146,missing=146
							145:[f0<4.9783802] yes=237,no=238,missing=238
								237:[f8<36.75] yes=355,no=356,missing=356
									355:[f13<0.178833008] yes=515,no=516,missing=516
										515:[f15<0.829101562] yes=689,no=690,missing=690
											689:leaf=-0.668571413
											690:[f0<2.45972252] yes=843,no=844,missing=844
												843:leaf=-0
												844:[f4<134.327576] yes=997,no=998,missing=998
													997:leaf=1.03999996
													998:leaf=-0
										516:[f17<0.884765625] yes=691,no=692,missing=692
											691:leaf=-1.23157895
											692:[f12<0.165893555] yes=845,no=846,missing=846
												845:leaf=-0.312000006
												846:[f2<2.87568116] yes=999,no=1000,missing=1000
													999:leaf=0.312000006
													1000:leaf=-0
									356:[f5<105.735962] yes=517,no=518,missing=518
										517:leaf=-0
										518:[f1<4.80683327] yes=693,no=694,missing=694
											693:[f4<144.987106] yes=847,no=848,missing=848
												847:leaf=-1.34333324
												848:leaf=-0
											694:[f1<5.14250708] yes=849,no=850,missing=850
												849:leaf=-0
												850:leaf=-0.312000006
								238:[f14<0.809570312] yes=357,no=358,missing=358
									357:leaf=-1.08000004
									358:[f18<0.319091797] yes=519,no=520,missing=520
										519:[f13<0.0679931641] yes=695,no=696,missing=696
											695:leaf=-0
											696:leaf=0.93599999
										520:[f2<2.34737086] yes=697,no=698,missing=698
											697:leaf=-0
											698:leaf=-0.312000006
							146:[f7<84.5690079] yes=239,no=240,missing=240
								239:[f15<0.976074219] yes=359,no=360,missing=360
									359:[f0<4.9783802] yes=521,no=522,missing=522
										521:leaf=-1.24800003
										522:leaf=-0
									360:[f4<133.769455] yes=523,no=524,missing=524
										523:leaf=0.519999981
										524:leaf=-0
								240:[f16<0.782226562] yes=361,no=362,missing=362
									361:[f5<153.76474] yes=525,no=526,missing=526
										525:[f6<297.43985] yes=699,no=700,missing=700
											699:leaf=1.14399993
											700:leaf=-0
										526:leaf=-0
									362:[f1<2.15190196] yes=527,no=528,missing=528
										527:leaf=-0
										528:leaf=-0.668571413
						82:[f19<0.00270080566] yes=147,no=148,missing=148
							147:[f0<3.61705065] yes=241,no=242,missing=242
								241:leaf=-0
								242:leaf=-0.312000006
							148:leaf=-1.50222218
				26:leaf=-1.54175651
			14:leaf=-1.55142927
booster[1]:
0:[f5<98.8049393] yes=1,no=2,missing=2
	1:[f13<0.760253906] yes=3,no=4,missing=4
		3:[f6<210.028915] yes=7,no=8,missing=8
			7:[f12<0.812988281] yes=15,no=16,missing=16
				15:[f4<152.074219] yes=29,no=30,missing=30
					29:[f14<0.384521484] yes=51,no=52,missing=52
						51:[f4<104.317245] yes=87,no=88,missing=88
							87:[f18<0.032043457] yes=141,no=142,missing=142
								141:[f2<1.82712793] yes=225,no=226,missing=226
									225:[f5<68.284668] yes=345,no=346,missing=346
										345:leaf=-0.160946026
										346:[f17<0.815429688] yes=489,no=490,missing=490
											489:leaf=1.16291583
											490:leaf=-0
									226:[f0<0.702510417] yes=347,no=348,missing=348
										347:leaf=-0
										348:[f17<0.019241333] yes=491,no=492,missing=492
											491:leaf=-0
											492:leaf=-0.642662585
								142:[f10<30.484375] yes=227,no=228,missing=228
									227:leaf=-0
									228:[f17<0.998046875] yes=349,no=350,missing=350
										349:[f2<0.537029326] yes=493,no=494,missing=494
											493:leaf=-0
											494:[f12<0.808105469] yes=661,no=662,missing=662
												661:[f9<185.75] yes=847,no=848,missing=848
													847:[f10<185.75] yes=989,no=990,missing=990
														989:[f19<0.00339317322] yes=1113,no=1114,missing=1114
															1113:leaf=-0
															1114:[f13<0.745117188] yes=1211,no=1212,missing=1212
																1211:leaf=-0.843359292
																1212:[f1<1.84657192] yes=1305,no=1306,missing=1306
																	1305:leaf=-0.218627825
																	1306:leaf=-0
														990:leaf=-0
													848:leaf=-0
												662:leaf=-0
										350:[f2<3.74094462] yes=495,no=496,missing=496
											495:leaf=-0.268607438
											496:leaf=0.246903747
							88:[f1<1.81628644] yes=143,no=144,missing=144
								143:[f5<70.6233902] yes=229,no=230,missing=230
									229:[f12<0.719726562] yes=351,no=352,missing=352
										351:[f16<0.991699219] yes=497,no=498,missing=498
											497:[f8<67.0625] yes=663,no=664,missing=664
												663:[f19<0.998046875] yes=849,no=850,missing=850
													849:[f6<115.474663] yes=991,no=992,missing=992
														991:leaf=-0
														992:[f2<0.632015049] yes=1115,no=1116,missing=1116
															1115:leaf=-0
															1116:leaf=-0.897061527
													850:leaf=-0
												664:leaf=-0
											498:leaf=-0
										352:[f6<151.467606] yes=499,no=500,missing=500
											499:[f0<4.77322912] yes=665,no=666,missing=666
												665:leaf=-0.291943103
												666:leaf=-0
											500:leaf=0.539867342
									230:[f14<0.122680664] yes=353,no=354,missing=354
										353:[f10<52.4375] yes=501,no=502,missing=502
											501:[f19<0.718261719] yes=667,no=668,missing=668
												667:[f1<0.960578442] yes=851,no=852,missing=852
													851:leaf=-0
													852:leaf=-0.205646276
												668:[f4<131.902481] yes=853,no=854,missing=854
													853:[f1<1.65329349] yes=993,no=994,missing=994
														993:leaf=1.69236696
														994:leaf=-0
													854:leaf=-0
											502:[f17<0.983398438] yes=669,no=670,missing=670
												669:leaf=-0.826294363
												670:leaf=-0
										354:[f15<0.892578125] yes=503,no=504,missing=504
											503:[f7<369.021362] yes=671,no=672,missing=672
												671:[f6<157.934921] yes=855,no=856,missing=856
													855:leaf=-0
													856:[f12<0.762695312] yes=995,no=996,missing=996
														995:[f1<1.57055914] yes=1117,no=1118,missing=1118
															1117:[f2<4.87966824] yes=1213,no=1214,missing=1214
																1213:leaf=2.24707341
																1214:leaf=-0
															1118:leaf=-0
														996:leaf=-0
												672:leaf=-0
											504:[f12<0.157104492] yes=673,no=674,missing=674
												673:[f18<0.479980469] yes=857,no=858,missing=858
													857:[f6<182.106125] yes=997,no=998,missing=998
														997:leaf=1.66122925
														998:leaf=-0
													858:leaf=-0
												674:[f13<0.105651855] yes=859,no=860,missing=860
													859:[f4<118.981064] yes=999,no=1000,missing=1000
														999:leaf=-0
														1000:leaf=1.1296767
													860:[f13<0.583496094] yes=1001,no=1002,missing=1002
														1001:[f8<62.5] yes=1119,no=1120,missing=1120
															1119:leaf=-0.769967079
															1120:leaf=-0
														1002:[f2<1.80044961] yes=1121,no=1122,missing=1122
															1121:leaf=-0.0209289864
															1122:[f3<2.1959126] yes=1215,no=1216,missing=1216
																1215:leaf=0.799144745
																1216:leaf=-0
								144:[f13<0.0574951172] yes=231,no=232,missing=232
									231:[f12<0.532226562] yes=355,no=356,missing=356
										355:leaf=0.543707192
										356:leaf=-0.0853020623
									232:[f18<0.00339317322] yes=357,no=358,missing=358
										357:leaf=-0
										358:[f8<65.5] yes=505,no=506,missing=506
											505:[f0<0.955290318] yes=675,no=676,missing=676
												675:leaf=-0
												676:[f17<0.0158996582] yes=861,no=862,missing=862
													861:[f10<78.4375] yes=1003,no=1004,missing=1004
														1003:leaf=-0.0395717584
														1004:leaf=-0
													862:[f3<0.78994137] yes=1005,no=1006,missing=1006
														1005:leaf=-0
														1006:leaf=-0.917541742
											506:leaf=-0
						52:[f7<162.735901] yes=89,no=90,missing=90
							89:[f15<0.306640625] yes=145,no=146,missing=146
								145:[f12<0.21105957] yes=233,no=234,missing=234
									233:[f17<0.311035156] yes=359,no=360,missing=360
										359:[f9<84.625] yes=507,no=508,missing=508
											507:[f16<0.997558594] yes=677,no=678,missing=678
												677:[f8<64.75] yes=863,no=864,missing=864
													863:[f7<23.7347088] yes=1007,no=1008,missing=1008
														1007:leaf=-0
														1008:leaf=-0.875463367
													864:leaf=-0
												678:leaf=-0
											508:[f6<169.80661] yes=679,no=680,missing=680
												679:leaf=-0
												680:leaf=0.274320036
										360:[f16<0.324462891] yes=509,no=510,missing=510
											509:[f19<0.608886719] yes=681,no=682,missing=682
												681:leaf=1.29545569
												682:leaf=-0
											510:[f3<3.75293279] yes=683,no=684,missing=684
												683:[f19<0.0525512695] yes=865,no=866,missing=866
													865:[f4<94.8715286] yes=1009,no=1010,missing=1010
														1009:leaf=0.321202099
														1010:leaf=-0
													866:[f0<4.47916365] yes=1011,no=1012,missing=1012
														1011:leaf=-0.68223244
														1012:leaf=-0
												684:[f19<0.930175781] yes=867,no=868,missing=868
													867:[f4<93.5917969] yes=1013,no=1014,missing=1014
														1013:leaf=0.987365246
														1014:leaf=-0
													868:leaf=-0
									234:[f2<4.84248781] yes=361,no=362,missing=362
										361:[f5<98.4090652] yes=511,no=512,missing=512
											511:[f9<136.75] yes=685,no=686,missing=686
												685:[f13<0.0611877441] yes=869,no=870,missing=870
													869:leaf=-0
													870:[f11<82.375] yes=1015,no=1016,missing=1016
														1015:[f16<0.997070312] yes=1123,no=1124,missing=1124
															1123:[f19<0.00270080566] yes=1217,no=1218,missing=1218
																1217:leaf=-0
																1218:[f10<109.25] yes=1307,no=1308,missing=1308
																	1307:leaf=-0.913286984
																	1308:leaf=-0
															1124:leaf=-0
														1016:[f0<1.09471691] yes=1125,no=1126,missing=1126
															1125:[f0<0.782399952] yes=1219,no=1220,missing=1220
																1219:leaf=-0
																1220:leaf=0.748310566
															1126:[f11<83.5625] yes=1221,no=1222,missing=1222
																1221:leaf=-0
																1222:leaf=-0.644710064
												686:leaf=-0
											512:leaf=-0
										362:[f10<60.84375] yes=513,no=514,missing=514
											513:[f2<4.87966824] yes=687,no=688,missing=688
												687:leaf=-0
												688:leaf=-0.165041402
											514:leaf=0.441785783
								146:[f6<130.832199] yes=235,no=236,missing=236
									235:[f9<36.375] yes=363,no=364,missing=364
										363:[f16<0.782226562] yes=515,no=516,missing=516
											515:[f6<118.229271] yes=689,no=690,missing=690
												689:[f7<37.0205956] yes=871,no=872,missing=872
													871:leaf=-0
													872:leaf=-0.371599913
												690:[f5<64.2473984] yes=873,no=874,missing=874
													873:leaf=0.150175825
													874:leaf=-0
											516:[f0<1.32482922] yes=691,no=692,missing=692
												691:leaf=-0
												692:[f12<0.23815918] yes=875,no=876,missing=876
													875:leaf=1.15095699
													876:leaf=-0
										364:[f11<127.3125] yes=517,no=518,missing=518
